<?xml version="1.0"?>
<opencv_storage>
<my_svm type_id="opencv-ml-svm">
  <svm_type>C_SVC</svm_type>
  <kernel><type>LINEAR</type></kernel>
  <C>1.</C>
  <term_criteria><epsilon>2.2204460492503131e-016</epsilon>
    <iterations>100</iterations></term_criteria>
  <var_all>900</var_all>
  <var_count>900</var_count>
  <class_count>14</class_count>
  <class_labels type_id="opencv-matrix">
    <rows>1</rows>
    <cols>14</cols>
    <dt>i</dt>
    <data>
      0 1 2 3 4 5 6 7 8 9 10 11 12 13</data></class_labels>
  <sv_total>91</sv_total>
  <support_vectors>
    <_>
      5.64352516e-003 2.64751143e-003 2.07921374e-003 -1.11791184e-002
      -3.48636694e-002 1.71729212e-003 3.62093165e-003 4.62539634e-003
      5.46801370e-003 1.45872934e-002 2.03342866e-002 2.62098424e-002
      1.53707694e-002 -3.24969739e-002 -1.43275410e-002 -6.75780838e-003
      -3.53723462e-003 3.32111522e-005 2.27223057e-002 2.18909010e-002
      1.41562028e-002 -2.50699068e-003 -1.60842463e-002 -5.77049237e-003
      -9.35452699e-004 1.12613768e-003 1.08859995e-002 2.65174918e-002
      2.69872919e-002 2.73419749e-002 6.08824543e-004 -3.95758636e-002
      -1.96506586e-002 -3.72514687e-003 5.10152720e-004 1.07316459e-002
      3.17115374e-002 1.89264845e-002 1.53183723e-002 -9.84983635e-004
      -3.75125669e-002 -3.37552577e-002 -1.42842066e-002
      -5.05805993e-003 6.86167134e-003 2.69233733e-002 -5.02364989e-003
      -1.69328898e-002 -1.91459805e-002 -2.20199768e-002
      -1.20628923e-002 -5.88795263e-003 2.77648983e-003 2.33411472e-002
      2.52608582e-002 1.81157105e-002 1.80009529e-002 -7.06868852e-003
      -3.82364392e-002 -2.70447824e-002 -6.45761564e-003 9.64921375e-004
      9.28272959e-003 1.77150760e-002 3.66211357e-003 -4.51727398e-003
      -8.36010091e-003 -1.12402765e-002 -1.17320148e-002
      -3.82984965e-003 6.89642783e-003 1.59974359e-002 2.80087497e-002
      -1.12567339e-002 -2.49709152e-002 -2.61977408e-002
      -2.80409735e-002 -6.73720986e-003 -3.88958002e-003 7.35065376e-004
      3.18061411e-002 2.70479470e-002 -4.71658022e-005 -1.22225014e-002
      -1.83017012e-002 -2.58996841e-002 -5.32601820e-003
      -8.31328053e-003 -6.51355227e-003 2.59405356e-002 1.27322096e-002
      -5.69271250e-003 -1.78265348e-002 -2.97711771e-002
      -2.77534854e-002 -1.37573453e-002 -5.86563814e-003 2.43047441e-004
      1.79170631e-002 2.53411345e-002 3.01553519e-003 -1.84893347e-002
      -2.56652776e-002 -2.43667271e-002 -8.12285300e-003
      -6.28437568e-003 -6.44035824e-003 2.82373391e-002 1.98605377e-002
      -4.19474114e-003 -1.43531514e-002 -1.43255023e-002
      -1.27103366e-002 -3.66400415e-003 -4.92360955e-003
      -3.04368208e-003 2.30591353e-002 1.40891289e-002 -1.08105605e-002
      -2.00046487e-002 -2.21611485e-002 -2.58369390e-002 1.03426976e-002
      2.33128332e-002 1.53330546e-002 2.40623578e-002 1.56125659e-002
      -5.35284984e-004 -1.94812119e-002 -2.17670947e-002
      -2.09621266e-002 -9.26381256e-003 -1.38432644e-002
      -9.02245473e-003 2.17590444e-002 1.29918875e-002 -2.75402702e-003
      -1.97112188e-002 -2.21952628e-002 -2.88595688e-002
      -6.47302717e-003 3.80171649e-003 1.20254327e-002 2.35910956e-002
      1.83207951e-002 -2.27082032e-003 -9.55246482e-003 -2.14653593e-002
      -3.60620208e-002 1.22352149e-002 2.74812207e-002 2.29786672e-002
      2.64173280e-002 8.32579471e-003 -2.47168262e-003 -9.71901231e-003
      -2.87756119e-002 -3.52272540e-002 1.04760147e-004 1.38932606e-002
      6.46414608e-003 2.61795288e-003 2.22884212e-002 1.13258022e-003
      -6.43952191e-003 -1.89268552e-002 -3.54307927e-002
      -4.88818157e-003 2.34145373e-002 2.55585648e-002 2.90956702e-002
      2.37634256e-002 9.89713735e-005 -4.73074988e-003 -5.31821046e-003
      -1.12472447e-002 -1.21125178e-002 1.74091849e-002 1.29991481e-002
      2.05585156e-002 4.72217519e-003 1.44974468e-002 9.82445758e-003
      7.72624183e-003 -1.46271763e-002 -8.10123514e-003 -1.03552314e-003
      9.56628210e-005 8.86988710e-004 2.28461456e-002 3.05829085e-002
      2.98229977e-002 7.96856731e-003 -3.92137654e-002 -2.58446988e-002
      -6.67479448e-003 -1.52740884e-003 3.43390205e-003 1.56824908e-003
      2.21002344e-002 2.03486383e-002 1.98840611e-002 1.30879215e-003
      -9.99053102e-003 -2.91506806e-003 -1.61261647e-003
      -1.20268832e-003 8.60570115e-004 3.04312203e-002 3.00740432e-002
      2.66697928e-002 -2.00953316e-002 -4.20433879e-002 -2.51202136e-002
      -1.23980520e-002 -1.36370054e-002 3.02182082e-002 2.83201654e-002
      2.94707175e-002 7.13658379e-003 -3.56500559e-002 -1.84989031e-002
      -4.12451895e-003 7.35378242e-004 9.60486103e-003 1.66441202e-002
      1.53880576e-002 6.31741108e-003 -3.68193816e-003 -1.09046362e-002
      -4.54717223e-003 5.09407022e-004 1.52284680e-002 1.09067447e-002
      -2.12843381e-002 1.91664174e-002 2.28145793e-002 1.92811433e-002
      -2.05168799e-002 -2.31482442e-002 -1.25415791e-002
      -7.99954496e-003 -2.66527645e-002 -1.43017219e-002
      -6.01854268e-003 9.16228630e-003 1.01024646e-003 -1.89943553e-003
      4.80366498e-003 8.47837422e-003 1.71466544e-002 -5.23822196e-003
      2.35379487e-002 3.60308285e-003 2.36217538e-003 -1.02655618e-002
      -2.09322330e-002 -5.20604383e-003 -2.92332756e-004 1.20096030e-002
      2.21697390e-002 2.20734365e-002 5.97724691e-003 -4.48405836e-003
      -2.09851302e-002 -1.45953847e-002 -3.17950407e-003
      -1.44381064e-003 4.04271530e-003 2.45137382e-002 -1.18586952e-002
      -1.02179674e-002 8.81405454e-003 4.18644020e-004 -3.15497909e-003
      4.74396022e-003 4.18032054e-003 7.83322845e-003 -1.02609191e-002
      -4.34109429e-003 -1.06641017e-002 2.76188413e-003 2.64352234e-003
      9.75096319e-003 8.43094476e-003 1.30637176e-003 -7.09756929e-003
      -1.16701517e-002 1.05693648e-002 1.71746255e-003 -1.23322532e-002
      -2.38495748e-002 -1.24725951e-002 -4.77270782e-003
      -3.54395132e-003 4.21806099e-003 1.83998030e-002 1.02888299e-002
      -1.39941985e-004 -1.32784285e-002 -1.85573511e-002
      -1.49371894e-002 1.55440411e-002 2.50924360e-002 2.82096863e-002
      2.09804960e-002 -1.68061275e-002 -1.37652103e-002 -4.88659553e-003
      -3.49763269e-003 1.03273906e-003 2.75571109e-003 2.25462182e-003
      5.68722561e-003 -1.02724815e-002 -2.55889986e-002 -1.67998113e-002
      -1.18786078e-002 -9.02241841e-003 1.37676054e-003 2.87125371e-002
      3.14622261e-002 2.47580074e-002 -1.60957705e-002 -3.95656144e-003
      -4.75033699e-003 -1.22007346e-002 -2.37840675e-002
      -2.96824705e-002 1.00802695e-002 2.52039656e-002 2.72092782e-002
      1.36331543e-002 3.58335511e-003 -3.15736025e-003 -9.29709617e-003
      -1.17948791e-002 -4.18996857e-003 3.17638973e-003 1.86399557e-002
      1.28205791e-002 9.71493591e-003 -2.67948415e-002 -1.91972423e-002
      -2.42647491e-002 -2.56567411e-002 3.29550053e-003 3.07266433e-002
      2.98044104e-002 2.70191636e-002 -2.66108885e-002 -5.70909539e-003
      -1.49065638e-002 -2.62007248e-002 -2.36771200e-002 2.30049994e-003
      2.73026507e-002 3.02667376e-002 2.58559231e-002 6.75665960e-003
      -4.98037506e-003 2.34902743e-003 4.78214771e-003 1.88364461e-002
      2.02788766e-002 -1.75090076e-003 -7.99937826e-003 -3.14538833e-003
      -5.84007148e-003 -1.82106029e-002 7.25806924e-003 7.80725433e-003
      1.73786301e-002 1.46628153e-002 -2.26703044e-002 -2.72822250e-002
      -2.18806434e-002 -2.53972299e-002 -2.94340458e-002
      -1.04116015e-002 -1.58124918e-003 1.54022379e-002 3.49922255e-002
      2.54450329e-002 6.35706680e-003 -8.63837264e-003 -3.09023969e-002
      -3.35198715e-002 -8.89231358e-003 6.73704315e-004 1.04976827e-002
      3.59315313e-002 2.42170952e-002 1.15285777e-002 8.16461071e-003
      -2.80226637e-002 -2.89723556e-002 7.78324343e-003 1.07485950e-002
      1.60509329e-002 1.08033242e-002 7.47227343e-003 2.33689439e-003
      8.85708141e-004 -2.24243682e-002 -2.44443361e-002 -7.45934248e-003
      1.12911062e-002 1.21651972e-002 1.86791942e-002 1.73135046e-002
      1.68855172e-002 1.13107767e-002 -2.20909677e-002 -1.67517830e-002
      4.62882454e-003 1.10938028e-002 1.95114184e-002 2.81275995e-002
      2.15404201e-002 2.04526484e-002 1.44166788e-002 -2.06753798e-002
      -2.19875090e-002 -2.76629394e-003 9.93390940e-003 1.86418165e-002
      2.35458259e-002 1.51644964e-002 9.29333642e-003 5.88452769e-003
      -2.34141406e-002 -1.88810863e-002 -7.01074582e-003 1.27670066e-002
      1.30176796e-002 2.14886423e-002 1.29061323e-002 9.64692701e-003
      4.23660921e-003 -1.78113040e-002 -2.02298630e-002 -2.03751400e-003
      1.02812955e-002 1.41419861e-002 2.04055626e-002 1.62355583e-002
      1.16823558e-002 -3.75177385e-003 -1.30114676e-002 -1.60001628e-002
      -2.66057486e-003 5.58433123e-003 1.33099882e-002 2.01442279e-002
      1.51579557e-002 6.82763476e-003 4.96609556e-003 -1.33118881e-002
      -1.59369558e-002 8.46899021e-003 1.05016250e-002 1.38559034e-002
      1.59416478e-002 1.77654605e-002 1.14062726e-002 1.17207803e-002
      -7.13875471e-003 -2.25583129e-002 -5.79541922e-003 4.38767904e-003
      7.51442974e-003 6.67927554e-003 7.46470969e-003 9.85157304e-003
      9.51004867e-003 -1.35981124e-002 -2.32324284e-002 -1.14787510e-002
      1.93431065e-003 9.13233124e-003 1.92244407e-002 2.52455343e-002
      2.21492294e-002 1.90559663e-002 -1.36178331e-002 -2.09264290e-002
      9.30308248e-004 5.09349490e-003 7.31569482e-003 6.26145722e-003
      7.20266299e-003 7.87516870e-003 1.34644695e-002 -3.01728281e-003
      -1.85495690e-002 1.57730374e-002 1.87253933e-002 2.17364077e-002
      2.02370286e-002 1.40693104e-002 4.48155683e-003 6.01647282e-003
      -1.46254674e-002 -3.13074179e-002 -2.83002481e-002
      -2.44438201e-002 -8.17320123e-003 3.47844586e-002 2.95462050e-002
      1.08469911e-002 4.40360652e-003 -2.72471868e-002 -1.39213521e-002
      -2.45569721e-002 -2.66042911e-002 -1.23293474e-002 1.84264090e-002
      2.73288321e-002 8.53846036e-003 6.57613343e-003 -5.83704375e-003
      -2.68749446e-002 3.07099684e-003 1.28322365e-002 2.50184033e-002
      3.72348092e-002 4.75017680e-003 -1.31413396e-002 -1.61219183e-002
      -2.76591852e-002 -2.71145091e-003 -6.85102597e-004 3.88103141e-003
      1.12664085e-002 2.03287229e-002 -4.52000473e-004 -1.27778864e-002
      -9.43955034e-003 -1.11748753e-002 -3.58965881e-002
      -1.50035238e-002 -1.67424581e-003 4.51430958e-003 3.14955749e-002
      2.95077637e-002 2.57023908e-002 3.17507144e-003 -2.64823623e-002
      -3.38393264e-002 -1.12522068e-002 -1.20946373e-004 4.14765580e-003
      2.40238365e-002 2.83609703e-002 3.08517534e-002 2.41319183e-002
      -2.28030048e-002 -2.79511958e-002 -2.04985421e-002
      -1.09826084e-002 -7.08403997e-003 1.88458785e-002 2.87808869e-002
      1.80013236e-002 2.04596180e-003 -1.55368065e-002 -2.29428932e-002
      -1.61463618e-002 -1.05827432e-002 -8.74356832e-003
      -1.78128318e-003 2.97748186e-002 3.15509401e-002 2.77729183e-002
      -8.43574014e-003 -2.55636070e-002 3.06682242e-003 4.20654891e-003
      8.64973385e-003 1.17272902e-002 1.34869860e-002 2.46505439e-002
      1.58941522e-002 -2.40411386e-002 -2.13353969e-002 1.97495730e-003
      3.25464224e-003 1.01925647e-002 7.92523474e-003 2.16183322e-003
      3.50585463e-003 2.34179036e-003 -1.68242045e-002 6.14104047e-003
      2.06096540e-003 -3.33111803e-003 1.94962311e-003 3.31179798e-003
      1.85012836e-002 3.37490141e-002 2.44191214e-002 -5.15226787e-003
      2.68172286e-003 2.88213580e-003 -2.30972678e-003 1.77864532e-003
      -5.75832441e-004 1.48965674e-003 4.77477815e-003 5.25350403e-003
      -5.05631324e-003 -2.14623213e-002 2.97008175e-003 2.30840594e-003
      5.11857588e-003 4.77339746e-003 4.45386441e-003 3.51221417e-003
      6.95795333e-003 -1.08827241e-002 -1.66297927e-002 -4.59751791e-005
      3.66503978e-003 4.54456080e-003 5.73971029e-003 6.62060268e-003
      7.22637353e-003 1.44449212e-002 -2.79643759e-003 4.64174990e-003
      1.04380981e-003 -1.80309871e-003 -1.87485979e-003 -2.37776549e-003
      5.21486101e-004 2.95343180e-003 9.84996185e-003 3.94907221e-003
      3.94907221e-003 -4.83635440e-003 -1.27620145e-003 -9.75923671e-004
      -8.12337094e-004 1.36222481e-003 5.47840493e-003 1.44890370e-002
      3.94907221e-003 -1.70990005e-002 -3.73706827e-003 4.20419127e-003
      3.19063105e-003 2.61392118e-003 3.41582042e-003 5.90610411e-003
      7.54621904e-003 -1.10443803e-002 -1.83599610e-002 1.70483887e-002
      2.52781790e-002 2.44159251e-002 5.48913050e-003 9.28419642e-004
      -1.18302833e-003 -7.93473143e-003 -1.97282210e-002
      -3.05030058e-004 -7.40811229e-003 -7.02068326e-004
      -3.74813401e-003 -2.58767582e-003 9.66148160e-004 3.10541922e-003
      6.77019777e-003 -2.19732756e-004 2.85413489e-003 1.47396484e-002
      2.59705335e-002 1.99231841e-002 -7.94953480e-003 -8.69997125e-003
      -7.14757433e-003 -1.22499708e-002 -3.78560065e-003
      -2.40670405e-002 2.35417113e-002 3.11480537e-002 3.17736454e-002
      8.73834547e-003 -1.44755822e-002 -1.35908704e-002 -1.42968316e-002
      -3.18978019e-002 4.81738616e-003 2.21682582e-002 3.01808938e-002
      2.53487378e-002 3.83042009e-003 -2.04378013e-002 -1.41512360e-002
      -1.08061591e-002 -1.09933298e-002 -7.47203128e-004 1.63658466e-002
      2.65987869e-002 1.04782628e-002 -2.82533038e-002 -3.29691134e-002
      -1.66231953e-002 -1.35788945e-002 -2.20881123e-002 1.09092258e-002
      1.91626567e-002 2.59758029e-002 1.19641917e-002 -3.41572333e-003
      -2.82253381e-002 -1.33559564e-002 -7.23884581e-003
      -5.63638890e-003 1.69457518e-003 -1.69958118e-002 -1.96042489e-002
      -2.21751649e-002 2.40082759e-003 1.96053032e-002 1.44929811e-002
      8.73668864e-003 1.02791814e-002 3.48667544e-003 -1.70965511e-002
      -2.31690481e-002 -2.03832891e-002 -1.65032987e-002 2.35518403e-002
      2.54988465e-002 2.35928856e-002 6.17667334e-003 2.04158365e-003
      -1.19761042e-002 -1.36007061e-002 -1.69588719e-002
      -2.41752230e-002 4.16138722e-003 1.10650407e-002 6.81467261e-003
      8.51890421e-004 1.53738139e-002 -1.15054017e-002 -1.79387480e-002
      -1.87522061e-002 -1.52720492e-002 2.16260422e-002 2.28943191e-002
      2.34413166e-002 2.24427134e-002 3.95689392e-003 -1.41371423e-002
      -2.51829382e-002 -1.43873049e-002 -3.55062867e-003 1.77350491e-002
      1.60069764e-002 1.03277164e-002 2.01304560e-003 7.67617486e-003
      -1.19924564e-002 -1.48746744e-002 -8.67016241e-003
      -2.44473349e-002 -5.07390173e-003 -5.72664337e-003
      -5.20104496e-003 4.12504701e-003 1.79412067e-002 -1.00226635e-002
      -2.00448278e-002 -1.51660666e-002 -1.75783690e-002 2.28789728e-002
      1.62066147e-002 1.79554150e-002 2.50028726e-002 1.87047552e-002
      7.10591022e-003 -3.78199131e-003 -6.99938880e-003 -2.73072142e-002
      -1.30429398e-002 -1.89464018e-002 -2.98371143e-003 1.97617002e-002
      4.08084877e-003 -9.13800579e-003 -1.31616304e-002 -1.44888144e-002
      -2.87033431e-002 -9.32652596e-003 -7.87612796e-003
      -1.91614754e-003 9.35762096e-003 8.87398608e-003 -1.51327448e-002
      -2.19698064e-002 -1.29660433e-002 -1.76166128e-002
      -6.60069054e-003 -6.24508550e-003 -5.34145348e-003 8.87398608e-003
      2.73678210e-002 4.68356581e-003 -4.77963267e-003 -8.01985618e-003
      -2.73703933e-002 -1.50189102e-002 -1.46364961e-002
      -5.90248033e-004 2.11078748e-002 2.04657763e-002 -4.79580089e-003
      -2.56759748e-002 -1.41857769e-002 -1.82325579e-002
      -7.68736284e-003 -6.89527439e-003 2.08455895e-004 2.16826163e-002
      1.20424163e-002 -1.41424043e-002 -2.38969829e-002 -2.13220865e-002
      -1.19560901e-002 -5.14112692e-003 -4.61545913e-003
      -3.60351102e-003 1.25184096e-002 2.22366247e-002 1.53235707e-003
      -3.68862669e-003 -6.27121842e-003 -2.81587709e-002
      -2.54794601e-002 -1.69562288e-002 -1.56010417e-002 1.17910272e-002
      2.73083467e-002 -4.28539794e-003 -2.26014499e-002 -1.90933328e-002
      -1.20650269e-002 -2.91490043e-003 1.86030893e-003 7.99342245e-003
      2.79934984e-002 3.30975614e-002 1.79666802e-002 -3.57696624e-003
      -4.55527520e-003 -2.49088146e-002 -1.19128209e-002
      -7.24694738e-003 1.34190090e-003 3.22611816e-002 2.93438733e-002
      2.16156114e-002 2.36707944e-002 3.06912418e-003 -4.13679108e-002
      -1.89552512e-002 -6.36495091e-003 -1.50868646e-003 1.44158574e-002
      2.97371950e-002 2.31465902e-002 2.14352440e-002 2.95932218e-003
      -1.79924704e-002 -1.64218880e-002 -1.95781817e-003 1.07940531e-003
      1.61416978e-002 3.09497602e-002 2.76460610e-002 2.28601154e-002
      9.53964237e-003 -3.83729599e-002 -1.86804850e-002 -4.61150566e-003
      1.67479319e-003 1.98833309e-002 2.99642347e-002 1.85763910e-002
      1.39017617e-002 1.05654798e-003 -3.65530439e-002 -2.63474602e-002
      2.22627146e-004 2.89379968e-003 2.36887466e-002</_>
    <_>
      1.49232689e-002 -9.08710354e-004 -1.39612071e-002 -4.60461667e-003
      5.63510880e-003 1.40246609e-003 9.66911961e-004 2.34107283e-004
      -2.51750778e-002 2.49047764e-002 1.79791003e-002 1.22516667e-002
      2.91569834e-003 -1.55880898e-002 -1.28975855e-002 -1.18493242e-002
      -1.12954695e-002 -2.55613104e-002 2.58652624e-002 1.02843186e-002
      -6.73531555e-003 -3.50879971e-003 -2.64415191e-003
      -1.39676023e-003 -2.13747309e-003 1.37390057e-003 5.86421182e-003
      2.93902513e-002 4.20438312e-003 -1.08230859e-003 -9.72824357e-003
      -2.78982166e-002 -7.03978725e-003 -4.07211762e-003 1.89474383e-006
      8.49564094e-003 2.97067147e-002 1.10522211e-002 9.43939388e-003
      -1.69111025e-002 -3.00863124e-002 -2.59444602e-002
      -1.80693362e-002 -1.19026117e-002 -2.55121803e-003 1.52849248e-002
      -5.35895815e-003 -5.61022153e-003 -8.90267454e-003
      -1.55132618e-002 -9.53489263e-003 -5.98553289e-003
      -7.28270854e-004 1.99083313e-002 2.86907479e-002 7.42757926e-003
      1.16994767e-003 -1.83282271e-002 -3.06338724e-002 -1.83810666e-002
      -1.27734449e-002 -8.37195665e-003 -4.86934884e-003 1.53397508e-002
      7.94731174e-003 -5.38495462e-003 -1.90002900e-002 -2.61163786e-002
      -1.70835443e-002 -1.16197225e-002 -3.75269353e-003 1.22944657e-002
      1.39879948e-002 -1.04766581e-002 -1.07742976e-002 -1.07699642e-002
      -1.95940379e-002 -1.15728723e-002 -6.28667371e-003 2.88724340e-003
      2.82186065e-002 1.43212127e-002 -6.73058908e-003 -1.23338718e-002
      -6.15633791e-003 -1.50407432e-002 -1.02617294e-002
      -8.68426263e-003 -4.87497728e-003 2.33899970e-002 1.25771612e-002
      -5.44005353e-003 -1.05548492e-002 -1.65270884e-002
      -2.82263644e-002 -1.80971324e-002 -1.38706695e-002
      -2.70624063e-004 1.18230814e-002 1.42971696e-002 -1.28443744e-002
      -1.83168594e-002 -1.33428285e-002 -1.87778976e-002
      -1.37427868e-002 -1.33987935e-002 -1.40360342e-002 1.36555750e-002
      1.86451375e-002 -6.04651077e-003 -6.11690711e-003 -1.76225556e-003
      -1.54831726e-003 -1.05884648e-003 -2.45446595e-003 4.20304621e-003
      2.71865409e-002 6.24559447e-003 -3.15977372e-002 -3.45752351e-002
      -3.66629288e-002 -1.16008678e-002 2.33072639e-002 2.46958081e-002
      2.84927953e-002 2.73382794e-002 1.81519464e-002 -2.33094580e-002
      -3.72930095e-002 -1.47563107e-002 -4.91025532e-003
      -3.96281760e-003 -4.96038329e-003 -1.84884039e-003 1.80716980e-002
      1.92170646e-002 -2.83432119e-002 -3.69461291e-002 -3.73598933e-002
      -7.97697343e-003 1.91136468e-002 2.32487042e-002 2.50034016e-002
      2.92497408e-002 -4.10920009e-003 -1.87670942e-002 -2.37817895e-002
      -3.10294442e-002 -7.25038303e-003 1.96812581e-002 2.50435118e-002
      2.19355058e-002 8.36541818e-004 -3.84619040e-003 2.37490190e-003
      -8.16557615e-004 -6.23785891e-003 3.72251519e-003 1.43128298e-002
      1.61930546e-002 -4.30904329e-003 -9.88721382e-003 1.40955606e-002
      -2.46702563e-002 -3.15482840e-002 -3.20845358e-002
      -6.94628851e-003 1.46397017e-002 1.49171147e-002 1.25113130e-002
      1.55679835e-002 1.73594914e-002 4.79055662e-003 -1.18637446e-003
      5.14091458e-003 2.33183298e-002 1.59486216e-002 7.49403262e-004
      -1.14940023e-002 -7.12583680e-003 9.45354160e-003 1.58627890e-002
      5.59617765e-003 -6.72545796e-003 -1.02017177e-002 -8.69729929e-003
      -1.95791922e-003 5.94583806e-004 4.11526393e-003 2.37424877e-002
      2.10224260e-002 1.46076092e-002 -9.11144633e-003 -3.28400619e-002
      -8.76023993e-003 -2.68420461e-003 4.83027747e-004 5.37819369e-003
      8.72194860e-003 2.75780726e-002 2.87590027e-002 6.97391434e-003
      -1.02017177e-002 -3.13123092e-002 -4.64409776e-003
      -5.99013525e-004 2.75079883e-003 9.13901196e-004 2.84288656e-002
      2.72870269e-002 1.03270262e-002 -1.60754677e-002 -2.54264567e-002
      -4.12681780e-004 -1.48056296e-003 -4.81902808e-003 3.03310528e-002
      2.04923730e-002 1.12970816e-002 -3.14409076e-003 -2.66317856e-002
      -1.81117430e-002 -1.36131197e-002 -3.47326254e-003 5.24596777e-003
      2.97682323e-002 1.54397627e-002 -4.56446083e-003 -2.82495450e-002
      -3.00107915e-002 -1.74413864e-002 -8.80943052e-003 8.79037473e-003
      1.99045576e-002 -5.54350484e-003 3.12459562e-003 4.53957915e-003
      -2.73520313e-003 -1.58292837e-002 -1.41620645e-002
      -2.69234343e-003 -5.29377302e-003 -1.17338868e-002 1.64671466e-002
      -1.04666287e-002 -1.45523883e-002 -2.39322782e-002
      -2.24478319e-002 -3.05280276e-003 6.79890299e-003 1.32275429e-002
      1.78720336e-002 2.91687530e-002 1.38660416e-003 -6.10906747e-004
      -1.10311490e-002 -1.41501464e-002 -4.21486795e-003
      -4.07989603e-003 1.25696640e-002 3.08321584e-002 1.63704678e-002
      -9.23080277e-003 -1.83247682e-002 -3.35432142e-002
      -1.97690558e-002 -3.30202118e-003 -8.17010738e-003
      -1.36693288e-003 2.26230882e-002 1.31290546e-002 -1.22197568e-002
      -2.36458424e-002 -1.89256929e-002 -2.64135213e-003 1.06650367e-002
      3.95901594e-003 1.36385486e-002 2.45605428e-002 1.09695448e-002
      -2.37318985e-002 -2.90812254e-002 -3.00462693e-002
      -4.87160636e-003 1.27389310e-002 4.52519656e-004 7.11571658e-003
      1.73225459e-002 2.80288514e-002 -1.51247503e-002 -2.87528485e-002
      -3.17890160e-002 -1.34945475e-002 -4.24484198e-004 8.29092227e-004
      4.81146900e-003 2.99950987e-002 2.74110064e-002 -2.28760075e-002
      -3.14641632e-002 -3.24191265e-002 -2.91941990e-003 3.17769535e-002
      3.20088491e-002 3.07471901e-002 3.21560055e-002 1.81494709e-002
      -2.49288529e-002 -2.95650363e-002 -3.20509337e-002
      -1.36566116e-002 4.82622953e-003 5.15026227e-003 8.60980712e-003
      2.08498444e-002 1.15438560e-002 -3.08249891e-002 -2.94070300e-002
      -2.83387937e-002 -6.39928970e-003 3.26710641e-002 2.84542385e-002
      2.78474614e-002 2.47808956e-002 -1.26151030e-003 -1.94259956e-002
      -3.07274368e-002 -3.09859365e-002 -5.03138546e-003 1.74437519e-002
      4.77822870e-003 1.00875935e-002 1.20270392e-002 -2.50891142e-004
      -3.23536503e-003 -3.46440426e-003 2.57561821e-003 1.89603027e-002
      1.19261332e-002 -9.33550019e-003 -7.20382761e-003 1.16985117e-003
      -4.30218317e-003 -2.45674364e-002 -3.09561994e-002
      -2.69136727e-002 -4.88764932e-003 1.78749338e-002 1.73188727e-002
      2.67705657e-002 9.95468814e-003 -1.60204107e-003 -7.07791047e-003
      -6.45851530e-003 -2.02609804e-002 -2.09811400e-003 1.05460519e-002
      1.28279431e-002 2.25873906e-002 1.12365130e-002 3.92678659e-003
      8.01668782e-003 1.21801868e-002 1.84772070e-002 -9.39142704e-003
      -1.92270819e-002 -1.51658687e-003 1.69390265e-003 2.67295330e-003
      -1.79396034e-003 8.60072672e-003 8.74385424e-003 1.79931019e-002
      -1.01168975e-002 -1.64882392e-002 1.77609595e-003 1.68527884e-003
      -1.55892211e-003 6.22839609e-004 1.38774383e-004 1.37715344e-003
      -1.05600161e-002 -9.39142704e-003 1.77313816e-002 1.54030370e-002
      1.12265470e-002 8.16049427e-003 1.41667423e-003 1.38796098e-003
      4.16057184e-003 2.15707929e-003 -9.39142704e-003 1.39246508e-002
      1.64826978e-002 1.24777425e-002 4.68922872e-003 -4.42467956e-003
      -3.42002400e-004 -1.80287845e-003 3.19859013e-003 -8.28584470e-003
      7.50908209e-003 1.40673416e-002 5.85095165e-003 -1.07678375e-003
      -6.74447045e-004 -1.11243185e-002 -1.55232120e-002
      -1.74685623e-002 -4.42224089e-003 1.42767318e-002 2.14252193e-002
      1.07924882e-002 8.52602720e-003 2.82733049e-003 5.80611266e-003
      -1.54314318e-003 8.04681703e-003 -2.40658410e-003 1.47927729e-002
      1.41887609e-002 9.23805591e-003 4.21262113e-003 -1.71926413e-002
      -1.64163187e-002 -1.36281606e-002 -7.69178988e-003
      -1.82659621e-003 5.88664412e-003 6.33029919e-003 -9.70052963e-004
      -5.08421706e-003 9.19485930e-003 -1.85711135e-004 -2.05500741e-002
      -9.73219052e-003 1.36449821e-002 2.01264564e-002 1.84518490e-002
      1.70333795e-002 1.76559892e-002 9.30970069e-003 -1.72534361e-002
      -2.32153479e-002 -1.76885650e-002 1.37275197e-002 2.71009058e-002
      1.79592669e-002 2.20510066e-002 2.62801722e-002 2.33371486e-003
      -1.19311661e-002 -1.82194747e-002 -1.17770722e-002 4.98934556e-003
      1.27504803e-002 6.67342823e-003 6.63538044e-003 1.14075327e-002
      8.10714439e-003 -1.62724741e-002 -1.74476542e-002 -1.40721304e-002
      1.49280461e-003 2.10904367e-002 1.06078610e-002 2.22710408e-002
      2.08332613e-002 8.94702785e-003 -2.31302995e-002 -2.74266135e-002
      -2.47993562e-002 -1.49858912e-004 1.35321151e-002 1.57855973e-002
      2.05084011e-002 2.45532449e-002 9.57455579e-003 -2.80858409e-002
      -2.29953937e-002 -1.27616031e-002 1.10831382e-002 2.71491632e-002
      2.38896050e-002 2.65061632e-002 2.21794490e-002 9.03234817e-003
      -2.04172581e-002 -2.32324991e-002 -1.73956789e-002
      -1.43597946e-002 6.79381751e-003 5.32776816e-003 1.75614767e-002
      1.76557247e-002 1.28208259e-002 6.29421044e-003 4.96176258e-003
      2.47724983e-003 8.51726072e-005 8.07299931e-003 1.48910307e-003
      9.68393311e-003 6.36172900e-003 3.56891280e-004 -1.37003968e-002
      -1.92054268e-002 -9.78010334e-003 -7.66878761e-003 1.86474565e-002
      1.19626708e-002 1.48410564e-002 4.96492488e-003 3.25016706e-004
      -3.23127094e-003 5.42180205e-004 -8.08792096e-003 -7.66878761e-003
      1.30472910e-002 1.09953806e-002 1.23486277e-002 7.26098567e-003
      3.62797664e-003 1.44771710e-002 1.95244774e-002 2.34972108e-002
      -7.66878761e-003 -1.08029312e-002 -2.19285185e-003 1.58739707e-003
      -5.58427023e-003 8.09495244e-003 1.08717037e-002 1.44532733e-002
      2.02103127e-002 -7.66878761e-003 -1.31343408e-002 -2.34826468e-003
      3.77450371e-004 3.29385255e-003 -5.14450436e-003 -2.39692605e-003
      -1.89737929e-003 -2.41416767e-002 -4.29177145e-003 1.39202876e-002
      2.03980319e-002 1.26846395e-002 -1.01672683e-003 -2.15223823e-002
      1.85455044e-003 2.44600000e-003 -7.82995205e-003 -6.86896173e-003
      1.43895540e-002 2.25924924e-002 8.87448341e-003 -2.01056339e-002
      -2.92184902e-003 -2.78060720e-003 -9.43667779e-004 2.88372347e-003
      6.35927543e-003 -4.29177145e-003 -4.06622235e-003 -7.87120312e-003
      -1.56533867e-002 -1.05433231e-002 1.52043859e-003 6.51258102e-004
      -3.69875925e-004 -5.51796332e-003 1.73526723e-002 1.84186250e-002
      1.40256854e-002 -6.04565954e-003 -1.80513337e-002 2.27539754e-003
      -3.87924421e-003 4.61720955e-003 1.35345655e-002 2.04976685e-002
      1.84876658e-002 1.60862263e-002 -1.00669619e-002 -1.47084510e-002
      -2.10371278e-002 -2.73145735e-002 -1.71728395e-002 2.74591008e-003
      8.67199560e-004 4.24433965e-003 8.81269854e-003 1.66471992e-002
      2.10172599e-004 8.84148572e-003 -4.44101775e-003 2.02382077e-003
      8.56256485e-003 2.38381159e-002 2.84386016e-002 2.58245338e-002
      2.10172599e-004 2.96755554e-003 -1.19467648e-002 -2.72826105e-002
      -2.71376166e-002 -5.28101996e-003 1.64911000e-003 5.66186244e-003
      1.91646107e-002 2.40576901e-002 7.52743008e-003 -2.50132922e-002
      -3.01475693e-002 -2.48196479e-002 -2.20270525e-003 6.44437096e-004
      2.24670535e-003 6.78176712e-003 2.80359741e-002 2.02222262e-002
      -2.82358807e-002 -2.95816846e-002 -2.70612184e-002
      -4.35540359e-003 2.91357865e-003 2.47862167e-003 1.03888866e-002
      2.51103323e-002 4.00280207e-002 -1.39585538e-002 -3.24860699e-002
      -3.34028900e-002 -1.14198802e-002 -9.06454923e-004 3.13922600e-003
      1.56288203e-002 4.78806384e-002 4.40750271e-002 -7.94018153e-003
      -3.25573906e-002 -3.42379697e-002 -1.06834825e-002
      -4.18599695e-003 8.87413858e-004 1.10590765e-002 4.77158539e-002
      2.01838720e-003 -2.74992418e-002 -2.78764274e-002 -2.82086432e-002
      -2.86969244e-002 -9.06809233e-003 -1.22249257e-002 2.52603716e-003
      1.33536765e-002 1.41854016e-002 2.27108151e-002 1.80440787e-002
      8.41279235e-003 -2.82625761e-002 -2.39806958e-002 -1.74000021e-002
      -8.74014106e-003 -8.98104999e-003 2.71630734e-002 -9.19828750e-003
      -2.48895530e-002 -3.21762376e-002 -1.39495460e-002
      -1.34267211e-002 -1.11012673e-002 3.99019569e-003 3.30952629e-002
      3.21628861e-002 3.18178348e-002 3.01897842e-002 2.14456171e-002
      -3.03314868e-002 -1.84779204e-002 -1.81775950e-002
      -8.91342945e-003 2.63409875e-002 7.77007407e-003 3.16990055e-002
      3.18158939e-002 2.83189472e-002 -3.71306129e-002 -2.11681668e-002
      -3.48285190e-003 -1.04309758e-003 -6.41090004e-003 1.24840606e-002
      2.43200865e-002 2.70789601e-002 1.42408200e-002 -2.64383480e-002
      -1.56139918e-002 -9.53950861e-004 1.87194339e-004 2.33442313e-003
      2.42249053e-002 3.11087966e-002 2.90422384e-002 1.06447879e-002
      -4.82780375e-002 -1.63672492e-002 -5.27870934e-003
      -2.12126225e-003 3.83409904e-003 1.65225994e-002 2.00567748e-002
      2.69571748e-002 1.82299817e-003 -2.19471529e-002 -1.44866323e-002
      -2.30789417e-004 5.63302427e-004 3.90978623e-003 2.07756087e-002
      7.91203976e-003 2.17374298e-003 4.56717005e-003 1.38026867e-002
      -1.30818691e-002 -1.12893414e-002 -5.51496865e-004 8.49907938e-003
      -4.92203282e-003 1.51115574e-003 9.73542104e-004 -1.33339514e-003
      -3.19142896e-003 7.09391991e-003 1.24615841e-002 1.43858967e-002
      4.53443499e-003 1.64589528e-002 1.42324492e-002 9.33286641e-003
      9.65919159e-003 4.39367490e-003 -2.51127947e-002 -2.08572038e-002
      -1.29311634e-002 -2.95439595e-003 -1.28651634e-002
      -2.49995850e-003 7.37698516e-003 2.33353581e-003 1.06734121e-002
      8.31134617e-003 6.43113954e-003 4.57042828e-003 -3.86098726e-003
      -1.03712548e-002 -7.69104064e-003 -3.08864983e-003 1.29814283e-003
      4.94675385e-003 1.98283382e-002 2.08071135e-002 1.42157087e-002
      1.89052913e-002 2.48675048e-003 -2.68567335e-002 -3.20071429e-002
      -2.90672295e-002 -4.77944501e-003 3.05097713e-003 3.64210247e-003
      9.10298526e-003 3.11389789e-002 -1.21139437e-002 -2.45173629e-002
      -4.51266271e-004 4.01744153e-004 9.44671687e-003 2.84064859e-002
      2.33904198e-002 2.48394627e-002 2.51160208e-002 -4.24873596e-003
      -2.33898964e-002 -1.43574663e-002 -9.87538230e-003 5.80677646e-004
      2.19547306e-003 2.62202905e-003 1.16644604e-002 2.61148494e-002
      2.21925396e-002 -2.98765805e-002 -3.51351798e-002 -3.67639288e-002
      -2.87400112e-002 -4.13126638e-003 -4.82059404e-004 8.10235739e-003
      4.02380638e-002 3.20547968e-002 -1.05286539e-002 -3.28223296e-002
      -3.72109488e-002 -2.46668253e-002 -1.18914358e-002
      -7.23740784e-003 7.99184898e-004 3.91848013e-002 1.10472059e-002
      -2.47071758e-002 -2.65054014e-002 -2.65088994e-002
      -1.24778561e-002 -2.84331385e-003 -2.68950616e-003 1.00585241e-002
      2.31517069e-002 2.64206193e-002 5.83658577e-004 -6.55794516e-003
      -1.14880893e-002 -1.19646760e-002 -5.55138383e-003
      -4.31257300e-003 1.25781465e-002 3.10752410e-002 1.13237780e-002
      -2.28202604e-002 -2.15979721e-002 -2.33605597e-002
      -1.52533306e-002 -1.57063808e-002 -1.64216924e-002
      -1.16396379e-002 2.28429623e-002 1.55752879e-002 4.64246841e-003
      -1.16652064e-003 -3.41122830e-003 -2.23935694e-002
      -1.74432546e-002 -2.12611277e-002 -1.33241676e-002 1.27250990e-002
      1.38856182e-002 -2.24003452e-003 -3.07032862e-003 -3.69590404e-003
      -1.63244493e-002 -1.02664316e-002 -8.99252016e-003
      -5.43840637e-004 2.35346910e-002 2.31663529e-002 1.92931201e-002
      1.23293661e-002 9.07295849e-003 -1.41626736e-002 -2.17371769e-002
      -1.93358921e-002 -1.16786258e-002 2.04527173e-002 2.86317747e-002
      2.41807513e-002 1.53343109e-002 -8.45329778e-004 -3.04893125e-002
      -1.49022257e-002 -7.65509717e-003 -9.19380225e-004 1.52141619e-002
      9.42098629e-003 1.76155195e-002 1.85364019e-002 1.50083040e-003
      -1.12306280e-002 -2.34856885e-002 -7.11806631e-003
      -1.61364209e-003 1.57732647e-002 2.85817329e-002 2.55385879e-002
      2.08780691e-002 1.59407109e-002 -1.43979695e-002 -1.99770741e-002
      -2.57363115e-002 -4.76480648e-003 1.51902158e-002 -6.10448746e-003
      1.34028187e-002 1.21091241e-002 1.08022317e-002 -1.69017874e-002
      -2.31149346e-002 -2.90112495e-002 -1.41700776e-002 3.72984447e-003</_>
    <_>
      2.44853199e-002 7.27231940e-003 -1.62886791e-002 -2.00770441e-002
      -2.45473403e-002 -1.91699073e-003 5.29367197e-003 7.60790054e-003
      4.74658376e-003 2.60048378e-002 2.96538020e-003 -1.38080737e-003
      -8.14524945e-003 -2.95207575e-002 -2.60124682e-003 1.90946867e-003
      1.11591315e-003 5.41811576e-003 2.93906629e-002 2.70918626e-002
      1.27048353e-002 1.64226873e-003 -6.65608142e-003 -2.13852469e-002
      -1.89050380e-003 1.44449587e-003 1.12387715e-002 2.69149058e-002
      2.26012841e-002 1.45548042e-002 -4.02854243e-003 -3.29522751e-002
      -2.16507521e-002 -2.40440038e-003 2.48073600e-004 8.58377945e-003
      3.87326479e-002 1.34050893e-002 6.94912719e-003 -1.83257479e-002
      -3.81598286e-002 -1.01765804e-002 -1.36309082e-003 3.64500273e-004
      1.91781148e-002 1.92677509e-002 -1.61056705e-002 -2.84826402e-002
      -3.10387984e-002 -3.94846313e-002 -1.33314356e-002
      -1.31833868e-003 3.15681589e-003 3.02968454e-002 3.72001268e-002
      2.79344451e-002 2.19910126e-002 -6.14316249e-003 -4.11669649e-002
      -2.71238498e-002 -6.59437617e-003 1.30827166e-003 1.58647168e-002
      3.66673321e-002 1.25290873e-002 -1.05091995e-002 -3.02255321e-002
      -3.97754647e-002 -3.35366279e-002 -7.24445097e-003 1.30730066e-002
      3.89575996e-002 1.24865472e-002 -9.57424380e-003 -1.33467894e-002
      -1.31895989e-002 -1.96477026e-002 -1.34765506e-002
      -1.15185473e-002 -7.44462200e-003 1.39713362e-002 3.27104777e-002
      1.11318333e-002 -9.77866512e-005 -5.76680433e-003 -3.10341679e-002
      -2.38316301e-002 -1.57961939e-002 -8.66510067e-003 2.47590281e-002
      3.62945236e-002 3.25143407e-003 -6.03445992e-003 -2.08863132e-002
      -3.84439677e-002 -2.90581789e-002 -1.32607361e-002 8.88857804e-003
      3.64841484e-002 4.03852053e-002 1.13314865e-002 -6.78362325e-003
      -2.31277365e-002 -4.00257781e-002 -3.40758190e-002
      -1.28018670e-002 1.22838479e-003 3.84933054e-002 1.86929833e-002
      1.96002866e-003 -6.54761121e-003 -1.35106063e-002 -3.35655697e-002
      -2.16462836e-002 -7.95330759e-003 2.72175507e-003 2.53999270e-002
      1.36563089e-002 -7.10696215e-004 -2.96187401e-003 -6.86850213e-003
      -2.50039417e-002 -1.00521576e-002 -4.70132940e-003 8.73050001e-003
      2.68142484e-002 3.03014647e-002 7.74364045e-004 -2.23529637e-002
      -3.07040662e-002 -3.42744440e-002 -2.51663681e-002
      -6.71341270e-003 6.75920339e-004 3.06943525e-002 1.77762154e-002
      -6.90874085e-003 -1.95365287e-002 -1.66160148e-002
      -2.09378880e-002 -9.44195781e-005 9.52362735e-003 1.47741912e-002
      2.13663988e-002 2.60142367e-002 7.05645187e-003 3.80452536e-003
      -8.84011039e-004 -2.86846980e-002 -1.43960761e-002
      -8.17076489e-003 -3.58806974e-005 2.66034696e-002 2.76144408e-002
      1.35321086e-002 3.44148162e-003 -4.34814952e-003 -3.09677459e-002
      -2.10766811e-002 -1.59592945e-002 -1.09099718e-002 1.28684044e-002
      2.03002095e-002 2.39506783e-003 7.55462388e-005 -1.06960982e-002
      -2.96021830e-002 2.65416311e-005 1.41565986e-002 1.69071779e-002
      2.44079158e-002 2.58833691e-002 6.42218115e-003 4.49820887e-004
      -4.52208472e-003 -5.73536055e-003 -7.80835573e-004 1.24425543e-002
      9.35435761e-003 1.73943173e-002 1.08344052e-002 2.35153623e-002
      2.33623274e-002 1.90205760e-002 -2.20232941e-002 -2.68939324e-002
      -3.63664445e-003 -3.80403828e-004 3.48623004e-003 2.01513823e-002
      3.13847773e-002 3.09815388e-002 1.43692978e-002 -4.65099066e-002
      -2.49884743e-002 -5.26448013e-003 -1.25344365e-003 3.03974259e-003
      8.42826534e-003 2.96380389e-002 3.33235562e-002 2.23829374e-002
      -2.20232941e-002 -1.73600074e-002 -2.09541433e-003
      -1.97415924e-004 2.35563540e-003 4.57738340e-003 3.05910837e-002
      3.20636593e-002 2.20457278e-002 -2.96375714e-002 -9.87568870e-003
      4.87588230e-004 -6.51985814e-004 2.03356962e-003 3.84376049e-002
      3.13886553e-002 2.56827231e-002 5.99798793e-003 -4.42350022e-002
      -1.98857076e-002 -5.59340278e-003 2.30279425e-003 1.94286834e-002
      4.21582498e-002 2.41650622e-002 5.77900326e-003 -2.52840612e-002
      -4.95431758e-002 -2.72040777e-002 -3.21593019e-003 2.04081740e-002
      4.23243083e-002 1.51219619e-002 1.63633563e-002 1.47816269e-002
      -1.27989915e-003 -3.46928760e-002 -7.88746576e-004 5.11577446e-003
      6.03020657e-003 9.98057518e-003 2.98359264e-002 6.72450848e-003
      1.79791916e-003 -3.33053209e-002 -4.23102193e-002 -7.18508894e-003
      1.27254045e-002 2.34600287e-002 3.13019753e-002 4.57400717e-002
      9.12239403e-003 5.76914568e-003 -1.59900095e-002 -4.92898487e-002
      -2.10999027e-002 3.65788903e-004 2.15505697e-002 4.59551178e-002
      4.52098995e-002 1.63000729e-002 1.49194326e-003 -2.14984957e-002
      -4.49088998e-002 -1.79466046e-002 -1.56956539e-003 8.57573748e-003
      4.50175479e-002 2.21925396e-002 9.53319762e-003 1.03575792e-002
      -2.18533408e-002 -3.62770371e-002 1.37651910e-003 8.62369873e-003
      1.98852438e-002 3.19125541e-002 3.28205153e-002 1.49878841e-002
      7.40774022e-003 -1.99795719e-002 -2.27488205e-002 -8.31330474e-003
      3.07724811e-004 1.15366671e-002 2.49029659e-002 3.32862549e-002
      8.76126625e-003 -1.15246773e-002 -3.06820013e-002 -3.87348756e-002
      -2.40552854e-002 -6.43619616e-003 3.00943526e-003 3.33643891e-002
      2.25358494e-002 -2.26165727e-003 -1.31068509e-002 -1.97655074e-002
      -2.62757577e-002 1.15766227e-002 2.74395123e-002 2.80132275e-002
      2.83650402e-002 2.18974613e-002 4.01872210e-003 -1.88225124e-003
      -3.05958930e-002 -3.25939767e-002 -2.99637672e-002
      -1.00858631e-002 4.93078353e-003 1.98492333e-002 5.10663353e-003
      -7.97470286e-003 -6.63394388e-003 -2.72616744e-002
      -2.70760134e-002 1.17224958e-002 1.84642002e-002 2.26499569e-002
      2.19122283e-002 6.28343457e-003 -1.47455616e-003 -9.59173776e-004
      -9.61969141e-003 -4.12224904e-002 1.71725149e-003 2.70652398e-002
      2.78823487e-002 1.75729804e-002 5.23748994e-003 8.93205652e-005
      -2.35715954e-004 -3.35945794e-003 -1.70726925e-002 1.74254156e-003
      2.17166524e-002 1.63670424e-002 8.86655878e-003 -1.54538464e-003
      -1.93476724e-003 1.01654918e-003 -1.09277070e-002 -2.01983657e-002
      2.58977129e-003 2.63344403e-002 3.17979753e-002 1.10456673e-002
      1.29096181e-004 -1.25388789e-003 1.46479614e-003 -8.20306689e-003
      -1.70726925e-002 -3.73229804e-003 2.86697969e-002 3.04730330e-002
      1.32722948e-002 3.33175086e-003 7.79390428e-003 1.28986416e-002
      1.57462023e-002 -1.42028145e-002 -2.66207522e-003 1.01065892e-003
      2.15988932e-003 2.28943047e-003 -2.25883885e-003 5.99653972e-003
      9.53555107e-003 1.90322511e-002 -1.51432604e-002 -6.86555752e-004
      6.44315826e-003 4.37841378e-003 8.05218297e-004 -6.24192064e-004
      -4.98830457e-004 9.91544221e-004 3.66811710e-003 -1.42028145e-002
      1.30425896e-002 1.35333631e-002 1.10021848e-002 6.70140190e-003
      -6.91002840e-003 -8.75368621e-003 -7.09677022e-003 1.47389015e-003
      -1.42028145e-002 9.51870810e-003 1.75163783e-002 1.40885860e-002
      5.07248752e-003 1.13170943e-003 1.67878415e-003 -7.63498386e-003
      -4.87974659e-003 -1.60049237e-002 1.67318229e-002 2.09134649e-002
      1.55569501e-002 7.30549637e-003 7.15685776e-003 4.19848366e-003
      -9.60144401e-003 -2.51862761e-002 -2.08785292e-002 9.02561937e-003
      2.73554269e-002 1.98970772e-002 1.37379440e-002 2.76532886e-003
      -2.32065702e-003 -1.19134905e-002 -1.39199733e-003 5.84337395e-003
      2.12642048e-002 2.10478436e-002 1.58086065e-002 1.28894094e-002
      5.60609205e-003 3.77324875e-004 -1.06365252e-002 -1.21538704e-002
      -5.95195265e-003 1.02933515e-002 1.10390512e-002 5.11334976e-003
      5.37437713e-003 8.33571516e-003 1.01641230e-002 8.37835297e-003
      -1.47080524e-002 -1.55689334e-002 3.23169352e-003 1.54655781e-002
      1.73683986e-002 1.69106983e-002 1.19547285e-002 1.40517792e-002
      9.55745485e-003 -2.55689281e-003 -1.08913807e-002 -9.15467739e-003
      -8.51093885e-003 1.62764359e-002 2.76855547e-002 7.83276744e-003
      1.24229267e-002 4.88907611e-003 4.80829878e-003 -5.11591369e-003
      -3.22271977e-003 -5.49899135e-003 -1.59867422e-003 1.10232001e-002
      1.92698147e-002 1.89094599e-002 1.84261501e-002 2.01085825e-002
      -4.50044684e-003 -1.55124273e-002 -2.54385862e-002
      -1.05900783e-003 2.42456831e-002 1.46665052e-002 6.56655058e-003
      1.72341836e-003 -1.08913630e-002 -2.08861846e-002 -2.04820149e-002
      -1.23968218e-002 1.34076392e-002 2.50858217e-002 1.35347666e-002
      -1.39736885e-003 -3.76397185e-003 -8.54011253e-003
      -1.92023825e-003 1.62479151e-002 1.73112247e-002 2.51332428e-002
      2.43388060e-002 1.92717128e-002 1.02709159e-002 7.00297719e-003
      3.48894903e-003 -1.48342932e-002 -2.58669090e-002 -2.51763891e-002
      8.80473759e-004 1.92056112e-002 1.52169950e-002 8.45649466e-003
      -4.24691068e-004 -8.70570540e-003 -4.02660295e-003
      -8.38274509e-003 -5.48166502e-003 8.44424777e-003 1.49207683e-002
      6.04191446e-004 -3.36654112e-003 -5.93570434e-003 -6.87393686e-003
      -1.60669559e-004 1.69429015e-002 1.05701471e-002 1.49165783e-002
      6.97758654e-003 -1.05877791e-003 -1.76040479e-003 -4.37960867e-003
      -1.06536765e-002 -1.60669559e-004 1.09778205e-002 9.48001537e-003
      1.21590840e-002 5.67162829e-003 2.60186289e-003 -4.82068909e-003
      -3.05857300e-003 -7.44897965e-003 1.16539393e-002 6.47798786e-003
      -1.32758939e-003 2.29263515e-003 3.00673954e-003 3.43929394e-003
      -2.57290946e-003 -1.21476231e-002 -3.71831539e-003 4.81496518e-003
      5.85396867e-003 -3.59933916e-003 -2.16819998e-003 8.00181064e-004
      -3.58372508e-003 -1.86842139e-004 -3.49671784e-004
      -8.06412601e-004 -2.64838990e-003 -2.22169881e-004 1.13677215e-002
      1.21444082e-002 5.64985210e-004 -1.62149668e-002 -9.10937507e-003
      -1.05362246e-002 -8.09512939e-003 -4.63312631e-003 3.49413138e-003
      1.70614142e-002 7.49535998e-003 -2.73301918e-003 6.32999698e-003
      1.97721040e-003 8.02999712e-004 7.28651369e-003 -2.64838990e-003
      -2.64838990e-003 -7.38479197e-003 -3.23506561e-003
      -4.48242389e-003 -2.70769140e-003 -5.85529313e-004
      -8.84245057e-003 -8.75741150e-003 -6.96354173e-003 1.16252713e-002
      1.13914348e-002 7.11365417e-003 1.31735217e-003 -3.27352737e-003
      -9.27666388e-003 -2.08758023e-002 -1.72842313e-002 8.63270462e-003
      1.66887026e-002 1.74937975e-002 1.63842887e-002 8.44380446e-003
      6.34458149e-003 -7.31725991e-003 -2.43320037e-002 -1.67126209e-002
      -5.46199596e-003 -2.74897274e-003 -4.96972911e-003 4.07376885e-003
      1.81840304e-002 1.21552208e-002 3.23485862e-003 -2.59060003e-002
      -2.35835351e-002 -5.84002677e-003 2.05990747e-002 2.74898242e-002
      2.34951694e-002 2.03822348e-002 2.70739757e-002 -3.42652341e-003
      -2.57029179e-002 -2.53382120e-002 -1.47374328e-002
      -9.72439256e-003 -1.21862125e-002 1.80386826e-002 2.39190198e-002
      1.47609580e-002 8.13513878e-004 -6.50502229e-003 -1.18026487e-003
      -1.02048870e-002 -1.62335318e-002 -2.51272898e-002
      -9.59239993e-003 2.12336201e-002 3.19501497e-002 9.06772632e-003
      5.78310993e-003 8.16016737e-003 -1.31434752e-002 -3.33853886e-002
      -3.23024094e-002 -1.13941524e-002 2.60736477e-002 4.11015451e-002
      7.18410418e-004 -1.20218704e-002 -1.28114410e-002 -8.83855764e-003
      -2.86940616e-002 -3.55534777e-002 -1.20468298e-003 3.51683348e-002
      4.80161272e-002 1.28187453e-002 3.37466318e-003 1.53004366e-005
      -2.25757528e-002 -3.84189039e-002 -3.25081870e-002
      -7.70516647e-003 4.07145023e-002 1.49141895e-002 2.10618065e-003
      4.77579795e-003 2.00198893e-003 -1.56192090e-002 -3.05691138e-002
      -2.27489304e-002 -4.77761356e-003 1.07474299e-002 4.42431122e-003
      7.52745662e-003 5.92088234e-003 -2.18027434e-003 -1.18098920e-002
      -2.05170531e-002 -1.04720732e-002 -6.09001191e-003
      -2.95048975e-003 2.10018046e-002 5.53044816e-003 4.34306683e-003
      -4.75424546e-004 -1.54545838e-002 -2.80582868e-002
      -2.16232631e-002 -6.05912460e-003 1.53748496e-002 8.40329938e-003
      6.59189234e-003 1.14928503e-002 9.98034421e-003 -5.19770011e-003
      -1.03061767e-002 -6.95467182e-003 -8.32793955e-003 1.25037413e-002
      -9.45393636e-004 3.36195662e-004 -4.69916686e-003 -3.05744540e-003
      2.01215254e-004 -4.88475384e-003 -3.05574876e-003 -8.77512153e-004
      -2.14333669e-003 2.02546827e-003 -4.52389149e-003 -5.94063522e-003
      3.42986151e-003 1.24484273e-002 -2.66768853e-003 -3.26877763e-003
      -1.85035181e-003 -3.83488688e-004 1.11638857e-002 3.99953744e-004
      -3.64817888e-003 2.13927776e-003 2.82110821e-004 -2.21972913e-003
      -1.41909556e-003 -8.24340619e-004 1.04861136e-003 1.01573067e-002
      -8.37287586e-003 -6.92576310e-003 4.04186314e-003 2.57657971e-002
      -5.93266450e-004 -1.02040882e-003 -2.33767219e-004 1.16963428e-003
      2.18148157e-002 9.84963682e-003 2.94291344e-003 3.17021878e-003
      -1.46515109e-002 -1.03688072e-002 -5.30996942e-004 1.65430084e-003
      6.26172824e-003 9.71994083e-003 3.82667547e-003 -6.55007549e-003
      -1.23466710e-002 -1.81891734e-003 2.01977156e-002 1.57908406e-002
      7.47475261e-003 -1.03335641e-003 6.79567875e-003 1.24581400e-002
      9.50506888e-003 1.17890583e-002 -1.94754340e-002 -2.28963848e-002
      -3.24322190e-003 -3.13420943e-003 -8.98384769e-003 3.08294944e-003
      -8.35386978e-004 -2.76444736e-003 -9.73585062e-003 2.25413986e-003
      2.36641243e-002 2.34676879e-002 1.54167265e-002 4.11533704e-003
      1.36583792e-002 -1.03474855e-002 -2.89575923e-002 -2.76260711e-002
      -8.81785527e-003 1.94728132e-002 2.03496702e-002 1.31904092e-002
      2.09338851e-002 2.34015174e-002 -1.20959654e-002 -2.89458111e-002
      -3.15797254e-002 -1.35735907e-002 -5.37329819e-003
      -9.59741697e-003 2.36948114e-003 3.08112334e-002 1.34245595e-002
      -1.32925762e-002 -3.03019732e-002 -2.76572704e-002
      -1.45023819e-002 2.62699984e-002 2.12364774e-002 2.15826817e-002
      1.99562218e-002 2.74848100e-002 5.51537191e-003 -1.91636849e-002
      -2.97564510e-002 -1.93142518e-002 -6.00560941e-003
      -6.65982254e-003 -3.43363662e-003 3.32408659e-002 2.82429010e-002
      -2.56622396e-003 -1.12565020e-002 -9.97913629e-003
      -7.69261504e-003 -3.06978188e-002 -3.34827043e-002
      -1.51291378e-002 3.62978950e-002 3.82936187e-002 4.04859241e-003
      8.79463856e-004 -8.62726243e-004 -1.31196501e-002 -3.56034413e-002
      -3.27278525e-002 -1.65270232e-002 3.05838156e-002 3.52866352e-002
      9.92033724e-003 -1.11565664e-002 -4.83938074e-003 -1.83493420e-002
      -2.89595276e-002 -2.34320611e-002 -6.22688094e-003 3.69259976e-002
      2.96589751e-002 1.37808453e-002 2.15835613e-003 1.21966892e-004
      -2.20752507e-002 -3.20190974e-002 -2.67727319e-002
      -8.93730391e-003 2.08895952e-002 6.77290233e-003 1.47915824e-004
      4.38582647e-005 -1.70048606e-003 -1.00191636e-002 -2.79309228e-002
      -1.99128911e-002 -1.25457970e-002 3.39900260e-003 -3.14011262e-003
      -8.44808412e-004 3.05866892e-003 1.38722807e-002 2.74401205e-003
      -9.04317189e-004 -3.78626888e-003 -5.92296850e-003 2.01149797e-003
      6.58627227e-003 5.63049130e-003 1.67799403e-003 -6.81879974e-005
      -1.20064504e-002 -1.86978709e-002 -6.72319625e-003 1.59665628e-003
      3.15168942e-003 5.04572969e-003 1.05158202e-002 1.98415779e-002
      2.80170962e-002 5.73397963e-004 1.35695026e-003 1.72154221e-003
      1.73340974e-004 5.01500559e-004 1.42563414e-002 6.00927649e-003
      -9.92215425e-003 3.50063154e-003 4.33877623e-003 6.91253517e-004
      -3.05842230e-004 8.30128149e-004 1.17813023e-002 2.74621267e-002
      6.79680053e-003 -1.80347376e-002 -7.04438845e-003 1.54712154e-002
      1.51168765e-003 9.53867508e-004 2.32707849e-003 1.89319476e-002
      6.35753106e-003 6.01741765e-003 -2.61126016e-003 4.61960817e-003
      1.15710229e-003 3.87778901e-003 1.47938705e-003 2.53920536e-003
      1.30869006e-003 2.43333373e-002 3.40642850e-003 -2.53620092e-002
      -1.57074835e-002 -6.63478579e-003 5.85529255e-003 4.93388018e-003
      7.82483350e-003 2.54377853e-002</_>
    <_>
      2.05356982e-002 1.64889228e-002 4.68993187e-003 5.40611858e-004
      -1.91348493e-002 -1.85432751e-002 -2.20154095e-002
      -1.94139313e-002 -5.61489165e-003 2.80299075e-002 1.96836349e-002
      2.11006496e-002 1.03558470e-002 -2.98545044e-002 -3.29242796e-002
      -2.94692516e-002 -2.89066527e-002 -5.84292226e-003 1.60742123e-002
      2.05414407e-002 1.42035615e-002 1.43412510e-002 1.05664833e-002
      -1.68658104e-002 -1.71775259e-002 -1.05836773e-002
      -6.07903814e-003 2.19871663e-002 1.23053920e-002 1.21598914e-002
      -9.76359006e-003 -3.42146829e-002 -2.41610911e-002
      -2.16647368e-002 -1.59449615e-002 3.00793629e-003 4.35004570e-002
      1.73401311e-002 2.47852951e-002 1.33474940e-003 -2.15185173e-002
      -8.92001297e-003 -1.00907898e-002 -6.57781353e-003 1.69217717e-002
      3.09427008e-002 -1.16607482e-002 -1.64317358e-002 -2.92347129e-002
      -2.77420525e-002 -1.37109207e-002 -1.17704421e-002
      -5.74972061e-003 3.12584937e-002 1.50794983e-002 1.15772197e-002
      1.20292921e-002 -9.62864608e-003 -1.55204404e-002 -8.71528499e-003
      -9.94355325e-003 -7.53560243e-003 -4.72569093e-003 7.89124239e-003
      -2.65120156e-002 -4.03315723e-002 -4.43227738e-002
      -2.95303259e-002 -1.40497265e-002 -1.16352383e-002
      -3.97586031e-003 8.74672737e-003 3.35428827e-002 -1.32565573e-002
      -1.62021816e-002 -1.99084878e-002 -2.09322646e-002
      -7.75828166e-003 -1.80976954e-003 2.70098867e-003 3.73675302e-002
      2.46140510e-002 -1.81383118e-002 -3.50422300e-002 -3.91822495e-002
      -2.37808302e-002 -5.09257847e-003 -1.49854913e-003
      -6.26436609e-004 3.04177795e-002 1.45181641e-002 -3.21903341e-002
      -3.86172831e-002 -4.12728861e-002 -2.14082096e-002
      -4.85427445e-003 -1.69422565e-004 1.15021104e-002 2.84315776e-002
      1.48542486e-002 -1.76420305e-002 -3.00572328e-002 -3.58897969e-002
      -1.56949908e-002 -6.02782052e-003 -1.53702428e-003 8.07611330e-004
      2.92537119e-002 5.89191495e-003 -1.73658915e-002 -3.59984525e-002
      -4.02558632e-002 -2.63139848e-002 -8.41831416e-003
      -3.13532376e-003 -5.06312959e-003 1.90538000e-002 1.92510802e-002
      -2.06245831e-003 -9.82361473e-003 -1.31296040e-002
      -3.29750180e-002 2.76037958e-003 1.75365433e-002 7.79152149e-003
      1.69930197e-002 2.04769615e-002 -6.48606336e-003 -2.44989358e-002
      -2.88113113e-002 -1.80377718e-002 -1.54656684e-002
      -8.32919683e-003 -9.86811705e-003 3.17631848e-002 4.21970040e-002
      9.47942398e-003 -3.58432857e-003 -2.68815029e-002 -4.20594253e-002
      1.38064357e-003 2.16071345e-002 1.85556058e-002 4.14065681e-002
      2.54633781e-002 7.58666359e-003 3.41315079e-003 -4.36434848e-003
      -4.83190455e-002 -1.04630250e-003 1.24520771e-002 3.34455934e-003
      1.54173123e-002 2.58477256e-002 1.17393034e-002 2.17119278e-003
      -3.10070370e-003 -3.35078202e-002 -9.60859284e-003
      -4.28134389e-003 -1.64705161e-002 1.75568350e-002 3.23738679e-002
      6.75308891e-003 6.32522628e-004 -2.50473432e-002 -4.75356877e-002
      3.97163816e-003 2.71121282e-002 2.67703012e-002 3.37627083e-002
      3.32663581e-002 7.59898173e-003 -7.82144663e-004 6.39967481e-003
      -1.38977654e-002 5.65568311e-003 1.05735306e-002 8.45981855e-003
      2.07818784e-002 5.64545672e-003 2.11136583e-002 2.25302782e-002
      2.76577305e-002 3.06289736e-002 -7.11638248e-003 -9.15561244e-003
      -6.64259447e-003 -4.82896669e-003 2.48433258e-002 2.61461530e-002
      1.40526025e-002 2.57693155e-005 -1.70789473e-002 -1.14225270e-002
      -1.48387160e-002 -6.79068780e-003 4.38545784e-003 -2.17786804e-002
      8.78076826e-004 5.50154224e-003 4.03834879e-003 2.84299254e-002
      -4.68448317e-003 -1.24569098e-002 -2.05961298e-002
      -2.46090908e-002 -2.88468935e-002 -5.46284777e-004
      -5.08163217e-003 -5.08163217e-003 6.94481563e-003 -4.11506183e-003
      -1.31069999e-002 -1.77646559e-002 -2.73700561e-002 2.98915915e-002
      2.60139797e-002 1.22837750e-002 -4.33680462e-003 -7.98448920e-003
      -1.10798814e-004 -6.63516577e-004 2.51376955e-003 1.93994362e-002
      1.00994147e-002 -1.87457271e-003 -2.01138444e-002 -3.66944671e-002
      -1.18839126e-002 6.64202031e-004 3.11730569e-003 2.01282278e-002
      1.29434885e-002 -7.97839835e-003 -4.32247249e-003 -1.37336003e-002
      -1.35884471e-002 -3.19293910e-003 9.08476673e-003 7.72508513e-003
      7.54643138e-003 1.90694397e-003 -5.36594726e-003 -1.84444971e-002
      -2.87976079e-002 -3.32435779e-002 -4.27439949e-003 1.35919992e-002
      1.71873514e-002 2.48187073e-002 2.05194904e-003 1.81137249e-002
      -2.48583779e-002 -2.88714655e-002 -3.61696780e-002
      -1.30095072e-002 1.47651264e-003 1.69630593e-003 2.02857517e-002
      2.96705980e-002 2.17510704e-002 -5.23284171e-003 -1.33354329e-002
      -2.38234513e-002 -3.81365209e-003 -2.71282066e-003
      -6.53846655e-003 -2.85186269e-003 2.94128768e-002 -7.49462657e-003
      -2.48065852e-002 -2.52021533e-002 -2.84893624e-002 7.36051193e-003
      1.66495815e-002 9.94079188e-003 1.75826494e-002 9.57445055e-003
      1.31967198e-002 -4.21865517e-003 -1.32665215e-002 -1.67388190e-002
      4.84759826e-003 1.63183827e-003 -9.71504301e-003 -1.50570245e-002
      -3.09018116e-003 2.73732133e-002 6.99965097e-003 -1.74890668e-003
      -9.47139971e-003 -1.19516328e-002 -1.38962027e-002
      -1.25847356e-002 -9.82085895e-003 2.44920105e-002 4.57238853e-002
      1.06568746e-002 -2.52945977e-003 -3.49883884e-002 -5.39491251e-002
      1.35958726e-002 3.98840792e-002 3.71908471e-002 4.57036756e-002
      1.89383216e-002 7.79465726e-003 1.72650616e-003 -1.99111048e-002
      -3.42517048e-002 -2.91845296e-002 -2.15408746e-002
      -1.91145055e-002 -7.58928433e-003 2.16385107e-002 3.20490310e-003
      -1.08392292e-003 -3.78173552e-002 -5.06862663e-002 4.42290120e-003
      3.47226374e-002 3.51602286e-002 3.32640447e-002 1.32003408e-002
      5.20171074e-004 -6.77187229e-003 -3.68500426e-002 -5.36493026e-002
      1.80204064e-002 3.64363603e-002 3.39969210e-002 2.14455109e-002
      4.20985837e-003 -2.22197524e-003 -6.65869191e-003 -2.22792057e-003
      1.56316720e-003 2.39033122e-002 1.99552402e-002 1.41375232e-002
      4.13369434e-003 2.36252483e-004 -2.11012014e-003 -6.10510027e-003
      -3.66742387e-002 -2.80411206e-002 4.16451273e-003 3.50473337e-002
      3.80014591e-002 1.00332592e-002 -7.19672255e-003 -8.83604400e-003
      -7.12051429e-003 -1.95299536e-002 -1.39861973e-002 1.33868018e-002
      2.99278032e-002 2.94689629e-002 5.98747144e-003 -2.46522836e-002
      -2.42429171e-002 -2.50288974e-002 -1.02720910e-003 4.83307317e-002
      2.04897653e-002 7.59232789e-004 -3.36155342e-003 -2.00230107e-002
      -3.44987065e-002 -2.80016046e-002 -2.58731395e-002 5.81201026e-003
      3.81722599e-002 1.19875707e-002 5.08620916e-003 9.24894775e-005
      -2.06520502e-002 -3.56652141e-002 -3.78138572e-002
      -4.02419418e-002 -1.51524981e-002 4.80892509e-002 5.08319587e-002
      2.22268440e-002 1.53747797e-002 -9.58016887e-003 -2.84510255e-002
      -2.86573563e-002 -2.33567208e-002 2.76825727e-008 3.11799888e-002
      3.07265557e-002 2.51719374e-002 2.07247920e-002 -5.40991034e-003
      -1.89250708e-002 -1.73524693e-002 -2.49863341e-002
      -6.67397212e-003 9.65292379e-003 1.88338198e-002 1.99521780e-002
      1.53296813e-002 -1.58548693e-003 -2.99423020e-002 -1.05110500e-002
      -1.10863438e-002 -5.91452233e-003 1.52610522e-002 2.38767434e-002
      3.00248098e-002 1.92014072e-002 -1.41876824e-002 -1.44985979e-002
      -1.74825103e-003 -3.88129684e-003 1.47464685e-002 9.94552672e-003
      1.32648395e-002 1.77938398e-002 1.37189273e-002 -3.12728132e-003
      -3.04624625e-002 -2.10588495e-003 6.81195082e-003 1.37299215e-002
      1.84402261e-002 1.47448871e-002 1.06394002e-002 2.48124416e-004
      -3.05972453e-002 -2.25384999e-002 -1.01427361e-002
      -1.15579823e-002 -9.27020051e-003 2.17084438e-002 2.42172107e-002
      2.35019550e-002 1.76879037e-002 -7.01471372e-003 -7.85446540e-003
      5.89087722e-004 -5.95626654e-003 -1.22550158e-002 -1.40514714e-003
      1.16498955e-002 8.55792314e-003 5.75150503e-003 7.82364607e-003
      -2.56270729e-002 2.06231792e-003 6.99684722e-003 1.11770136e-002
      2.20152643e-002 1.92785971e-002 1.01219472e-002 3.73910507e-003
      -1.72201190e-002 -5.23704803e-003 2.98061362e-003 3.41796875e-003
      -6.79723127e-003 9.00082011e-003 1.25184627e-002 7.86552858e-003
      1.19656064e-002 4.26233048e-003 1.47379413e-002 7.63406511e-003
      1.09769811e-003 -1.75515357e-002 -2.98641212e-002 -1.30715016e-002
      5.14089270e-003 1.24303019e-002 2.02575400e-002 1.86408293e-002
      8.34336784e-003 1.22698992e-002 -2.34788400e-003 -2.46558171e-002
      -5.76353772e-003 2.85782535e-002 3.44637744e-002 3.20124291e-002
      7.79575901e-003 4.90340171e-003 -3.54244583e-003 -1.49757154e-002
      -2.76421923e-002 -9.07843467e-003 1.05799744e-002 2.07012892e-002
      2.32936498e-002 2.16171034e-002 3.42814103e-002 3.00943293e-002
      1.21231610e-002 -2.43812315e-002 -2.02859826e-002 1.90906134e-003
      1.52793881e-002 1.82412211e-002 -6.32105023e-003 -8.70788121e-004
      4.07756399e-003 5.88518986e-003 -1.17798231e-003 -6.90219551e-003
      9.34830587e-003 1.62882004e-002 1.91903720e-003 -2.58427653e-002
      -9.41990595e-003 -3.91734997e-004 1.36262262e-002 1.32588446e-002
      2.05812566e-002 8.56100954e-003 9.07172170e-003 -1.42528797e-002
      -2.67255642e-002 1.37246316e-002 2.46350877e-002 3.49467993e-002
      1.31948281e-003 -2.81099975e-002 -2.13073269e-002 -7.91856460e-003
      -2.05512252e-002 -3.53288054e-002 7.36031652e-005 1.40736438e-002
      4.37342115e-002 3.93763892e-002 2.83717015e-003 -8.92148633e-003
      -8.82014725e-003 -3.87488231e-002 -3.69827002e-002
      -2.68154982e-002 -2.92008910e-002 -2.29216721e-002 3.02176159e-002
      3.99283804e-002 3.66458446e-002 2.76875459e-002 -7.81075703e-003
      -2.88910475e-002 -1.68597177e-002 -1.53834540e-002
      -9.39542614e-003 1.03324847e-002 1.33617008e-002 2.89501511e-002
      2.46798582e-002 -6.34548580e-003 -3.11908238e-002 -1.28247729e-002
      -1.15121398e-002 -6.55374909e-003 3.02253999e-002 3.86752039e-002
      2.80523207e-002 1.68350507e-002 -2.18408424e-002 -1.56183690e-002
      1.39411411e-003 5.86818031e-004 -4.87897749e-004 -6.12872792e-003
      1.98987555e-002 2.82590240e-002 3.47267985e-002 4.88454461e-005
      -1.51848542e-002 2.70657823e-003 -1.24500028e-003 5.72588248e-003
      -1.81967614e-003 -2.63503962e-003 1.05868941e-002 1.39068542e-002
      -4.26894706e-003 -2.99690962e-002 -2.85734283e-003
      -1.05966476e-003 1.07720420e-002 5.33727114e-004 -1.02682943e-002
      -6.54429384e-003 -4.40907711e-003 -1.79650430e-002 9.95533261e-003
      1.92047562e-002 7.11142179e-003 7.91325420e-003 -3.25110042e-003
      8.21205787e-003 2.58936957e-002 2.94077192e-002 1.37733938e-002
      -3.40739987e-003 3.82610876e-003 3.56199662e-003 3.46194417e-003
      -2.40542670e-003 -9.60371457e-003 -3.86002869e-003 4.95445682e-003
      1.50441460e-003 -1.99267417e-002 -2.63011479e-003 8.20052461e-004
      8.21985770e-003 4.82612103e-003 1.25456462e-003 -2.08589807e-003
      -4.82175173e-003 -6.62274286e-003 -3.20569030e-003
      -7.41806021e-003 -9.93482023e-003 -1.02617443e-002
      -1.32603673e-002 -8.74077249e-003 -4.89565963e-003
      -7.20242597e-003 -3.48121440e-003 1.37031544e-002 -4.77005960e-003
      1.78352848e-003 1.29747367e-003 -1.87901559e-003 -4.99517517e-003
      -3.89398425e-003 -2.49590352e-003 1.61424987e-002 1.73750315e-002
      -9.51932452e-004 -4.50542243e-003 -4.62352531e-003
      -6.01362530e-003 -1.14954365e-002 -1.54724661e-002
      -1.64393019e-002 1.61424987e-002 -2.03245156e-003 -1.27956355e-002
      -2.70876717e-002 -3.03542148e-002 -3.10800318e-002
      -2.16618143e-002 3.22578970e-004 1.62238954e-003 9.37558338e-003
      1.58771351e-002 2.80503966e-002 2.87178233e-002 1.05297239e-002
      -2.98532657e-002 -3.52097824e-002 -1.58788264e-002
      -4.71376535e-003 5.43352682e-003 1.42940851e-002 -4.19202494e-003
      -1.17716221e-002 -2.00571828e-002 -2.72096470e-002
      -2.33858880e-002 -1.88929755e-002 -1.07184239e-002 2.03157496e-002
      3.29055674e-002 2.66976524e-002 2.66609769e-002 1.33346301e-002
      -2.36139391e-002 -2.77284160e-002 -1.62286554e-002
      -4.33144672e-003 3.85323651e-002 -3.91961969e-002 2.83953864e-002
      3.87196615e-002 4.07580473e-002 -2.92539108e-003 -2.54610274e-002
      -2.50756815e-002 -1.46493297e-002 -2.62461398e-002
      -3.40689532e-002 1.37432646e-002 3.37873511e-002 3.88335846e-002
      3.24927233e-002 -3.95361288e-003 -7.66838389e-003 -1.06168361e-002
      -4.72569354e-002 -1.78502314e-002 1.64382216e-002 2.61659026e-002
      2.07070671e-002 -1.27882953e-003 -1.22369593e-002 -1.35681378e-002
      -1.10072894e-002 -1.80015080e-002 -2.45459229e-002 3.18602915e-003
      2.78051570e-002 3.30083668e-002 3.42636257e-002 -6.00804526e-007
      -3.12244683e-003 -1.08858543e-002 -4.33569103e-002
      -2.60601565e-002 4.36439761e-004 8.69353884e-004 5.80005068e-003
      3.35075073e-002 3.09655331e-002 2.52722334e-002 1.64334476e-002
      -1.89298708e-002 -1.57068390e-002 4.28667292e-003 2.77322391e-003
      2.42297235e-003 -4.91867017e-004 2.96827164e-002 3.03315483e-002
      2.66246255e-002 -2.45492496e-002 -1.43044619e-002 9.27226059e-003
      5.82001545e-003 1.05730100e-002 8.60625599e-003 1.36673590e-002
      2.04291213e-002 1.49012962e-002 -1.55483270e-002 -1.70847289e-002
      2.97217583e-003 4.56421217e-003 4.04199539e-003 4.70669102e-003
      2.79840697e-002 3.02155204e-002 2.13587582e-002 -3.90260899e-003
      -5.29969810e-003 4.07262286e-003 2.19367445e-003 1.44179387e-003
      -5.51375607e-003 1.65929887e-002 2.00433861e-002 8.23142566e-003
      -7.90635217e-003 -4.45185043e-003 -7.25644361e-003
      -4.38996445e-004 -9.92490631e-003 -1.11288130e-002
      -6.66892109e-003 -1.70387712e-003 -7.24552991e-003
      -1.90478272e-003 6.27553184e-003 1.62993802e-003 1.18671544e-003
      4.83790529e-004 -1.24648595e-002 2.20256262e-002 1.99013967e-002
      4.92741400e-003 1.42406225e-002 1.55374119e-002 -8.12995806e-003
      6.66001462e-004 -6.96723582e-003 -2.58557945e-002 -1.21519445e-002
      -5.19147562e-003 -9.19730961e-003 1.61126666e-002 -8.49239295e-004
      -1.60547234e-002 -1.09953654e-003 -4.86388244e-003
      -5.90233412e-003 -9.74584837e-003 -7.15986593e-003
      -9.45601054e-003 1.50317680e-002 1.27511322e-002 -2.70289602e-003
      9.24313863e-005 -6.97633775e-004 -1.75484996e-002 -2.64476966e-002
      -2.71667410e-002 -2.41717007e-002 1.26385428e-002 2.73326486e-002
      -1.28644807e-002 -2.97781778e-003 -3.62399034e-003
      -1.21891322e-002 -6.68179384e-003 -3.57344816e-003 1.01171657e-002
      2.22466532e-002 3.01993992e-002 -1.01806445e-003 7.95932487e-004
      1.28475280e-004 -3.18344682e-002 -3.53277102e-002 -3.42632830e-002
      -1.04125415e-003 2.17833091e-002 3.02155931e-002 3.21998447e-003
      4.55129775e-005 -2.42944574e-003 -2.51722038e-002 -3.03751398e-002
      -3.08370348e-002 -1.46651035e-002 2.87895817e-002 3.32686417e-002
      1.75790973e-002 1.49329118e-002 5.01409359e-003 -2.75670886e-002
      -1.05471062e-002 -9.26555973e-003 9.08783659e-006 3.66684571e-002
      2.85876244e-002 9.77585372e-003 3.07532493e-003 -7.19801814e-004
      -4.53295596e-002 -4.65769097e-002 -2.74813790e-002
      -8.08179751e-003 2.01091468e-002 2.51801126e-002 1.34155555e-002
      5.69363032e-003 3.32118338e-003 -3.47519256e-002 -2.30843443e-002
      -1.44670624e-002 8.20470566e-004 3.24259624e-002 4.09439905e-003
      1.64736602e-002 1.35720102e-002 1.36985043e-002 -1.79855637e-002
      -4.36156202e-004 -2.46521761e-003 -1.34751236e-003
      -2.69366475e-003 -8.63077026e-003 1.50275948e-002 2.01388374e-002
      2.81031113e-002 2.68165339e-002 8.82565742e-004 -1.57834962e-003
      -4.54143342e-003 -2.24846639e-002 1.01305535e-002 7.60989822e-003
      3.88844637e-003 -2.76544248e-003 -3.40512395e-002 5.04441501e-004
      -5.57254360e-004 -3.81480157e-003 -2.10454012e-003 2.45507155e-003
      6.51353039e-003 9.49634612e-003 1.16775353e-002 -2.84648244e-003
      2.55087763e-003 -9.48176195e-004 -9.76777822e-003 -9.79155861e-003</_>
    <_>
      -1.48162562e-002 2.66061407e-002 1.82092674e-002 1.74466148e-002
      1.15565155e-002 4.32579685e-003 5.98509051e-003 4.70071379e-003
      -3.94585878e-002 -1.48162562e-002 2.65251417e-002 3.20247486e-002
      2.81773973e-002 5.72615350e-003 2.94275465e-003 2.17326544e-003
      -7.39999465e-004 -4.03243080e-002 -1.62269350e-003 2.09575817e-002
      1.98371094e-002 2.45359391e-002 2.80817561e-002 -6.55163196e-004
      -2.36486900e-003 -8.73403449e-004 -1.39660276e-002
      -1.48162562e-002 1.67023409e-002 2.58723591e-002 1.83526725e-002
      3.03718669e-004 4.26328275e-004 -1.21694652e-003 -5.14760148e-003
      -3.37556526e-002 -5.30572026e-004 7.12234993e-003 2.55081058e-002
      1.12917833e-002 -1.23136584e-003 -1.47334344e-004 -4.87456156e-004
      -1.67382997e-003 -2.17252932e-002 -5.30572026e-004
      -1.02736112e-002 -9.27338027e-004 -1.48820493e-003
      -6.01513602e-004 -5.91474236e-004 2.56001367e-005 -4.62238677e-003
      -5.30572026e-004 -5.30572026e-004 2.08128653e-002 2.87106428e-002
      1.05791539e-002 -2.21725367e-003 -1.10010558e-003 -3.58655117e-003
      -9.78188962e-003 -2.10903324e-002 1.11464970e-002 7.81396125e-003
      -9.28216788e-004 -2.44412827e-003 -3.33003071e-003
      -5.59573155e-003 -1.12016993e-002 -7.73870712e-003 1.93201273e-003
      3.28055670e-004 -2.60400423e-003 3.15967161e-004 -4.06269310e-003
      -1.82930138e-002 -1.30889937e-002 -6.76599471e-003
      -2.58505298e-003 2.16821604e-003 2.79537607e-002 1.28213633e-002
      1.70392217e-003 -9.95656569e-003 -4.03255560e-002 -3.50728258e-002
      -1.62826702e-002 -5.01405727e-003 2.85022277e-002 3.18711400e-002
      3.26707261e-003 -1.37826719e-003 -1.14334868e-002 -3.91034558e-002
      -1.36004426e-002 -3.48274340e-003 7.60592520e-003 3.20797898e-002
      4.03303951e-002 1.45168547e-002 1.28747721e-003 -2.12194622e-002
      -4.06745709e-002 -3.56546417e-002 -4.19365196e-003 3.40581941e-003
      4.01749723e-002 2.59647537e-002 8.37629847e-003 -2.10736436e-003
      -1.07819540e-002 -3.29444632e-002 -2.98361797e-002
      -1.10459430e-002 3.12938727e-003 3.22402492e-002 8.90137348e-003
      -8.49526748e-003 -1.87444687e-002 -2.82092113e-002
      -2.65331026e-002 -8.95709824e-003 1.31581388e-002 2.39656102e-002
      3.19235027e-002 3.39737236e-002 9.34838504e-003 -5.49203809e-003
      -2.22452544e-002 -3.35204266e-002 -3.26491594e-002
      -9.62017011e-003 -7.68340469e-005 3.48411351e-002 2.72451080e-002
      4.35676705e-003 -7.76904589e-003 -1.51569070e-002 -2.87729148e-002
      -1.18455729e-002 -5.50164189e-003 4.35071811e-003 2.91126836e-002
      -1.88317837e-003 -6.02884404e-003 -1.15009975e-002
      -1.39080808e-002 -1.13970246e-002 3.41048744e-003 1.15741566e-002
      1.24258082e-002 1.32910348e-002 2.12113652e-003 8.65097530e-003
      2.01515242e-004 -5.07733203e-004 4.01997892e-003 -1.00056771e-002
      -1.27497809e-002 -1.69274881e-002 -4.55537764e-003 1.94493271e-002
      3.92312510e-003 -2.14231294e-003 -5.32933930e-003 -2.26994194e-002
      -4.08158544e-003 -2.62628566e-003 -8.32495163e-004 2.05687955e-002
      2.29185466e-002 8.13097600e-003 2.08564615e-003 1.07038720e-002
      7.94877124e-004 -3.62492749e-003 -8.70886818e-003 -1.10147456e-002
      7.08646188e-003 -4.64508636e-003 9.00196843e-003 7.92520773e-003
      6.64027687e-003 4.17311909e-003 -1.66302803e-003 -1.41619507e-003
      -7.00609526e-005 -2.02718563e-003 -1.71825159e-002 1.02028595e-002
      1.67294424e-002 9.10745095e-003 -8.56983941e-003 1.55776128e-004
      -8.13952822e-004 -4.36927192e-003 -3.47165205e-002 3.38631496e-003
      2.34692041e-002 2.29100268e-002 -1.38349342e-003 -9.03300755e-003
      -3.54915182e-003 4.25514881e-004 1.24708866e-003 1.27794675e-003
      -2.42316946e-002 2.02869456e-002 2.03635599e-002 6.46869931e-003
      -1.68783292e-002 -4.88817273e-003 1.38336117e-003 -1.85713859e-003
      -2.47314405e-002 3.74845322e-003 2.48307697e-002 2.80661862e-002
      1.85160376e-002 -1.02660537e-003 -5.33238286e-003 -8.74692295e-003
      -1.54242637e-002 -1.45775750e-002 2.78943982e-002 2.22599600e-002
      7.02777505e-003 -1.00797415e-003 -2.29728855e-002 -2.28430964e-002
      -2.43778974e-002 -4.14902344e-003 1.53931538e-002 -5.41475415e-003
      1.74284279e-002 1.96114294e-002 1.39172887e-002 -2.52043493e-002
      -1.21670896e-002 -4.12786799e-003 -4.44413535e-003
      -1.52927050e-002 2.47507133e-002 9.62822046e-003 7.88390357e-003
      -1.76571272e-002 -2.95188278e-002 -2.19597537e-002
      -5.87099837e-003 1.18607106e-002 2.24388577e-002 4.43591662e-002
      8.34554713e-003 5.46218641e-003 -9.24412441e-003 -4.72221375e-002
      -1.55887650e-002 -7.18834391e-003 1.41648548e-002 4.31124493e-002
      4.41632457e-002 1.56111913e-002 4.22669807e-003 -2.34981030e-002
      -4.27250490e-002 -2.89139822e-002 -1.85404823e-003 7.45501043e-003
      4.47587296e-002 2.14404855e-002 8.36910401e-003 1.12666804e-002
      -2.05244347e-002 -3.49856541e-002 -6.85415929e-003 2.70308391e-003
      1.70344710e-002 3.08446344e-002 3.22220325e-002 1.32172294e-002
      7.82504864e-003 -2.38515958e-002 -2.12738570e-002 -8.14409927e-003
      2.99653644e-003 1.10312738e-002 2.38695592e-002 3.11517660e-002
      8.59930553e-003 -6.93060644e-003 -3.23086604e-002 -3.70826870e-002
      -3.14495675e-002 -6.62325136e-003 1.81224116e-003 3.39773148e-002
      2.67805811e-002 2.79229018e-003 -8.91786907e-003 -1.32970409e-002
      -2.38473173e-002 2.64451094e-003 1.42987985e-002 1.64248757e-002
      2.58492325e-002 2.21399870e-002 5.19834226e-003 -2.26877723e-003
      -2.82608252e-002 -3.09013259e-002 -2.52239872e-002
      -6.83653075e-003 3.49482405e-003 1.66206285e-002 5.43316174e-003
      -5.11842081e-003 -4.25342796e-003 -1.45359784e-002
      -2.59197745e-002 1.02241207e-002 1.58210378e-002 1.46570159e-002
      1.63359866e-002 7.49097206e-003 1.89548926e-004 -1.49362852e-004
      -3.51250195e-003 -3.90741639e-002 -5.34425769e-003 1.45439329e-002
      1.61481574e-002 1.47316204e-002 3.89418821e-003 1.45389326e-003
      2.16964353e-003 7.31063262e-003 -1.49179762e-002 -3.32039851e-003
      1.00843208e-002 6.84532057e-003 2.75347219e-003 -2.33458262e-003
      -3.36105796e-003 2.97547376e-004 -1.55584561e-002 -1.81834269e-002
      1.05722547e-002 2.85079945e-002 2.95911860e-002 8.91577639e-003
      9.07949696e-004 -8.82591761e-004 1.59649202e-003 -1.24044688e-002
      -1.49179762e-002 3.06621729e-003 3.09130158e-002 2.94771530e-002
      1.28417425e-002 3.80759034e-003 8.44941754e-003 1.40156923e-002
      1.51741058e-002 -1.82446428e-002 5.19080041e-003 1.79511693e-003
      2.15652352e-003 2.35491362e-003 -7.87260302e-004 9.19362810e-003
      1.21796057e-002 1.70916524e-002 -1.92071758e-002 4.24368959e-003
      6.74234843e-003 5.15942834e-003 5.29518642e-004 1.63221254e-003
      1.21476757e-003 3.21508851e-003 1.38577605e-002 -1.82446428e-002
      1.52212353e-002 1.63939763e-002 1.21916933e-002 8.59439094e-003
      1.89292582e-003 1.60493876e-003 5.27590187e-003 1.36103965e-002
      -1.82446428e-002 7.69593520e-003 2.09606048e-002 1.94987487e-002
      1.05599845e-002 3.87083576e-003 9.04888380e-003 9.42124147e-003
      1.11730108e-002 -2.51275375e-002 7.64195621e-003 1.86703671e-002
      1.62446145e-002 7.32105365e-003 8.44707247e-003 8.41899123e-003
      1.09308027e-002 -8.10916629e-003 -2.49394830e-002 -1.24310656e-002
      2.21315902e-002 1.89309958e-002 1.37444446e-002 9.34169814e-003
      1.53103396e-002 1.55001543e-002 2.32794005e-002 -1.19944671e-002
      8.31130426e-003 1.81005709e-002 1.85891036e-002 1.68320723e-002
      8.15660041e-003 1.59960687e-002 1.98729113e-002 2.11358014e-002
      -1.84690766e-002 -2.39234492e-002 -2.51758043e-002
      -1.82753615e-002 5.23868855e-003 1.01820519e-002 1.04239685e-002
      1.51721118e-002 -2.94201518e-003 -1.45046283e-002 3.15756421e-003
      1.70478579e-002 1.65438168e-002 1.66861862e-002 1.23517960e-002
      1.28758457e-002 1.13328574e-002 -1.16691813e-002 -9.33485571e-003
      7.86343031e-003 1.74018964e-002 2.07551587e-002 2.78726388e-002
      1.12961140e-002 1.60312969e-002 1.72029063e-002 1.83034614e-002
      -1.39105078e-002 -2.09666248e-002 -2.30623856e-002
      -1.16496468e-002 1.36110801e-002 1.92843452e-002 1.83543619e-002
      1.89339574e-002 4.23866790e-003 -9.33485571e-003 -1.27364900e-002
      -2.17089467e-002 -3.16838548e-003 2.24418193e-002 1.26303695e-002
      5.87262260e-003 2.09584739e-003 -1.94802806e-002 -1.91909559e-002
      -9.80513822e-003 6.29564421e-003 1.22377537e-002 1.79068204e-002
      7.70649826e-003 1.09329785e-003 2.57053389e-003 8.19528395e-006
      -2.88650335e-004 1.91314276e-002 1.56554859e-002 1.60885490e-002
      1.62502304e-002 1.49568822e-002 9.53196734e-003 6.65654289e-003
      -3.96728935e-003 -1.80045664e-002 -2.37972029e-002
      -2.32978929e-002 -1.55800814e-002 5.11137955e-003 1.55421235e-002
      1.77046694e-002 -2.01999821e-004 -4.59406199e-003 -8.26123543e-003
      -1.88108371e-003 -9.96196177e-003 1.26990883e-004 1.09828198e-002
      -1.89627649e-003 -1.05704437e-003 -9.30375099e-005
      -1.08369207e-002 -7.28811778e-004 2.51966994e-002 1.22245196e-002
      1.31726749e-002 5.49874129e-003 1.30369130e-003 3.56319099e-004
      1.17081695e-003 -8.64495058e-003 -7.28811778e-004 1.75277349e-002
      1.19808447e-002 1.14029534e-002 7.33109610e-003 4.96382918e-003
      2.69951602e-003 -9.03537031e-003 -7.71218399e-003 5.23403229e-004
      1.13922786e-002 6.01498934e-004 1.31023803e-003 2.82920548e-003
      6.48000324e-003 2.08252296e-003 -8.90275929e-003 -3.88612924e-003
      -7.28811778e-004 4.60525090e-003 -1.25641306e-003 -1.54307752e-003
      2.45088991e-003 2.06762529e-003 9.93283698e-004 -1.80741117e-004
      -7.90659245e-003 -1.95006616e-002 1.19934622e-002 2.89918371e-002
      2.32107304e-002 1.24286497e-002 4.86574741e-003 2.51822104e-003
      9.72939539e-004 -8.42696428e-003 -2.28142422e-002 2.21589929e-003
      2.80359518e-002 2.11421046e-002 1.65149663e-002 1.15569253e-002
      2.48560193e-003 -4.19716322e-004 -2.54823323e-002 -1.95006616e-002
      2.16946602e-002 2.29216944e-002 1.75575856e-002 1.37851276e-002
      2.12654453e-002 7.14427140e-003 -2.60195462e-003 -3.58519666e-002
      -3.99749875e-002 1.71210393e-002 2.94089559e-002 3.09131648e-002
      2.89758984e-002 1.35085508e-002 9.86695010e-003 5.67771913e-003
      6.15384616e-003 -1.04858195e-002 -7.68654281e-003 5.95470238e-003
      1.67774204e-002 1.44325159e-002 1.18003264e-002 1.13584129e-002
      6.27743872e-003 6.41234312e-003 -2.77292151e-002 -3.52398306e-002
      -3.44039239e-002 -2.71252152e-002 1.74183175e-002 3.45235616e-002
      2.22204849e-002 1.06803724e-003 -9.73899942e-003 -2.13913172e-002
      3.80443619e-003 2.12126691e-002 2.67618392e-002 3.30444127e-002
      3.43974084e-002 1.69027261e-002 3.48486681e-003 -1.11895520e-002
      -3.58278751e-002 -3.74508947e-002 -2.66880896e-002 1.33554535e-002
      3.12707834e-002 2.03928649e-002 9.30799916e-003 6.71790633e-003
      6.95432490e-003 -2.87710242e-002 -3.17581072e-002 -3.15875746e-002
      -1.22258058e-002 3.02117411e-002 3.28989625e-002 1.05077988e-002
      8.36732052e-003 7.70162884e-003 -1.97131075e-002 -2.88206618e-002
      -2.78447550e-002 -1.58697292e-002 2.75697503e-002 4.63400260e-002
      8.91739968e-003 4.09339415e-003 -4.13115136e-003 -3.49098966e-002
      -3.47977318e-002 -2.72589494e-002 1.01755904e-002 4.81195003e-002
      4.91320603e-002 1.42212473e-002 4.96434700e-003 1.39844418e-003
      -2.88173612e-002 -3.31197195e-002 -2.84360368e-002
      -6.80262968e-003 4.43086997e-002 1.56643614e-002 6.96538156e-003
      7.01893028e-003 5.17463777e-003 -2.58474820e-003 -2.63550766e-002
      -2.54349895e-002 -1.92711297e-002 8.45563971e-003 3.96322878e-003
      1.40374415e-002 4.94131027e-003 -5.35801752e-003 -9.85787157e-003
      -1.43078519e-002 -1.53810633e-002 -8.05153698e-003
      -6.05079345e-003 1.90875381e-002 1.14827193e-002 6.57665357e-003
      2.50857137e-003 -1.63642783e-003 -2.44506337e-002 -2.57376246e-002
      -1.48510877e-002 1.07314205e-002 9.57018789e-003 8.94089043e-003
      1.15372743e-002 1.02105998e-002 -1.47082633e-003 -5.87390549e-003
      -1.05471388e-002 -1.25268996e-002 5.19912504e-003 2.33257615e-005
      8.07669386e-003 -2.59713456e-003 -1.52174046e-003 -1.17413606e-003
      -1.18215650e-003 -1.08103442e-003 -4.47280210e-004
      -2.30842968e-003 1.03662419e-003 1.09292625e-003 -7.69595383e-004
      3.01549118e-003 1.15095982e-002 -1.20565156e-003 -1.72718859e-003
      -1.90851453e-003 -1.58556958e-003 -1.11187273e-003
      -2.73085199e-003 -1.52174046e-003 -2.71677854e-003
      -1.29186595e-003 -2.18524504e-003 -6.76029478e-004
      -1.43231463e-003 -4.15998790e-003 -1.41804165e-003
      -1.31631782e-002 -4.95139509e-003 8.90925585e-004 2.77616791e-002
      -2.22829427e-003 -1.13995804e-003 -1.01831090e-003
      -1.67144672e-003 2.30226032e-002 4.49923053e-003 -2.83189630e-003
      -2.46655103e-002 -1.40230432e-002 1.58899501e-002 2.18732115e-002
      1.49352234e-002 1.77369583e-002 2.91749723e-002 8.76444671e-003
      -1.40424771e-003 -2.79932395e-002 -3.12324762e-002 1.22656170e-002
      2.55806148e-002 2.58583352e-002 2.96568312e-002 1.25028763e-003
      -5.95032331e-003 -1.29555855e-002 -2.43492685e-002
      -2.78265327e-002 8.36861506e-003 1.83066390e-002 9.37757175e-003
      -1.48705151e-002 2.32454836e-002 1.95239100e-003 -6.25821250e-003
      -3.11084799e-002 -2.05287691e-002 1.38112381e-002 2.57809162e-002
      2.63776705e-002 2.83644050e-002 2.57186610e-002 8.63676332e-003
      -4.77399025e-003 -1.95201933e-002 -3.01210098e-002
      -1.01518082e-002 1.16724391e-002 1.50418552e-002 3.21455412e-002
      3.01424786e-002 7.61923194e-003 3.33034171e-004 -1.75013486e-002
      -3.50051261e-002 -3.46488021e-002 -3.16924900e-002 2.11346871e-003
      3.51678692e-002 2.26767007e-002 9.14322562e-004 -5.05915983e-003
      -1.66210197e-002 -2.28443518e-002 2.17907806e-003 1.27243856e-002
      1.87864974e-002 3.24466899e-002 2.48456243e-002 1.58045236e-002
      5.11933235e-004 -1.30153000e-002 -2.95955371e-002 -2.54151784e-002
      -2.80712433e-002 2.15325993e-003 2.90977657e-002 3.33886929e-002
      2.94440240e-003 1.82696630e-003 -2.80330027e-003 -2.88617257e-002
      -3.54283974e-002 -3.61641534e-002 -6.80340594e-003 4.20706868e-002
      4.03097048e-002 5.04020695e-003 1.46191183e-003 -1.96060100e-005
      -1.32295862e-002 -3.16832848e-002 -3.53714265e-002
      -2.39308570e-002 3.13072652e-002 3.86702381e-002 1.29490001e-002
      2.18472746e-003 -2.09228368e-003 -9.54837445e-003 -2.06665639e-002
      -3.28306705e-002 2.41610291e-003 3.83301638e-002 2.59205978e-002
      1.46964975e-002 2.01104907e-003 4.83294541e-004 -3.67940799e-003
      -2.11514607e-002 -3.10627688e-002 -1.16604548e-002 4.66387672e-003
      1.64769068e-002 5.16144745e-003 1.19322410e-003 9.23061511e-004
      -2.46849074e-003 -1.16806794e-002 -2.15609185e-002
      -1.51308980e-002 4.46537090e-003 -5.85954171e-003 6.62397919e-003
      1.31899659e-002 2.17982922e-002 4.59459145e-003 1.54465321e-003
      -1.07947364e-003 -4.05128021e-003 -3.29380133e-003
      -7.76675344e-003 9.31625068e-003 2.95232353e-003 1.82521227e-003
      3.29145091e-003 -4.90920804e-003 -9.16605070e-003 -6.13884302e-003
      -9.29622818e-003 -9.29622818e-003 1.74079873e-002 2.09952835e-002
      3.25492658e-002 1.12576438e-002 4.36522486e-003 4.01643338e-003
      2.03824113e-003 -1.15443906e-002 9.76133347e-003 1.54777186e-003
      -5.26057277e-003 8.16233456e-003 3.66832712e-003 1.01333263e-003
      3.15801444e-004 6.99687691e-004 6.22945698e-003 1.97898299e-002
      -8.21768399e-003 -1.32762324e-002 -4.95061558e-003 2.26585530e-002
      1.59986562e-003 5.54104918e-004 1.09594548e-003 1.65301654e-002
      -4.84003220e-003 1.83067669e-003 -5.93566429e-003 1.06391963e-002
      8.96856096e-003 4.55101207e-003 3.25540174e-003 3.07409652e-003
      -1.30341938e-002 1.52630219e-002 -1.43501898e-002 -2.21209768e-002
      -6.66210148e-003 5.44387475e-003 5.28733851e-003 4.19598818e-003
      5.02150040e-003 2.10288186e-002</_>
    <_>
      3.53084840e-002 2.98858173e-002 6.89907093e-003 1.69328006e-004
      -4.75643435e-004 7.23700132e-003 1.19651640e-002 1.41981794e-002
      2.26467103e-003 -6.42282609e-003 1.37984343e-002 2.00500451e-002
      1.13873137e-002 -5.28677134e-003 2.35669292e-003 2.39937403e-003
      -4.97444952e-003 -3.62840146e-002 1.67956911e-002 -9.77763906e-003
      -1.78921483e-002 -1.22737242e-002 3.92666794e-002 -8.03842486e-005
      -2.21583969e-003 -2.17921726e-004 7.25230295e-003 -6.42282609e-003
      -6.42282609e-003 -6.42282609e-003 -2.44712103e-002
      -1.18408883e-002 -2.40917015e-003 5.03456569e-004 -1.87186187e-003
      -2.86222473e-002 1.60196982e-002 2.64506001e-004 -4.09509725e-004
      -3.50550376e-002 -2.11314633e-002 -2.98758666e-003
      -7.55916757e-004 -2.91771634e-004 4.31181770e-003 1.42622888e-002
      -1.87972449e-002 -3.00001316e-002 -4.14595567e-002
      -1.02524757e-002 -1.72083697e-003 3.76872672e-003 1.13697890e-002
      1.42622888e-002 1.42622888e-002 8.54452234e-003 -3.21316882e-003
      -3.21579389e-002 -1.47428727e-002 -3.70589294e-003 1.57862820e-003
      3.55030200e-003 -1.09621463e-002 1.63766071e-002 4.47997823e-003
      -2.86482070e-002 -3.35428342e-002 -8.76660459e-003
      -4.91378922e-003 -2.11756700e-003 8.36523250e-003 1.42622888e-002
      -7.66408723e-003 -2.57949228e-003 -3.73780821e-003
      -3.94240906e-003 1.84298586e-003 1.62177603e-003 5.94089506e-003
      9.41536855e-003 -7.66408723e-003 -7.66408723e-003 1.27981836e-002
      2.67967908e-003 2.20886315e-003 9.11732495e-004 2.25048931e-003
      4.24923562e-003 1.33607851e-003 -7.66408723e-003 1.67053491e-002
      4.31811158e-003 -4.69906814e-003 -9.08914674e-003 -9.96097364e-003
      -1.54659431e-002 -1.57709811e-002 -1.21236099e-002
      -7.66408723e-003 3.42917740e-002 6.72818348e-003 -1.89460982e-002
      -2.42298655e-002 -1.75546482e-002 -1.32740960e-002
      -4.24490543e-003 -3.88450292e-003 3.14576179e-002 -1.14266090e-002
      2.11416860e-003 -1.82132804e-004 1.39632507e-003 4.74665593e-003
      1.22107973e-003 1.37786008e-003 7.11670984e-003 4.79586562e-003
      -1.82391368e-002 2.41811876e-003 1.50021084e-003 1.03078748e-003
      5.48825786e-003 -1.74162947e-002 -2.83549353e-003 6.62200805e-003
      4.79586562e-003 1.09092519e-002 -8.88159964e-003 -2.67049279e-002
      -1.92452203e-002 2.42837359e-005 -1.31991180e-003 -9.19144077e-004
      1.18946751e-004 1.72147881e-002 2.44203350e-003 -4.93934238e-003
      -7.33131589e-003 -1.70504616e-003 6.21818332e-003 -5.53163700e-003
      -4.54348512e-003 3.15962150e-003 4.79586562e-003 1.90742183e-002
      7.14661600e-003 2.55655358e-003 -2.64604017e-003 -3.58488224e-003
      -1.96007695e-002 -5.04029309e-003 3.04294680e-003 -9.68031294e-004
      2.15528607e-002 1.48319602e-002 7.19807431e-005 -4.82572243e-003
      -3.21942638e-003 -9.42587096e-004 -2.24802131e-003
      -3.76400561e-003 -3.75488866e-003 4.44568647e-003 4.12353920e-003
      2.02561845e-003 8.80352338e-004 4.91075823e-003 -2.93090870e-003
      -3.69833945e-003 -4.66167601e-003 -3.84738110e-003 1.60577968e-002
      8.97121802e-003 4.31727199e-003 2.43839584e-002 1.60493993e-003
      -9.18077771e-003 -8.86094850e-003 -9.61547066e-003
      -8.99753999e-003 -7.51382159e-003 -1.58259049e-002
      -1.19132409e-002 7.40887458e-003 5.12837395e-002 2.63519841e-003
      -1.20930723e-003 -1.43864154e-005 -6.91763067e-004
      -1.22446986e-002 1.31695941e-002 7.09627289e-003 -1.07527180e-002
      -9.61932237e-004 -2.66320701e-003 3.03554607e-005 -3.54902912e-003
      -1.97336785e-002 -1.71552729e-002 9.21827275e-003 3.57011775e-003
      9.29961819e-003 1.11394394e-002 -4.33969544e-003 -6.49723574e-004
      -1.54039718e-003 -8.28086305e-003 -4.03380357e-002 8.82804766e-003
      4.41583199e-003 6.48137135e-003 6.20663865e-003 1.82052562e-003
      6.77367207e-003 -6.97923778e-003 -3.87748145e-002 1.90395117e-002
      2.52230894e-002 3.52734490e-003 -2.26475373e-002 -5.31525072e-003
      -2.96087441e-004 3.45993787e-003 6.17724238e-003 6.00227341e-003
      3.41795236e-002 3.49508808e-003 -3.52138691e-002 -3.87924165e-002
      -1.12288408e-002 -3.46290413e-003 -5.07147843e-003 1.88221354e-002
      1.63068417e-002 -2.14184877e-002 7.30957789e-003 -5.86089352e-003
      -1.89122725e-002 -1.92831755e-002 7.99322966e-003 1.40660563e-002
      1.20916395e-002 -1.14944046e-002 2.79076342e-002 -2.95487363e-002
      -3.26051675e-002 -4.05599810e-002 -4.21902686e-002
      -9.32637881e-003 1.18283341e-002 3.87807079e-002 3.59717049e-002
      5.74238375e-002 -1.56912841e-002 -1.40930079e-002 -2.05429792e-002
      -2.41562352e-002 -1.61293782e-002 -1.85196083e-002 8.76216684e-003
      2.63445098e-002 6.26023784e-002 -2.27247719e-002 -3.89771052e-002
      -4.24690209e-002 -1.22027351e-002 -8.09830893e-003
      -4.77581425e-003 8.91568977e-003 7.05977827e-002 2.33421512e-002
      -3.53851542e-002 -2.76462175e-002 -4.24367450e-002
      -3.42327766e-002 -1.61040816e-002 -4.41464735e-003 2.43590418e-002
      3.85236442e-002 2.82575395e-002 -3.44035290e-002 -3.95179875e-002
      -4.49837670e-002 -7.06882449e-003 -6.64932653e-003 5.79854427e-003
      1.54778408e-002 3.35797966e-002 1.52657731e-002 -3.30790617e-002
      -5.00571281e-002 -4.81544733e-002 -8.80355306e-004 3.11844773e-003
      2.67274119e-003 6.42493879e-003 3.71036902e-002 1.19628329e-002
      -2.13642549e-002 -2.64739115e-002 -1.08980564e-002 6.82350015e-003
      1.48185994e-002 8.95312242e-003 1.12324776e-002 8.89315549e-003
      9.19854827e-003 -4.35720123e-002 -5.06845936e-002 -4.02679443e-002
      -1.16699515e-002 8.92562501e-004 7.52303004e-003 1.19945658e-002
      3.02732904e-002 7.14686327e-003 -2.77254377e-002 -2.74559017e-002
      -9.64734610e-003 6.27222471e-003 2.06353683e-002 2.56535737e-003
      1.33024231e-002 2.94741932e-002 4.52094333e-004 -4.02129604e-004
      1.05786859e-003 1.58180087e-003 6.29056664e-003 3.35761462e-003
      -3.43914097e-003 -9.92870308e-004 -1.60884007e-003 4.63935360e-003
      3.16852448e-003 4.91064042e-003 2.38536242e-002 -2.15073326e-003
      -2.15073326e-003 -4.79412358e-003 -1.68445020e-003
      -3.51578486e-003 -2.58800457e-004 -2.38270592e-003 2.15814449e-003
      2.66463729e-003 -8.86928756e-004 -2.15073326e-003 -3.91830737e-003
      2.88768066e-003 9.80984420e-003 1.36322738e-003 5.94474957e-004
      3.15739121e-003 5.60032343e-003 -2.15073326e-003 -2.15073326e-003
      -2.15073326e-003 8.12690146e-003 9.09892935e-003 -5.54001750e-003
      4.81372885e-003 5.51680755e-003 -3.71419941e-004 -1.04591660e-002
      -1.63672548e-002 -1.03070494e-003 -2.84439622e-004
      -3.28084733e-003 -3.39457244e-002 -3.25086759e-003
      -1.59598130e-003 2.34653731e-003 -9.53363907e-003 -1.82621961e-003
      1.44103933e-002 4.25312482e-003 -2.20865384e-002 5.53193095e-004
      1.51352677e-003 2.18618801e-003 -1.17329666e-002 -1.04591660e-002
      1.91869792e-002 2.22921930e-002 2.02587564e-002 1.19325863e-002
      -1.43671758e-003 -2.77746090e-004 9.35178623e-003 -1.08282000e-003
      -1.04591660e-002 1.77094918e-002 3.77432257e-002 3.97722237e-002
      1.49203539e-002 -2.16502938e-002 1.56971451e-003 3.60254524e-003
      -2.81360559e-003 -3.85501310e-002 2.83644851e-002 3.90755758e-002
      3.00602093e-002 -2.67752935e-003 9.87587124e-003 -4.34192410e-003
      -7.92640354e-003 -4.10200097e-002 -4.73634824e-002
      -1.96609553e-002 3.34737860e-002 3.63864787e-002 2.10781917e-002
      7.82326981e-003 1.44793587e-002 2.80942190e-002 2.68942788e-002
      -2.44294330e-002 3.38647105e-002 4.55796346e-002 3.89024727e-002
      2.42236685e-002 1.03240833e-002 1.69360805e-002 1.46586942e-002
      -2.42147390e-002 -3.10230125e-002 -9.14486405e-003 2.03099102e-002
      1.56392734e-002 8.50927550e-003 1.69804543e-002 6.30599447e-003
      8.95020273e-003 -1.25339236e-002 -3.35097574e-002 -1.63599253e-002
      1.92789994e-002 2.61758771e-002 2.26269960e-002 1.34934494e-002
      -2.16067466e-003 1.45262456e-003 -8.33851751e-003 -2.08997969e-002
      -1.14214858e-002 3.14860530e-002 3.27834710e-002 4.83876057e-002
      1.87067129e-002 2.01666653e-002 1.29541950e-002 -1.65698957e-002
      -2.59069167e-002 -4.16107383e-003 1.15292482e-002 1.75731611e-002
      2.53366064e-002 3.49402986e-002 3.21243219e-002 3.03296540e-002
      4.25315171e-004 -2.08997969e-002 -1.59937926e-002 -1.18546654e-003
      2.56471224e-002 4.41683494e-002 4.48304648e-003 -3.68285142e-002
      -2.70173494e-002 -2.91350707e-002 -3.61080132e-002
      -3.19837257e-002 1.32030621e-002 2.26817634e-002 4.21624780e-002
      1.40677085e-002 -1.13686845e-002 -5.00629935e-003 2.22175746e-004
      -2.45725620e-003 2.59113070e-002 7.22415838e-003 1.74177811e-002
      3.13187614e-002 3.64335738e-002 1.85135715e-002 1.01088928e-002
      -2.13682465e-002 -3.73097435e-002 -4.20059673e-002
      -2.98357233e-002 -5.10573853e-003 3.39545533e-002 2.60119066e-002
      2.27500219e-002 1.87169630e-002 1.01181250e-002 -1.87571906e-002
      6.44059386e-003 -1.42263947e-002 5.98138105e-003 2.51650531e-002
      1.39052095e-003 1.53264904e-003 6.83304761e-003 1.50000202e-002
      -1.10856118e-002 1.49484808e-002 -5.82260499e-003 2.72889994e-003
      7.52364239e-003 -1.99829403e-004 1.59308244e-003 1.32096093e-003
      1.48933250e-002 -1.10856118e-002 -1.18790707e-003 -3.81166302e-003
      3.76872160e-003 4.18415759e-003 5.67372236e-003 6.68282760e-003
      1.97235215e-002 1.13718687e-002 -1.10856118e-002 3.26195592e-003
      -1.80869037e-003 1.04893825e-003 3.98578309e-003 6.92118518e-003
      8.34344793e-003 1.07733533e-002 8.41735210e-003 -1.10856118e-002
      -1.15310373e-002 -6.51596719e-003 -2.53225211e-003 1.50294311e-003
      9.84103419e-004 1.68438142e-004 -3.72048677e-003 -2.81027555e-002
      -5.75729972e-003 9.34817642e-003 3.36700678e-002 3.26657966e-002
      1.52348755e-002 4.96558985e-003 -9.54309478e-004 -1.54568697e-003
      -2.47352794e-002 -1.43228630e-002 1.98175479e-002 4.21051122e-002
      3.08081750e-002 2.52033863e-002 2.98532937e-003 -1.09950860e-003
      -3.05246562e-003 -1.04593383e-002 -2.58144410e-003
      -5.92936995e-003 -1.83739699e-002 -2.15982888e-002
      -4.54844162e-003 1.92716010e-002 -6.05157518e-004 -1.11738844e-002
      -3.29724327e-002 -4.26638238e-002 1.75253977e-003 1.22602913e-003
      -2.64670071e-003 2.57182382e-002 1.95565242e-002 5.24099311e-003
      2.69905850e-003 6.48069719e-004 -3.66608836e-002 9.41667706e-003
      3.00238840e-002 3.50947976e-002 2.02258024e-002 2.04460863e-002
      1.21649075e-002 -7.24786194e-004 -2.62012836e-002 -4.98555824e-002
      -6.02727458e-002 -2.49744393e-002 9.59149469e-003 4.39511947e-002
      5.68161793e-002 2.32606623e-002 -3.92660359e-003 -1.51503412e-002
      -4.35039550e-002 -3.62915918e-003 2.10565776e-002 2.90082581e-002
      5.28017730e-002 6.14753589e-002 2.43724827e-002 5.67533914e-003
      -1.80094130e-003 -5.93218207e-002 -6.65104911e-002
      -5.89967296e-002 -3.96562321e-003 5.50921485e-002 2.67863665e-002
      1.11663565e-002 1.49589614e-003 -1.08208824e-002 -5.11544123e-002
      -4.57734577e-002 -3.07928137e-002 6.03434816e-003 5.60363196e-002
      5.07266894e-002 1.70853958e-002 1.07527431e-002 -1.04736688e-003
      -4.09992151e-002 -4.97083068e-002 -4.84789461e-002
      -1.66825987e-002 5.00154085e-002 7.45970160e-002 1.29951341e-002
      2.89675803e-003 2.40364403e-004 -3.50179560e-002 -5.99499717e-002
      -5.62173724e-002 -6.61520474e-003 7.67436549e-002 7.89516568e-002
      2.21807715e-002 1.28747779e-003 -2.13454664e-003 -1.80242453e-002
      -5.61263114e-002 -4.94823121e-002 -2.38494743e-002 6.38075396e-002
      3.01498007e-002 1.38017656e-002 1.02945706e-002 4.01929021e-004
      -2.42070928e-002 -4.68225777e-002 -4.28989455e-002
      -1.88950822e-002 2.34312098e-002 1.59643721e-002 2.23908182e-002
      3.85157601e-003 2.47290824e-003 -5.12822904e-003 -1.30769322e-002
      -1.60959810e-002 -2.24785530e-003 2.63501168e-003 3.74462791e-002
      2.25857943e-002 9.31045692e-003 1.72157655e-004 -7.87468255e-003
      -4.70464230e-002 -4.33007255e-002 -2.64954213e-002 1.26152579e-002
      1.20313186e-002 9.49589536e-003 9.42062866e-003 2.45550647e-003
      -5.49607794e-004 -1.27985338e-002 -1.87423155e-002
      -1.76512264e-002 1.50993606e-003 3.82646360e-003 6.79514557e-003
      4.15032002e-004 2.12268066e-003 -2.17602309e-002 -3.35428677e-003
      -1.03706820e-003 1.07887096e-003 -3.33176722e-004 1.06449313e-002
      7.45535595e-003 1.46437658e-003 2.54708389e-003 -1.50355147e-002
      -1.30827203e-002 -4.91026510e-003 -2.31727422e-003
      -3.46989604e-004 1.53750228e-002 -3.27078509e-003 -1.25741981e-005
      -8.76748748e-003 4.04121215e-003 -5.32357604e-004 -5.93790202e-004
      -1.61819073e-004 -5.35807759e-003 1.18897855e-002 -2.24210769e-002
      -7.35933194e-003 6.29285630e-003 4.77572344e-002 -1.59987714e-003
      -3.52543383e-003 -1.34534179e-003 -2.75622559e-004
      -1.76529947e-003 -6.30942464e-004 -9.58377612e-004 1.51562877e-003
      2.87886821e-002 -6.94993045e-003 -1.35107404e-002 -2.41223350e-002
      -6.39301166e-003 -3.02687543e-003 -1.68482140e-002
      -2.22619604e-002 -3.82453240e-002 -3.07994559e-002 8.64053797e-003
      6.24126941e-003 -7.61089986e-003 1.22393286e-002 -5.31663047e-003
      5.73557755e-003 1.28716649e-002 1.97904520e-002 1.34815583e-002
      3.54194921e-003 9.61213373e-003 -5.65558299e-003 -1.92641448e-002
      -6.32954761e-003 -1.28488578e-002 -7.23584555e-003
      -1.10292137e-002 1.71726868e-002 4.16885056e-002 4.04945351e-002
      3.58225778e-002 1.05041992e-002 2.82532293e-002 -9.62284114e-003
      -2.49671172e-002 -4.47030962e-002 -4.93981503e-002
      -1.77093316e-002 -9.65064671e-003 -1.14066119e-003 4.57893722e-002
      5.23503311e-002 5.45055512e-003 -2.54255545e-004 -3.24844639e-003
      -3.68278213e-002 -6.07104599e-002 -5.84183782e-002
      -3.63573916e-002 4.60152291e-002 3.51350307e-002 -1.22579224e-002
      -1.99401788e-002 -1.91820655e-002 -5.97965717e-003 3.49512622e-002
      1.99322980e-002 2.33523864e-002 5.21834977e-002 5.40480502e-002
      2.63454337e-002 5.27613238e-003 -5.19854133e-004 -1.31001817e-002
      -4.83492874e-002 -5.35395481e-002 -1.27929542e-002 5.15697114e-002
      5.41288219e-002 2.92443065e-003 1.10405427e-003 -2.03899908e-004
      -1.59215927e-002 -5.88248558e-002 -6.40223995e-002
      -3.51615660e-002 6.28031939e-002 6.64172918e-002 4.64577088e-003
      -2.24510906e-003 -2.00611423e-003 -8.94761737e-003
      -4.76240702e-002 -6.22766949e-002 -4.75251339e-002 4.53582332e-002
      7.15743378e-002 2.44290456e-002 7.30222464e-003 3.12417536e-003
      -3.08698299e-003 -4.14155461e-002 -5.85450754e-002
      -1.82544459e-002 6.41237497e-002 6.38846532e-002 2.95403097e-002
      6.07175846e-003 3.39390780e-003 2.07562745e-003 -2.20510624e-002
      -5.39332777e-002 -2.06963588e-002 1.25800623e-002 3.51494849e-002
      1.02213267e-002 1.03070773e-003 -2.54292507e-004 -3.05500417e-003
      -2.30981838e-002 -4.78873476e-002 -3.92092019e-002
      -7.14660482e-003 -3.32368491e-003 8.63094348e-003 1.38216959e-002
      2.48077158e-002 5.81304682e-003 -1.05808652e-003 -7.63649913e-003
      -1.65449921e-002 -1.30824819e-002 3.00625165e-004 1.86226573e-002
      5.01013827e-003 3.25576402e-003 5.67564555e-003 -3.49586550e-003
      -2.73492206e-002 -2.53011435e-002 -5.12409303e-003
      -7.14660482e-003 3.68067436e-002 4.08571996e-002 5.32459468e-002
      1.55010121e-002 5.18142944e-003 3.95426573e-003 -3.42928222e-003
      -9.23130009e-003 2.50805486e-002 7.82483350e-003 -1.49350669e-002
      8.22433829e-003 7.58847594e-003 2.51681078e-003 1.83308832e-004
      1.10295671e-003 9.64970421e-003 4.01086174e-002 -9.01635271e-003
      -2.41724905e-002 -6.83401013e-003 4.69289050e-002 5.05869230e-003
      1.09085639e-003 3.73253925e-003 2.86460314e-002 -6.91789202e-003
      1.03615252e-002 -1.34758288e-002 1.45802237e-002 1.15218973e-002
      6.33003283e-003 3.08878976e-003 2.03466089e-003 -2.21493263e-002
      3.23097482e-002 -2.13870499e-002 -3.78661714e-002 -2.60817409e-002
      1.19798323e-002 1.17000006e-002 9.47733503e-003 1.18663143e-002
      3.88336703e-002</_>
    <_>
      1.79238711e-002 2.49430574e-002 1.56247504e-002 7.51449727e-003
      -3.46403718e-002 -1.86299346e-002 -1.16826419e-003 2.05743522e-003
      -2.67709885e-003 2.79737599e-002 2.69793570e-002 2.65180282e-002
      1.58989280e-002 -3.92279327e-002 -1.64599083e-002 -3.53099685e-003
      -1.84390449e-003 3.60356248e-003 2.59718988e-002 2.75077242e-002
      2.34507304e-002 1.32464487e-002 -1.91074014e-002 -2.31799558e-002
      -2.62697157e-003 1.13952649e-003 1.10455230e-002 2.35486999e-002
      2.73429882e-002 2.75907945e-002 9.46054887e-003 -4.24082391e-002
      -2.38346215e-002 -3.05053615e-003 1.41677342e-003 9.23901517e-003
      3.23325135e-002 1.36916023e-002 1.47942286e-002 -1.00542549e-002
      -3.07571627e-002 -1.92327928e-002 -1.00078359e-002
      -8.16229451e-003 8.79688282e-003 3.00160889e-002 -1.87500101e-003
      -9.13188700e-003 -2.11945530e-002 -3.01298629e-002
      -2.26111934e-002 -1.12277018e-002 -4.55038995e-003 2.44751684e-002
      2.64846850e-002 1.95826385e-002 1.85624771e-002 -7.80463265e-003
      -3.13374065e-002 -2.49276347e-002 -1.00645907e-002
      -3.84409609e-003 6.14358624e-003 2.79734638e-002 2.87187565e-003
      -1.17055075e-002 -2.25742757e-002 -2.88901217e-002
      -2.15405896e-002 -7.06442026e-003 3.62728303e-003 2.26138439e-002
      2.84397565e-002 -5.05671743e-003 -1.16577866e-002 -1.81337409e-002
      -2.46905889e-002 -1.92019865e-002 -1.33609492e-002
      -9.49223898e-003 1.90694910e-002 2.62675323e-002 1.87697285e-003
      -1.06021883e-002 -9.41663422e-003 -1.58620533e-002
      -1.69955473e-002 -1.84192583e-002 -1.48508139e-002 2.02207230e-002
      2.65281089e-002 -8.82330164e-003 -1.81074254e-002 -2.28051543e-002
      -2.03504805e-002 -2.05284841e-002 -1.24211106e-002
      -1.92740277e-004 2.22917814e-002 1.77719910e-002 -5.26432833e-003
      -1.75383873e-002 -1.11139929e-002 -1.29994201e-002
