<?xml version="1.0"?>
<opencv_storage>
<my_svm type_id="opencv-ml-svm">
  <svm_type>C_SVC</svm_type>
  <kernel><type>LINEAR</type></kernel>
  <C>1.</C>
  <term_criteria><epsilon>2.2204460492503131e-016</epsilon>
    <iterations>100</iterations></term_criteria>
  <var_all>135</var_all>
  <var_count>135</var_count>
  <class_count>10</class_count>
  <class_labels type_id="opencv-matrix">
    <rows>1</rows>
    <cols>10</cols>
    <dt>i</dt>
    <data>
      0 1 2 3 4 5 6 7 8 9</data></class_labels>
  <sv_total>45</sv_total>
  <support_vectors>
    <_>
      0. 0. -6.25154134e-005 -1.27843596e-004 -1.27843596e-004
      4.96107241e-005 0. 0. 0. -6.25154134e-005 -1.77454320e-004
      -1.30497443e-004 6.49190551e-005 1.53083292e-005 1.82511809e-004
      4.96107241e-005 0. 0. -1.80108167e-004 -1.30497443e-004
      -5.18517627e-005 -4.96107241e-005 -4.96107241e-005 1.87136102e-004
      2.45027215e-004 4.96107241e-005 0. -1.19424665e-004
      1.77454320e-004 -6.75729025e-005 -1.82511809e-004 -2.45027215e-004
      -8.28040720e-006 5.18517627e-005 2.96878978e-004 0.
      -6.71600937e-005 1.80108167e-004 -6.49190551e-005 -1.19424665e-004
      -2.96878978e-004 -2.65384961e-006 5.18517627e-005 2.96878978e-004
      4.96107241e-005 2.04764205e-004 1.93577274e-004 0.
      -1.19993732e-004 -2.96878978e-004 -1.19424665e-004 0.
      1.43966550e-004 2.96878978e-004 2.96878978e-004 1.01462487e-004 0.
      -6.19463462e-005 -2.96878978e-004 -1.19993732e-004 0.
      2.04764205e-004 2.96878978e-004 2.96878978e-004 1.43966550e-004 0.
      -1.16770818e-004 -2.96878978e-004 -6.01321699e-005 0.
      1.93577274e-004 2.96878978e-004 2.96878978e-004 2.04764205e-004 0.
      -1.16770818e-004 -2.96878978e-004 -1.19424665e-004 0.
      2.96878978e-004 2.96878978e-004 2.04764205e-004 1.43966550e-004 0.
      -1.19424665e-004 -2.96878978e-004 -5.92924953e-005 0. 0. 0. 0. 0.
      0. 0. 0. 0. 0. 0. 0. 0. 0. 0. 0. 0. 0. 0. 0. 0. 0. 0. 0. 0. 0. 0.
      0. 0. 0. 0. 0. 0. 0. 0. 0. 0. 0. 0. 0. 0. 0. 0. 0. 0. 0. 0. 0.</_>
    <_>
      0. -3.34611832e-005 -7.16544091e-005 6.38097627e-005
      6.38097627e-005 6.38097627e-005 -7.16544091e-005 0. 0.
      -3.34611832e-005 -7.16544091e-005 -1.51289496e-004 1.21368445e-004
      -1.40957281e-005 1.59561663e-004 -1.51289496e-004 -3.81932259e-005
      0. -7.16544091e-005 -2.51287594e-004 2.13703388e-005
      -6.38097627e-005 -6.38097627e-005 -6.38097627e-005 2.03008414e-004
      -1.51289496e-004 -7.16544091e-005 -1.71652515e-004 2.86753668e-004
      -1.21368445e-004 -1.21368445e-004 -1.21368445e-004
      -1.21368445e-004 -1.21368445e-004 2.15099251e-004 -2.86753668e-004
      -3.61883431e-005 4.58406168e-004 5.02840703e-005 0. 0. 0.
      5.02840703e-005 3.81932259e-005 -3.22942011e-004 3.17536236e-004
      3.26618174e-004 0. 0. 0. 0. 0. -5.21529037e-005 3.81932259e-005
      4.58406168e-004 1.85748242e-004 0. 0. 0. 0. -7.16544091e-005
      -1.40869946e-004 2.86753668e-004 4.58406168e-004 1.91154017e-004
      0. 0. 0. -7.16544091e-005 -4.58406168e-004 1.54965674e-004
      4.58406168e-004 4.58406168e-004 3.17536236e-004 0. 0.
      -2.05113698e-004 -4.58406168e-004 -1.71652515e-004 4.58406168e-004
      4.58406168e-004 3.17536236e-004 1.91154017e-004 0.
      -2.05113698e-004 -4.58406168e-004 -1.71652515e-004 0. 0. 0. 0. 0.
      0. 0. 0. 0. 0. 0. 0. 0. 0. 0. 0. 0. 0. 0. 0. 0. 0. 0. 0. 0. 0. 0.
      0. 0. 0. 0. 0. 0. 0. 0. 0. 0. 0. 0. 0. 0. 0. 0. 0. 0. 0. 0. 0.</_>
    <_>
      0. -1.37690658e-004 -5.20600915e-005 5.16488717e-006
      5.16488717e-006 5.16488717e-006 -1.37690658e-004 0. 0.
      -1.37690658e-004 -2.31433558e-004 -8.85780028e-005 9.61245751e-005
      6.12859585e-005 9.61245751e-005 -2.35776770e-005 -1.37690658e-004
      0. -2.31433558e-004 -9.83658683e-005 6.39503560e-005
      -5.16488717e-006 -5.16488717e-006 -5.16488717e-006
      -5.13539453e-005 -5.98354418e-005 -1.37690658e-004
      -2.41221409e-004 2.31433558e-004 -1.04940073e-005 -9.61245751e-005
      -9.61245751e-005 -9.61245751e-005 -8.18505432e-005
      -1.35525272e-020 -3.78912082e-004 -4.62297612e-006 3.78912082e-004
      5.13539453e-005 0. 0. 0. -2.15854670e-005 -1.35525272e-020
      -2.36056527e-004 2.59617722e-004 3.13503842e-004 0. 0. 0. 0.
      -1.37690658e-004 -1.00246856e-004 1.37690658e-004 3.78912082e-004
      5.65188348e-005 -1.37690658e-004 -1.37690658e-004 -1.37690658e-004
      -1.37690658e-004 -2.41221409e-004 1.83963111e-005 3.78912082e-004
      3.78912082e-004 -1.00246856e-004 -3.78912082e-004 -3.78912082e-004
      -3.78912082e-004 -2.85169168e-004 -1.37690658e-004 1.75813184e-004
      3.78912082e-004 3.78912082e-004 1.83963111e-005 -2.41221409e-004
      -2.41221409e-004 -2.41221409e-004 -2.41221409e-004
      -3.78912082e-004 2.87425628e-005 2.41221409e-004 2.59617722e-004
      2.78665219e-004 0. 0. 0. 0. 0. 0. 0. 0. 0. 0. 0. 0. 0. 0. 0. 0. 0.
      0. 0. 0. 0. 0. 0. 0. 0. 0. 0. 0. 0. 0. 0. 0. 0. 0. 0. 0. 0. 0. 0.
      0. 0. 0. 0. 0. 0. 0. 0. 0. 0. 0. 0. 0.</_>
    <_>
      0. 0. 0. 2.29320176e-005 2.29320176e-005 2.29320176e-005
      -1.82287607e-004 0. 0. 0. 0. 2.29320176e-005 1.57185088e-004
      1.57185088e-004 -3.91002359e-005 -1.73353299e-004 0. 0. 0.
      2.29320176e-005 1.34253060e-004 2.47980875e-004 6.56932680e-005
      -2.29320176e-005 -1.13727809e-004 1.16574720e-005 0. 0.
      2.70912889e-004 1.13727809e-004 -6.85597915e-005 -1.57185088e-004
      2.51025231e-005 -1.34253060e-004 1.08395019e-004 0.
      2.29320176e-005 2.70912889e-004 1.13727809e-004 -1.96285313e-004
      -2.56915169e-004 -7.46275764e-005 -1.57185088e-004 2.70912889e-004
      2.29320176e-005 2.27682016e-004 1.79890718e-004 -1.97697282e-005
      -2.70912889e-004 -7.46275764e-005 -7.46275764e-005
      -2.70912889e-004 1.79890718e-004 2.70912889e-004 2.70912889e-004
      1.28164655e-004 -2.70912889e-004 -7.46275764e-005 0.
      -8.16264437e-005 -2.70912889e-004 2.16407469e-004 2.70912889e-004
      2.70912889e-004 -1.63946097e-005 -8.86252892e-005 -7.46275764e-005
      0. -7.46275764e-005 -2.70912889e-004 1.79890718e-004
      2.70912889e-004 2.70912889e-004 -4.32308807e-005 -9.98998366e-005
      0. 0. -8.16264219e-005 -2.70912889e-004 8.86252892e-005
      2.70912889e-004 3.13966957e-005 -9.10221861e-005 -2.70912889e-004
      -1.96285313e-004 -1.96285313e-004 -2.70912889e-004 0. 0. 0. 0. 0.
      0. 0. 0. 0. 0. 0. 0. 0. 0. 0. 0. 0. 0. 0. 0. 0. 0. 0. 0. 0. 0. 0.
      0. 0. 0. 0. 0. 0. 0. 0. 0. 0. 0. 0. 0. 0. 0. 0. 0. 0. 0. 0. 0.</_>
    <_>
      -1.59896808e-004 -1.59896808e-004 -1.48104256e-004 4.82998112e-005
      4.82998112e-005 4.82998112e-005 -1.59896808e-004 -1.59896808e-004
      -1.59896808e-004 -2.24770134e-004 -2.24770134e-004
      -1.65735091e-005 1.13739363e-004 -8.26647083e-005 1.13739363e-004
      -1.65735091e-005 -2.24770134e-004 -2.24770134e-004
      -4.65870660e-004 -2.57674023e-004 3.25356486e-005 -4.82998112e-005
      -4.82998112e-005 -4.82998112e-005 3.25356486e-005 -9.77772215e-005
      -3.05973837e-004 -4.65870660e-004 1.08420217e-019 -1.01946811e-004
      -1.13739363e-004 -1.13739363e-004 -1.13739363e-004
      -1.01946811e-004 2.24770134e-004 -2.41100526e-004 -2.57674023e-004
      1.08420217e-019 1.27361156e-004 0. 0. 0. 1.27361156e-004
      4.65870660e-004 2.08196623e-004 -4.28517778e-005 -2.25877720e-005
      -1.59896808e-004 -1.59896808e-004 -1.59896808e-004 0. 0.
      2.46878801e-004 4.65870660e-004 1.08420217e-019 -1.30312867e-004
      -2.24770134e-004 -2.24770134e-004 -2.24770134e-004
      -1.59896808e-004 -1.59896808e-004 1.98248745e-004 4.65870660e-004
      1.59896808e-004 -5.90950331e-005 -3.05973837e-004 -3.05973837e-004
      -3.05973837e-004 -1.59896808e-004 -2.24770134e-004 2.18512752e-004
      4.65870660e-004 2.24770134e-004 1.17045034e-004 -2.41100526e-004
      -2.41100526e-004 -2.41100526e-004 -2.41100526e-004
      -3.05973837e-004 1.08420217e-019 2.41100526e-004 3.58145568e-004
      2.46878801e-004 0. 0. 0. 0. 0. 0. 0. 0. 0. 0. 0. 0. 0. 0. 0. 0. 0.
      0. 0. 0. 0. 0. 0. 0. 0. 0. 0. 0. 0. 0. 0. 0. 0. 0. 0. 0. 0. 0. 0.
      0. 0. 0. 0. 0. 0. 0. 0. 0. 0. 0. 0. 0.</_>
    <_>
      0. 0. 0. -1.61749153e-006 -1.61749153e-006 -1.61749153e-006
      -3.22310807e-004 0. 0. 0. 0. -1.61749153e-006 3.78249169e-005
      -1.16042233e-004 3.78249169e-005 -2.03385309e-004 -3.22310807e-004
      0. 0. -1.61749153e-006 3.78249169e-005 1.61749153e-006
      1.61749153e-006 1.61749153e-006 2.06936384e-004 -2.03385309e-004
      0. 0. 2.92311888e-004 -2.98077939e-004 -3.78249169e-005
      -3.78249169e-005 -3.78249169e-005 8.40308712e-005 3.22310807e-004
      0. -1.61749153e-006 1.80340998e-004 -3.78249169e-005 0. 0. 0.
      2.54486949e-004 5.24078612e-004 3.20693332e-004 1.83521435e-004
      -1.32419780e-004 -2.92311888e-004 -1.41969809e-004
      -3.22310807e-004 -3.22310807e-004 -3.22310807e-004 5.30103571e-004
      8.16390500e-004 -2.71050543e-020 -3.94424096e-005 -3.22310807e-004
      -5.24078612e-004 -5.24078612e-004 -5.24078612e-004
      -5.24078612e-004 3.85289255e-004 8.16390500e-004 -2.71050543e-020
      -1.02204016e-004 -3.43737629e-004 -4.94079723e-004
      -4.94079723e-004 -2.92311888e-004 -4.94079723e-004 1.59892094e-004
      4.94079723e-004 -2.71050543e-020 -1.08790446e-004 -2.92311888e-004
      -2.92311888e-004 -2.92311888e-004 -2.92311888e-004
      -2.92311888e-004 -2.71050543e-020 2.92311888e-004 -1.08790446e-004
      -1.02204016e-004 -2.92311888e-004 0. 0. 0. 0. 0. 0. 0. 0. 0. 0. 0.
      0. 0. 0. 0. 0. 0. 0. 0. 0. 0. 0. 0. 0. 0. 0. 0. 0. 0. 0. 0. 0. 0.
      0. 0. 0. 0. 0. 0. 0. 0. 0. 0. 0. 0. 0. 0. 0. 0. 0. 0.</_>
    <_>
      -1.00639685e-004 -1.00639685e-004 -8.32497753e-005
      -1.63019376e-005 -1.63019376e-005 -1.63019376e-005
      -1.00639685e-004 -1.00639685e-004 -1.00639685e-004
      -1.38102725e-004 -1.38102725e-004 -5.11838998e-008 1.23959631e-004
      5.70117918e-005 1.23959631e-004 -5.37649867e-005 -1.38102725e-004
      -1.38102725e-004 -2.43026647e-004 -1.58688897e-004 1.90357168e-005
      1.63019376e-005 1.63019376e-005 1.63019376e-005 1.90357168e-005
      -2.59328575e-004 -3.43666325e-004 -2.05563600e-004 1.38102725e-004
      -1.06569729e-004 -1.23959631e-004 -1.23959631e-004
      -1.23959631e-004 -2.07209407e-004 5.42101086e-020 -2.43026647e-004
      8.43377493e-005 3.43666325e-004 8.16039683e-005 0. 0. 0.
      -5.64987640e-005 1.00639685e-004 -1.21225850e-004 2.60798523e-004
      2.48809520e-004 0. 0. 0. -1.00639685e-004 -1.38102725e-004
      -2.37019176e-005 3.43666325e-004 3.43666325e-004 1.65941718e-004
      0. 0. 0. -1.38102725e-004 -2.43026647e-004 5.52349229e-005
      3.43666325e-004 3.43666325e-004 1.81861687e-004 0. 0.
      -1.38102725e-004 -3.43666325e-004 0. 2.48809520e-004
      3.43666325e-004 3.43666325e-004 2.60798523e-004 0. 0.
      -1.38102725e-004 -2.43026647e-004 0. 3.43666325e-004
      3.43666325e-004 2.60798523e-004 1.81861687e-004 0.
      -1.38102725e-004 -3.43666325e-004 -2.05563600e-004 0. 0. 0. 0. 0.
      0. 0. 0. 0. 0. 0. 0. 0. 0. 0. 0. 0. 0. 0. 0. 0. 0. 0. 0. 0. 0. 0.
      0. 0. 0. 0. 0. 0. 0. 0. 0. 0. 0. 0. 0. 0. 0. 0. 0. 0. 0. 0. 0.</_>
    <_>
      0. 0. 1.69407421e-008 -7.01866447e-005 -7.01866447e-005
      -5.10573846e-005 0. 0. 0. 0. 0. -7.01866447e-005 -5.42101086e-020
      -1.18501957e-005 -5.42101086e-020 -5.10573846e-005 0. 0. 0.
      -7.01866447e-005 -1.99487913e-005 7.01866447e-005 7.01866447e-005
      5.10573846e-005 -5.42101086e-020 -5.10573846e-005 0. 0.
      -5.42101086e-020 1.99401056e-005 0. 0. -1.91292584e-005
      -1.36353425e-004 1.91292584e-005 0. 1.04396822e-004
      -5.42101086e-020 -2.62428541e-004 0. 0. -1.91292584e-005
      -7.17869916e-005 1.91292584e-005 1.04396822e-004 2.60038243e-004
      1.89420443e-005 -3.84354265e-004 0. 0. -1.91292584e-005
      -2.08111946e-004 7.09184906e-006 4.37012000e-004 4.37012000e-004
      1.04396822e-004 -2.81557790e-004 -4.37012000e-004 -1.74583460e-004
      -2.08111946e-004 -2.62428541e-004 2.60038243e-004 4.37012000e-004
      4.37012000e-004 2.69520388e-004 -1.74583460e-004 -4.37012000e-004
      -4.37012000e-004 -4.37012000e-004 -1.55454210e-004 2.81370565e-004
      4.37012000e-004 4.37012000e-004 -1.76973757e-004 -2.62428541e-004
      0. -1.91292584e-005 -2.81557790e-004 -4.37012000e-004
      1.91292584e-005 4.37012000e-004 8.54547761e-005 -1.48362364e-004
      -5.26577314e-005 0. 0. -1.91292584e-005 0. 0. 0. 0. 0. 0. 0. 0. 0.
      0. 0. 0. 0. 0. 0. 0. 0. 0. 0. 0. 0. 0. 0. 0. 0. 0. 0. 0. 0. 0. 0.
      0. 0. 0. 0. 0. 0. 0. 0. 0. 0. 0. 0. 0. 0. 0. 0. 0.</_>
    <_>
      0. 0. 0. 4.10344728e-005 4.10344728e-005 4.10344728e-005 0. 0. 0.
      0. -3.27497255e-004 4.10344728e-005 2.75035243e-004
      -1.10874673e-004 -1.05733452e-005 4.10344728e-005 0. 0. 0.
      -1.04467588e-004 4.06842482e-005 -4.10344728e-005 8.66532573e-005
      -4.10344728e-005 2.48146476e-004 4.10344728e-005 0.
      -3.27497255e-004 2.85608607e-004 -3.88827502e-005 1.05733452e-005
      1.05733452e-005 1.05733452e-005 -2.21084338e-004 5.42101086e-020
      0. -3.21210653e-004 2.85608607e-004 1.38261079e-004 0. 0. 0.
      1.05733452e-005 5.42101086e-020 -1.04467588e-004 -8.57395280e-005
      -8.15471049e-006 0. 0. 0. 0. 0. -1.08456035e-004 5.42101086e-020
      2.85608607e-004 1.91714353e-004 0. 0. 0. 0. 0. -8.57395280e-005
      5.42101086e-020 5.42101086e-020 -1.08456035e-004 -2.76446051e-004
      0. 0. 0. -4.04133782e-004 -8.15471049e-006 2.85608607e-004
      6.89742388e-004 -8.57395280e-005 -4.04133782e-004 -6.89742388e-004
      -6.89742388e-004 -6.89742388e-004 -4.04133782e-004 5.42101086e-020
      5.42101086e-020 6.04002853e-004 5.81286324e-004 -6.89742388e-004
      -4.04133782e-004 -6.89742388e-004 -3.62245133e-004 0. 0. 0. 0. 0.
      0. 0. 0. 0. 0. 0. 0. 0. 0. 0. 0. 0. 0. 0. 0. 0. 0. 0. 0. 0. 0. 0.
      0. 0. 0. 0. 0. 0. 0. 0. 0. 0. 0. 0. 0. 0. 0. 0. 0. 0. 0. 0. 0.</_>
    <_>
      0. 0. -4.16862204e-005 1.69961510e-004 1.69961510e-004
      -8.43334055e-005 -1.44980644e-004 0. 0. 1.03294435e-004
      1.69961510e-004 7.39808602e-005 7.39808602e-005 7.39808602e-005
      -8.81314700e-005 -3.36406549e-004 -1.44980644e-004 0.
      2.65406765e-004 1.00912703e-005 1.44980644e-004 1.44980644e-004
      1.44980644e-004 -1.92731022e-004 -2.08870246e-004 -3.36406549e-004
      -1.44980644e-004 2.14643933e-005 2.14643933e-005 2.14643933e-005
      2.33112121e-004 3.36406549e-004 3.44042819e-005 -2.08870246e-004
      -3.53850890e-004 -3.36406549e-004 -7.39808602e-005 1.34889386e-004
      1.34889386e-004 2.55272491e-004 5.45276795e-004 1.20383098e-004 0.
      -4.00296150e-004 -5.45276795e-004 0. 0. 0. 1.29829205e-004
      5.45276795e-004 2.30334626e-004 0. -3.53850890e-004
      -4.00296150e-004 0. 0. 0. 2.03799864e-004 5.45276795e-004
      1.29829205e-004 -1.44980644e-004 -5.45276795e-004 -2.08870246e-004
      0. 0. 0. 2.31246027e-004 5.45276795e-004 1.93721849e-006
      -5.45276795e-004 -2.08870246e-004 0. 0. 0. 0. 1.34889386e-004
      3.36406549e-004 -2.54294922e-004 -2.08870246e-004 0. 0. 0. 0. 0.
      4.64022378e-005 -5.42101086e-020 -1.00515630e-004 0. 0. 0. 0. 0.
      0. 0. 0. 0. 0. 0. 0. 0. 0. 0. 0. 0. 0. 0. 0. 0. 0. 0. 0. 0. 0. 0.
      0. 0. 0. 0. 0. 0. 0. 0. 0. 0. 0. 0. 0. 0. 0. 0. 0. 0. 0. 0. 0.</_>
    <_>
      0. -1.27008549e-004 -1.06146967e-006 7.05282146e-005
      7.05282146e-005 -5.64257825e-005 -1.27008549e-004 0. 0.
      -1.06146967e-006 -2.66508705e-005 6.58406570e-005 6.58406570e-005
      6.58406570e-005 -9.82405545e-005 -2.24187635e-004 -1.27008549e-004
      0. 6.58406570e-005 1.72200616e-005 1.27008549e-004 1.27008549e-004
      1.27008549e-004 -9.06357454e-005 -2.62937479e-004 -1.27008549e-004
      -1.27008549e-004 -7.05282146e-005 2.66508705e-005 2.66508705e-005
      1.00041783e-004 2.24187635e-004 9.72336347e-005 -2.72808218e-004
      -3.99816781e-004 -3.99816781e-004 -6.58406570e-005 1.09788481e-004
      1.09788481e-004 1.82172473e-004 3.99816781e-004 7.23839912e-005 0.
      -3.99816781e-004 -3.99816781e-004 0. 0. 0. 1.63351564e-004
      3.99816781e-004 2.48608616e-004 -1.27008549e-004 -3.99816781e-004
      -2.72808218e-004 0. -1.27008549e-004 -1.27008549e-004
      -6.66039341e-006 2.72808218e-004 3.63430227e-005 -2.72808218e-004
      -2.72808218e-004 0. 0. -3.99816781e-004 -3.99816781e-004
      -1.25152772e-004 2.71050543e-020 -1.91047977e-004 -2.63887865e-004
      -4.19963035e-005 0. 0. -2.72808218e-004 -2.72808218e-004
      -1.16691146e-004 1.27008549e-004 -8.31564685e-005 -3.99816781e-004
      -3.02637694e-004 -4.19963035e-005 0. 0. 0. 1.37645111e-004
      3.99816781e-004 7.23839912e-005 0. 0. 0. 0. 0. 0. 0. 0. 0. 0. 0.
      0. 0. 0. 0. 0. 0. 0. 0. 0. 0. 0. 0. 0. 0. 0. 0. 0. 0. 0. 0. 0. 0.
      0. 0. 0. 0. 0. 0. 0. 0. 0. 0. 0. 0. 0. 0. 0.</_>
    <_>
      0. 0. 9.21355822e-005 1.56000679e-004 1.56000679e-004
      3.03807919e-005 -1.37901588e-004 0. 0. 9.21355822e-005
      1.56000679e-004 1.56000679e-004 1.56000679e-004 1.27790467e-004
      -7.39762254e-005 -1.66111800e-004 0. 0. 1.56000679e-004
      1.56000679e-004 3.46162647e-004 3.46162647e-004 1.80050833e-004
      -1.25619888e-004 -3.46162647e-004 -6.18027995e-020 0.
      1.90161954e-004 1.90161954e-004 1.90161954e-004 8.79152576e-005
      -8.52149059e-020 1.22816973e-005 -3.46162647e-004 -1.04727269e-019
      0. 1.90161954e-004 1.90161954e-004 1.90161954e-004 5.44309478e-005
      -8.52149059e-020 1.22816973e-005 -3.46162647e-004 0. 0. 0. 0.
      -6.18027995e-020 -9.42458937e-005 1.37901588e-004 -1.80990955e-005
      -3.46162647e-004 0. 0. 0. 0. -3.46162647e-004 1.22816973e-005
      3.46162647e-004 7.18659139e-005 -3.46162647e-004 0. 0. 0.
      -1.66111800e-004 -2.08261059e-004 4.04919156e-005 3.46162647e-004
      -1.80990955e-005 -3.46162647e-004 0. 0. 0. -3.46162647e-004
      -2.08261059e-004 1.90161954e-004 3.46162647e-004 1.22816973e-005
      -3.46162647e-004 -1.04727269e-019 0. -1.66111800e-004
      -3.46162647e-004 -3.46162647e-004 5.44309478e-005 1.80050833e-004
      -1.25619888e-004 0. 0. 0. 0. 0. 0. 0. 0. 0. 0. 0. 0. 0. 0. 0. 0.
      0. 0. 0. 0. 0. 0. 0. 0. 0. 0. 0. 0. 0. 0. 0. 0. 0. 0. 0. 0. 0. 0.
      0. 0. 0. 0. 0. 0. 0. 0. 0. 0.</_>
    <_>
      -1.73405366e-004 -1.73405366e-004 -1.82283693e-005
      -1.42219405e-005 -1.42219405e-005 -1.57373113e-004
      -1.73405366e-004 -1.73405366e-004 -1.73405366e-004
      -5.39102330e-005 -4.99038033e-005 6.02525761e-005 6.02525761e-005
      6.02525761e-005 -5.39102330e-005 -2.09087229e-004 -2.09087229e-004
      -2.09087229e-004 -1.74209432e-004 -1.74209432e-004 1.73405366e-004
      1.73405366e-004 1.73405366e-004 -1.29862514e-004 -2.70143879e-004
      -2.70143879e-004 -2.70143879e-004 -1.59183430e-004
      -1.59183430e-004 4.99038033e-005 5.39102330e-005 2.09087229e-004
      1.59757237e-005 -2.34462015e-004 -2.34462015e-004 -2.34462015e-004
      -2.69339798e-004 -2.69339798e-004 8.04069998e-007 1.90241684e-004
      4.43549245e-004 1.60322543e-005 0. 0. 0. -4.07867366e-004
      -4.43549245e-004 -1.73405366e-004 8.99884762e-005 2.70143879e-004
      1.26992702e-004 0. 0. 0. -4.43549245e-004 -4.43549245e-004
      -2.09087229e-004 -4.89705089e-005 2.34462015e-004 8.99884762e-005
      -1.73405366e-004 -1.73405366e-004 0. -2.70143879e-004
      -2.70143879e-004 -2.70143879e-004 3.02541957e-005 -8.13151629e-020
      -4.91562641e-005 -2.09087229e-004 -2.09087229e-004 0.
      -2.34462015e-004 -2.34462015e-004 -2.34462015e-004
      -4.42203236e-005 2.09087229e-004 6.59360594e-005 -2.70143879e-004
      -4.43549245e-004 -2.09087229e-004 0. 0. 0. 1.74209432e-004
      4.43549245e-004 6.59925863e-005 0. 0. 0. 0. 0. 0. 0. 0. 0. 0. 0.
      0. 0. 0. 0. 0. 0. 0. 0. 0. 0. 0. 0. 0. 0. 0. 0. 0. 0. 0. 0. 0. 0.
      0. 0. 0. 0. 0. 0. 0. 0. 0. 0. 0. 0. 0. 0. 0.</_>
    <_>
      -1.17896911e-004 -1.17896911e-004 1.65495203e-005 1.31386932e-005
      1.31386932e-005 -1.74796631e-004 -1.82698088e-004 -1.17896911e-004
      -1.17896911e-004 1.65495203e-005 1.95836779e-004 7.93127183e-005
      1.30191811e-005 1.30191811e-005 -1.14545190e-004 -1.31094712e-004
      -1.82698088e-004 -1.17896911e-004 1.44113888e-004 7.93127183e-005
      3.17343598e-004 1.82698088e-004 1.82698088e-004 -1.02941187e-004
      -6.62935345e-005 -1.31094712e-004 0. 1.34704620e-004
      3.60990566e-006 -7.79398688e-005 1.14545190e-004 2.48991622e-004
      2.95263726e-005 -1.99446687e-004 -2.65740237e-004 0.
      1.21626326e-004 -1.97209636e-004 -1.30191811e-005 1.94328968e-004
      4.48438310e-004 3.98389602e-005 0. -1.99446687e-004 0.
      -2.48991622e-004 -4.48438310e-004 -3.17343598e-004 1.63545643e-004
      2.65740237e-004 1.87800353e-004 -6.48011774e-005 0. 0.
      -4.48438310e-004 -3.82144761e-004 -1.82698088e-004
      -1.11448710e-004 1.99446687e-004 3.24509238e-005 -2.48991622e-004
      -6.48011774e-005 0. -3.30541399e-004 -1.31094712e-004
      -6.62935345e-005 -5.23723384e-006 1.82698088e-004 -1.62446027e-004
      -3.83637147e-004 -2.48991622e-004 -6.48011774e-005
      -3.30541399e-004 -3.30541399e-004 -1.99446687e-004
      -1.30191811e-005 2.48991622e-004 6.10563002e-005 -3.17343598e-004
      -4.48438310e-004 -2.48991622e-004 -3.30541399e-004
      -1.31094712e-004 -1.99446687e-004 1.94328968e-004 4.48438310e-004
      7.13688860e-005 0. 0. 0. 0. 0. 0. 0. 0. 0. 0. 0. 0. 0. 0. 0. 0. 0.
      0. 0. 0. 0. 0. 0. 0. 0. 0. 0. 0. 0. 0. 0. 0. 0. 0. 0. 0. 0. 0. 0.
      0. 0. 0. 0. 0. 0. 0. 0. 0.</_>
    <_>
      -1.75787238e-004 -1.75787238e-004 2.50402591e-005 1.26765910e-004
      1.26765910e-004 -1.33829948e-004 -1.75787238e-004 -1.75787238e-004
      -1.75787238e-004 -9.37182704e-005 8.00737507e-006 1.50596097e-004
      1.50596097e-004 1.50596097e-004 -9.37182704e-005 -2.94545782e-004
      -2.94545782e-004 -2.94545782e-004 5.39495704e-005 5.39495704e-005
      1.75787238e-004 1.75787238e-004 1.75787238e-004 -7.41021795e-005
      -3.91192298e-004 -5.66979521e-004 -5.66979521e-004
      -8.00737507e-006 -8.00737507e-006 -8.00737507e-006 1.15145645e-004
      2.94545782e-004 2.85894530e-005 -4.48221021e-004 -5.66979521e-004
      -3.91192298e-004 1.21837671e-004 1.21837671e-004 1.21837671e-004
      3.01023218e-004 5.66979521e-004 1.95252447e-004 -2.94545782e-004
      -3.91192298e-004 -2.72433768e-004 0. 0. 0. 2.86068331e-004
      5.66979521e-004 1.10066518e-004 -2.94545782e-004 -2.72433768e-004
      0. 0. 0. 0. 1.95252447e-004 5.66979521e-004 -8.47743013e-006
      -3.91192298e-004 -2.72433768e-004 0. 0. 0. 0. 1.63794975e-004
      1.29235414e-004 -2.86486262e-004 -1.43198355e-004 0. 0. 0. 0. 0.
      1.43265046e-004 1.29235414e-004 -6.87417123e-005 0. 0. 0. 0. 0. 0.
      -1.15293537e-004 1.62630326e-019 -2.14409563e-004 0. 0. 0. 0. 0.
      0. 0. 0. 0. 0. 0. 0. 0. 0. 0. 0. 0. 0. 0. 0. 0. 0. 0. 0. 0. 0. 0.
      0. 0. 0. 0. 0. 0. 0. 0. 0. 0. 0. 0. 0. 0. 0. 0. 0. 0. 0. 0. 0.</_>
    <_>
      0. 0. -5.98831175e-005 -8.27534677e-005 -8.27534677e-005
      5.27321608e-005 0. 0. 0. 1.73774708e-004 2.03495350e-004
      2.54071401e-005 -4.31677763e-005 -4.31677763e-005 -1.81049036e-004
      -5.25909963e-005 0. 0. 3.11655953e-004 2.54071401e-005
      -4.06575815e-020 2.86248833e-004 2.86248833e-004 -1.30524000e-004
      -4.62729455e-004 -5.25909963e-005 0. 2.59234104e-004
      -2.03495350e-004 8.27534677e-005 2.04266835e-004 3.54823744e-004
      2.29937123e-005 -3.41563544e-004 -2.29071607e-004 0.
      1.51073473e-004 -3.11655953e-004 -2.54071401e-005 2.79614440e-004
      4.62729455e-004 4.59566145e-005 -4.10138455e-004 -2.29071607e-004
      0. 0. -1.76480622e-004 -3.94154515e-004 1.96307228e-004
      4.62729455e-004 7.11658213e-005 -2.29071607e-004 -1.76480622e-004
      0. 0. -1.07905704e-004 -4.10138455e-004 -9.73261340e-005
      1.76480622e-004 7.51413172e-005 -1.76480622e-004 0. 0. 0. 0.
      -3.94154515e-004 -7.49543906e-005 -4.06575815e-020
      -2.88438168e-004 -1.60496696e-004 0. 0. 0. -3.54823744e-004
      -1.76480622e-004 8.87573333e-005 1.21165911e-004 -2.23633924e-005
      -4.62729455e-004 -1.21165911e-004 0. -2.86248833e-004
      -2.29071607e-004 -1.76480622e-004 2.57242704e-004 4.62729455e-004
      -6.19490893e-005 0. 0. 0. 0. 0. 0. 0. 0. 0. 0. 0. 0. 0. 0. 0. 0.
      0. 0. 0. 0. 0. 0. 0. 0. 0. 0. 0. 0. 0. 0. 0. 0. 0. 0. 0. 0. 0. 0.
      0. 0. 0. 0. 0. 0. 0. 0. 0. 0.</_>
    <_>
      0. 0. 4.02952282e-005 -1.17224624e-006 -1.17224624e-006
      -1.09678658e-004 0. 0. 0. 4.02952282e-005 -1.17224624e-006
      -1.17224624e-006 1.43046433e-004 -1.17224624e-006 -1.03923456e-004
      -1.44218691e-004 0. 0. 1.43046433e-004 -1.17224624e-006
      1.44218691e-004 1.44218691e-004 1.44218691e-004 -5.71926576e-005
      0. -1.44218691e-004 0. 6.55927715e-006 1.17224624e-006
      1.17224624e-006 1.03923456e-004 1.44218691e-004 -5.71926576e-005
      -2.93824414e-004 -2.93824414e-004 0. -1.43046433e-004
      1.17224624e-006 1.17224624e-006 1.85317986e-004 2.93824414e-004
      3.45400294e-005 -1.49605723e-004 -2.93824414e-004 -1.44218691e-004
      -2.93824414e-004 -2.93824414e-004 0. 6.36282275e-005
      2.93824414e-004 1.85317986e-004 0. -2.93824414e-004
      -2.93824414e-004 -1.49605723e-004 -1.49605723e-004 0.
      9.29049347e-005 2.93824414e-004 6.36282275e-005 0.
      -2.93824414e-004 -2.93824414e-004 -2.93824414e-004
      -2.93824414e-004 -1.49605723e-004 1.85317986e-004 2.93824414e-004
      5.78730323e-005 -1.49605723e-004 -2.93824414e-004 -1.49605723e-004
      0. -2.93824414e-004 -1.49605723e-004 -1.08506407e-004
      2.71050543e-020 -1.08506407e-004 -1.49605723e-004 -2.93824414e-004
      -2.93824414e-004 0. 0. -2.93824414e-004 1.17224624e-006
      2.71050543e-020 -2.21607552e-005 0. 0. 0. 0. 0. 0. 0. 0. 0. 0. 0.
      0. 0. 0. 0. 0. 0. 0. 0. 0. 0. 0. 0. 0. 0. 0. 0. 0. 0. 0. 0. 0. 0.
      0. 0. 0. 0. 0. 0. 0. 0. 0. 0. 0. 0. 0. 0. 0.</_>
    <_>
      0. -1.60847223e-004 1.10859437e-005 1.10859437e-005
      1.10859437e-005 1.10859437e-005 1.10859437e-005 0. 0.
      -1.60847223e-004 -7.31506807e-005 1.54921217e-005 1.54921217e-005
      1.54921217e-005 -1.56441049e-004 1.54921217e-005 2.91569904e-007
      0. -7.31506807e-005 -1.10859437e-005 -1.10859437e-005
      -1.10859437e-005 -1.10859437e-005 -1.10859437e-005
      -2.64543360e-005 3.30821931e-004 1.10859437e-005 -9.97287498e-005
      -1.54921217e-005 -1.54921217e-005 -1.54921217e-005
      -1.54921217e-005 -1.54921217e-005 -9.97287498e-005
      -8.86428024e-005 -2.18629517e-004 -1.54921217e-005 0. 0. 0. 0. 0.
      0. -1.71933163e-004 0. 0. 0. 0. 0. 0. 0. -2.63489404e-004
      -8.86428024e-005 9.15562268e-005 0. -2.63489404e-004
      -2.63489404e-004 -2.63489404e-004 -2.63489404e-004
      -2.63489404e-004 -4.37829221e-005 2.63489404e-004 2.18629517e-004
      0. -8.42865207e-004 -8.42865207e-004 -8.42865207e-004
      -8.42865207e-004 8.05750005e-006 3.45254201e-004 1.45758706e-004
      0. 0. -5.79375832e-004 -5.79375832e-004 -5.79375832e-004
      2.91342303e-006 7.28708037e-005 -6.24235719e-004 -5.27535449e-004
      -7.28708037e-005 0. 0. 0. 5.82289242e-004 8.42865207e-004
      1.88705118e-004 0. 0. 0. 0. 0. 0. 0. 0. 0. 0. 0. 0. 0. 0. 0. 0. 0.
      0. 0. 0. 0. 0. 0. 0. 0. 0. 0. 0. 0. 0. 0. 0. 0. 0. 0. 0. 0. 0. 0.
      0. 0. 0. 0. 0. 0. 0. 0. 0.</_>
    <_>
      0. 0. 1.11232184e-004 1.11232184e-004 1.11232184e-004
      1.11232184e-004 -6.43634485e-005 0. 0. 0. 1.11232184e-004
      1.88219739e-004 1.88219739e-004 1.88219739e-004 -1.73029024e-004
      -6.17968399e-005 1.11232184e-004 0. 1.11232184e-004
      2.49657605e-004 2.49657605e-004 2.49657605e-004 7.40619580e-005
      -1.11232184e-004 -1.88219739e-004 1.18535499e-004 1.11232184e-004
      1.72670028e-004 1.72670028e-004 1.72670028e-004 -2.92559912e-006
      -1.88219739e-004 -1.26241112e-005 -1.88219739e-004 1.77990834e-004
      1.88219739e-004 1.72670028e-004 0. 0. -2.50016572e-004
      -2.86468829e-004 -1.10873196e-004 -3.60889768e-004 2.49657605e-004
      3.60889768e-004 0. 0. -6.96842399e-005 -3.60889768e-004
      -1.10873196e-004 -1.10873196e-004 -3.60889768e-004 2.83902220e-004
      2.49657605e-004 0. 0. -3.60889768e-004 -1.10873196e-004 0.
      -1.10873196e-004 -2.49657605e-004 3.37661593e-004 1.72670028e-004
      0. -2.50016572e-004 -1.85294150e-004 -1.10873196e-004 0.
      3.58990519e-007 -4.40457133e-020 1.72670028e-004 0. 0.
      -3.60889768e-004 -2.08522324e-004 0. 1.72670028e-004
      1.75595633e-004 -1.88219739e-004 -1.29139575e-004 0.
      -2.50016572e-004 -3.60889768e-004 -3.60889768e-004
      -7.73465508e-005 1.10873196e-004 -1.88219739e-004 0. 0. 0. 0. 0.
      0. 0. 0. 0. 0. 0. 0. 0. 0. 0. 0. 0. 0. 0. 0. 0. 0. 0. 0. 0. 0. 0.
      0. 0. 0. 0. 0. 0. 0. 0. 0. 0. 0. 0. 0. 0. 0. 0. 0. 0. 0. 0. 0.</_>
    <_>
      -1.76468806e-004 -1.76468806e-004 4.54934434e-006 4.54934434e-006
      4.54934434e-006 4.54934434e-006 4.54934434e-006 -1.76468806e-004
      -1.76468806e-004 -2.09765043e-004 -2.87468865e-005 3.40685910e-005
      3.40685910e-005 3.40685910e-005 -1.46949562e-004 3.40685910e-005
      -2.87468865e-005 -2.09765043e-004 -2.52529484e-004
      -1.81018157e-004 -4.54934434e-006 -4.54934434e-006
      -4.54934434e-006 -4.54934434e-006 -6.73648174e-005
      -1.32451942e-005 -7.60606708e-005 -2.43833638e-004
      -2.43833638e-004 -3.40685910e-005 -3.40685910e-005
      -3.40685910e-005 -3.40685910e-005 -3.40685910e-005 1.46949562e-004
      2.00510367e-005 -2.43833638e-004 -4.33547626e-004 0. 0. 0. 0. 0.
      2.52529484e-004 4.33547626e-004 -4.00251418e-004 -4.33547626e-004
      -1.76468806e-004 -1.76468806e-004 -1.76468806e-004 0. 0.
      3.70732159e-004 2.52529484e-004 -4.33547626e-004 -4.33547626e-004
      -2.09765043e-004 -2.09765043e-004 -2.09765043e-004
      -1.76468806e-004 4.54934434e-006 2.57078820e-004 1.89714003e-004
      -2.57078820e-004 -2.57078820e-004 -2.57078820e-004
      -2.57078820e-004 -2.57078820e-004 -9.96574351e-013 2.23782597e-004
      -2.00510367e-005 0. -2.23782597e-004 -2.23782597e-004
      -2.23782597e-004 -2.23782597e-004 -3.40685910e-005 2.09765043e-004
      -6.73648174e-005 -4.33547626e-004 -2.09765043e-004 0. 0. 0.
      1.89714003e-004 4.33547626e-004 1.89714003e-004 0. 0. 0. 0. 0. 0.
      0. 0. 0. 0. 0. 0. 0. 0. 0. 0. 0. 0. 0. 0. 0. 0. 0. 0. 0. 0. 0. 0.
      0. 0. 0. 0. 0. 0. 0. 0. 0. 0. 0. 0. 0. 0. 0. 0. 0. 0. 0. 0.</_>
    <_>
      -1.01642188e-004 -1.01642188e-004 6.51800074e-005 -2.66004390e-005
      -2.66004390e-005 -2.66004390e-005 -2.66004390e-005
      -1.01642188e-004 -1.01642188e-004 -1.01642188e-004 1.66822196e-004
      8.83269022e-005 2.67293017e-005 2.67293017e-005 -1.40092903e-004
      1.28371496e-004 -2.66004390e-005 -1.01642188e-004 6.51800074e-005
      8.83995672e-005 1.28444153e-004 2.66004390e-005 2.66004390e-005
      2.66004390e-005 1.05297251e-004 1.28371496e-004 1.66822196e-004
      6.52526651e-005 -8.81253873e-005 -1.80107352e-004 -2.67293017e-005
      -2.67293017e-005 -2.67293017e-005 -2.67293017e-005 7.84952936e-005
      2.81749555e-004 7.51144107e-005 -3.56863951e-004 -1.93624161e-004
      0. 0. 0. 0. 8.81980450e-005 4.48644394e-004 -2.55020248e-004
      -4.48644394e-004 -2.95266334e-004 -1.01642188e-004
      -1.93422631e-004 -9.17804500e-005 -9.17804500e-005 3.33717064e-004
      2.81822198e-004 -4.48644394e-004 -3.87046806e-004 -1.93422631e-004
      -2.55020248e-004 -2.55020248e-004 -2.55020248e-004
      -8.81980450e-005 3.56863951e-004 1.66894853e-004 -3.47002206e-004
      -1.53378045e-004 -6.15976023e-005 -2.55221763e-004
      -2.55221763e-004 -1.28444153e-004 9.17804500e-005 -8.81253873e-005
      -9.17804500e-005 -3.47002206e-004 -3.47002206e-004
      -1.93624161e-004 -1.93624161e-004 -2.67293017e-005 2.55020248e-004
      -1.28371496e-004 -4.48644394e-004 -2.55020248e-004
      -3.47002206e-004 -1.53378045e-004 -1.93624161e-004 1.66894853e-004
      4.48644394e-004 1.66894853e-004 0. 0. 0. 0. 0. 0. 0. 0. 0. 0. 0.
      0. 0. 0. 0. 0. 0. 0. 0. 0. 0. 0. 0. 0. 0. 0. 0. 0. 0. 0. 0. 0. 0.
      0. 0. 0. 0. 0. 0. 0. 0. 0. 0. 0. 0. 0. 0. 0.</_>
    <_>
      -4.32622386e-004 -4.32622386e-004 1.91480314e-004 1.91480314e-004
      1.91480314e-004 1.91480314e-004 1.91480314e-004 -4.32622386e-004
      -4.32622386e-004 -5.97650127e-004 4.57581220e-004 4.57581220e-004
      4.57581220e-004 4.57581220e-004 -1.66521480e-004 4.57581220e-004
      2.64525370e-005 -5.97650127e-004 -2.52348575e-004 -1.91480314e-004
      -1.91480314e-004 -1.91480314e-004 -1.91480314e-004
      -1.91480314e-004 -1.91480314e-004 -6.84970990e-004
      -1.11609965e-003 -2.64525370e-005 -4.57581220e-004
      -4.57581220e-004 -4.57581220e-004 -4.57581220e-004
      -4.57581220e-004 -4.59074916e-004 -2.71050543e-019
      -2.52348575e-004 6.84970990e-004 0. 0. 0. 0. 0. -5.97650127e-004
      -1.91480314e-004 5.97650127e-004 0. 0. 0. 0. 0. -4.32622386e-004
      -5.97650127e-004 5.97650127e-004 1.11609965e-003 0. 0. 0. 0. 0.
      -5.97650127e-004 -2.52348575e-004 5.97650127e-004 6.84970990e-004
      0. 0. 0. 0. -7.44066550e-004 -6.84970990e-004 5.97650127e-004
      6.84970990e-004 0. 0. 0. 0. 0. 3.72033071e-004 4.32622386e-004
      6.84970990e-004 0. 0. 0. 0. 0. 3.72033071e-004 -2.71050543e-019
      -4.57581220e-004 0. 0. 0. 0. 0. 0. 0. 0. 0. 0. 0. 0. 0. 0. 0. 0.
      0. 0. 0. 0. 0. 0. 0. 0. 0. 0. 0. 0. 0. 0. 0. 0. 0. 0. 0. 0. 0. 0.
      0. 0. 0. 0. 0. 0. 0. 0. 0. 0.</_>
    <_>
      0. 1.77173442e-005 5.42127127e-005 -8.35217070e-005
      -8.35217070e-005 -1.63700099e-006 1.36097413e-004 0. 0.
      1.77173442e-005 1.42470002e-004 4.31018343e-005 -5.95181118e-005
      -5.95181118e-005 -1.77898182e-004 1.24986545e-004 1.18380070e-004
      0. 1.42470002e-004 8.99123115e-005 -1.36097413e-004
      8.35217070e-005 8.35217070e-005 1.63700099e-006 -2.38631023e-004
      1.24986545e-004 1.36097413e-004 1.89280487e-004 -2.62720947e-004
      5.95181118e-005 5.95181118e-005 5.95181118e-005 -2.23665957e-005
      -1.18613956e-004 -3.83662518e-005 2.62720947e-004 1.82907897e-004
      -4.45628859e-004 -2.26009724e-004 0. 0. -8.18847038e-005
      -2.05274497e-004 -3.64953667e-005 4.45628859e-004 0.
      -2.26009724e-004 -4.45628859e-004 0. 0. -8.18847038e-005
      -2.61124194e-004 9.93681679e-005 3.27248796e-004 0.
      -1.23389778e-004 -3.07894428e-004 -4.45628859e-004
      -2.19619120e-004 -1.37734416e-004 -8.35397295e-005 4.45628859e-004
      1.82907897e-004 0. 0. -3.43008898e-004 -4.45628859e-004
      -4.45628859e-004 -3.03158857e-004 1.84504650e-004 1.82907897e-004
      0. 0. -3.22239066e-004 -2.26009724e-004 -1.23389778e-004
      1.72333569e-006 1.37734416e-004 -2.62720947e-004 -2.40354362e-004
      0. -2.19619120e-004 -3.63744155e-004 -1.23389778e-004
      2.06997822e-004 4.45628859e-004 -2.23665957e-005 0. 0. 0. 0. 0. 0.
      0. 0. 0. 0. 0. 0. 0. 0. 0. 0. 0. 0. 0. 0. 0. 0. 0. 0. 0. 0. 0. 0.
      0. 0. 0. 0. 0. 0. 0. 0. 0. 0. 0. 0. 0. 0. 0. 0. 0. 0. 0. 0.</_>
    <_>
      0. 7.99016852e-005 1.39611206e-004 -1.11399953e-004
      -1.11399953e-004 -1.11399953e-004 1.39611206e-004 0. 0.
      7.99016852e-005 -1.11399953e-004 -2.50611502e-005 8.71087977e-005
      -1.63902369e-004 -2.23611903e-004 -2.50611502e-005 5.97095277e-005
      0. 1.39611206e-004 3.94485978e-005 1.79940995e-004 1.11399953e-004
      1.79940995e-004 1.11399953e-004 2.84022652e-004 -2.50611502e-005
      1.39611206e-004 9.19510130e-005 2.50611502e-005 2.50611502e-005
      1.63902369e-004 1.63902369e-004 1.63902369e-004 -2.25950018e-004
      -8.63388050e-005 2.25950018e-004 -2.25950018e-004 -3.17901024e-004
      -1.10518769e-004 0. 0. 0. -1.79059803e-004 -5.97095277e-005
      1.79059803e-004 -5.68912190e-004 -5.68912190e-004 0. 0. 0. 0. 0.
      -8.63388050e-005 -5.97095277e-005 -3.17901024e-004
      -3.17901024e-004 0. 0. 0. 0. 1.39611206e-004 6.77626358e-020
      -2.25950018e-004 -5.68912190e-004 -5.68912190e-004
      -2.49359990e-004 0. 0. 1.39611206e-004 2.51011166e-004
      -2.25950018e-004 -3.17901024e-004 0. -5.68912190e-004
      -3.17901024e-004 -5.68912190e-004 -1.46048333e-004 6.77626358e-020
      2.50611502e-005 -5.68912190e-004 -5.68912190e-004 0. 0.
      -5.68912190e-004 1.04962834e-004 6.77626358e-020 2.50611502e-005
      0. 0. 0. 0. 0. 0. 0. 0. 0. 0. 0. 0. 0. 0. 0. 0. 0. 0. 0. 0. 0. 0.
      0. 0. 0. 0. 0. 0. 0. 0. 0. 0. 0. 0. 0. 0. 0. 0. 0. 0. 0. 0. 0. 0.
      0. 0. 0. 0.</_>
    <_>
      0. 1.34372473e-004 1.34372473e-004 1.34372473e-004 1.34372473e-004
      1.34372473e-004 -2.02459232e-005 0. 0. 1.34372473e-004
      1.61949458e-004 1.61949458e-004 1.61949458e-004 1.61949458e-004
      -3.30457260e-005 -3.30457260e-005 1.34372473e-004 0.
      1.61949458e-004 2.75769817e-005 2.30759746e-004 2.30759746e-004
      7.61413467e-005 -1.34372473e-004 2.03287907e-020 9.94024886e-005
      1.34372473e-004 2.30759746e-004 2.03182761e-004 2.03182761e-004
      4.85643614e-005 -1.61949458e-004 -7.33105844e-006 -1.34372473e-004
      2.45483796e-004 3.65132204e-004 2.03182761e-004 0. 0.
      -1.94995184e-004 -3.24755441e-004 -1.70137035e-004
      -2.35191037e-004 3.65132204e-004 3.65132204e-004 0. 0.
      -3.49699840e-005 -3.65132204e-004 -1.70137035e-004
      -1.70137035e-004 -2.30759746e-004 3.65132204e-004 2.30759746e-004
      0. 1.34372473e-004 -2.30759746e-004 -7.61413467e-005
      1.34372473e-004 -3.57645586e-005 -1.34372473e-004 1.95789762e-004
      0. 0. 1.70137035e-004 1.54618392e-004 1.94995184e-004
      3.65132204e-004 1.27041421e-004 -2.75769817e-005 1.29941182e-004
      0. 0. -1.34372473e-004 -1.47240617e-005 2.30759746e-004
      2.30759746e-004 2.46772215e-005 2.03287907e-020 1.82936841e-004
      1.29941182e-004 -1.94995184e-004 -3.65132204e-004 -3.65132204e-004
      -1.94995184e-004 -1.94995184e-004 -3.65132204e-004 0. 0. 0. 0. 0.
      0. 0. 0. 0. 0. 0. 0. 0. 0. 0. 0. 0. 0. 0. 0. 0. 0. 0. 0. 0. 0. 0.
      0. 0. 0. 0. 0. 0. 0. 0. 0. 0. 0. 0. 0. 0. 0. 0. 0. 0. 0. 0. 0.</_>
    <_>
      -1.72904896e-004 9.04943445e-005 9.04943445e-005 9.04943445e-005
      9.04943445e-005 9.04943445e-005 9.04943445e-005 -1.72904896e-004
      -1.72904896e-004 -1.80238403e-005 1.21836783e-005 1.21836783e-005
      1.21836783e-005 1.21836783e-005 1.21836783e-005 -1.80238403e-005
      -1.80238403e-005 -2.81423068e-004 -3.93790251e-004
      -2.63399241e-004 -9.04943445e-005 -9.04943445e-005
      -9.04943445e-005 -2.73128478e-007 7.54970388e-005 -2.20885355e-004
      -2.51092861e-004 -2.63399241e-004 -2.93606747e-004
      -1.21836783e-005 -1.21836783e-005 -1.21836783e-005
      -1.21836783e-005 1.80238403e-005 2.81423068e-004 2.81423068e-004
      -2.93606747e-004 -6.87396969e-004 0. 0. 0. 0. 0. 6.87396969e-004
      6.87396969e-004 -5.78878797e-004 -6.87396969e-004 -1.72904896e-004
      -1.72904896e-004 -1.72904896e-004 -8.73085155e-005 2.63399241e-004
      6.87396969e-004 4.23997757e-004 -6.87396969e-004 -4.23997757e-004
      -1.80238403e-005 -1.80238403e-005 -1.80238403e-005 9.04943445e-005
      2.51092861e-004 2.51092861e-004 0. -5.14492102e-004
      1.72904896e-004 1.72904896e-004 1.72904896e-004 8.55963735e-005
      7.83106661e-005 7.93840081e-005 -1.80238403e-005 0.
      -4.05973929e-004 1.80238403e-005 1.80238403e-005 1.80238403e-005
      1.80238403e-005 1.80238403e-005 1.72904896e-004 1.35525272e-020
      -1.80238403e-005 0. 0. 0. 0. 0. 0. 0. 0. 0. 0. 0. 0. 0. 0. 0. 0.
      0. 0. 0. 0. 0. 0. 0. 0. 0. 0. 0. 0. 0. 0. 0. 0. 0. 0. 0. 0. 0. 0.
      0. 0. 0. 0. 0. 0. 0. 0. 0. 0. 0. 0. 0. 0. 0. 0.</_>
    <_>
      -1.56364185e-004 1.18936659e-004 1.18936659e-004 5.62098976e-005
      5.62098976e-005 5.62098976e-005 5.62098976e-005 -1.56364185e-004
      -1.56364185e-004 1.18936659e-004 2.83226487e-004 5.37993365e-005
      -5.33921593e-005 -5.33921593e-005 -5.33921593e-005 9.87167223e-005
      5.62098976e-005 -1.56364185e-004 1.26862302e-004 5.57900094e-005
      1.38488467e-004 -5.62098976e-005 -5.62098976e-005 -3.06369721e-008
      6.14608653e-005 9.93016729e-005 2.75300845e-004 1.62378754e-004
      -2.58013642e-005 -1.26862302e-004 4.30559448e-005 5.33921593e-005
      5.33921593e-005 6.13178127e-005 2.19090944e-004 5.94043755e-004
      2.48090539e-004 -5.31317026e-004 -2.67761352e-004 0. 0. 0. 0.
      3.36618657e-004 5.94043755e-004 -3.36618657e-004 -5.94043755e-004
      -4.13789327e-004 -1.56364185e-004 -2.19090944e-004
      -6.27267582e-005 2.12574087e-004 5.94043755e-004 3.18742939e-004
      -5.94043755e-004 -2.11551451e-004 5.62098976e-005 -6.13178127e-005
      -6.13178127e-005 -6.13178127e-005 -1.78757109e-005 2.56016181e-004
      0. -4.37679584e-004 2.65689392e-004 4.76516085e-004
      2.19090944e-004 2.19090944e-004 1.61992604e-004 5.48011049e-005
      -6.13178127e-005 -6.27267582e-005 -4.37679584e-004
      -1.18936659e-004 5.09815982e-005 6.13178127e-005 6.13178127e-005
      6.13178127e-005 1.69918261e-004 -3.67035341e-006 -6.13178127e-005
      -4.37679584e-004 -3.28354392e-004 -2.57425127e-004 0. 0. 0. 0. 0.
      0. 0. 0. 0. 0. 0. 0. 0. 0. 0. 0. 0. 0. 0. 0. 0. 0. 0. 0. 0. 0. 0.
      0. 0. 0. 0. 0. 0. 0. 0. 0. 0. 0. 0. 0. 0. 0. 0. 0. 0. 0. 0. 0. 0.
      0. 0.</_>
    <_>
      -1.72104716e-004 9.16503268e-005 9.16503268e-005 9.16503268e-005
      9.16503268e-005 9.16503268e-005 9.16503268e-005 -1.72104716e-004
      -1.72104716e-004 -5.07402729e-005 9.54575371e-005 9.54575371e-005
      9.54575371e-005 9.54575371e-005 9.54575371e-005 9.54575371e-005
      -5.07402729e-005 -3.14495323e-004 -1.25985316e-004
      -9.16503268e-005 -9.16503268e-005 -9.16503268e-005
      -9.16503268e-005 -9.16503268e-005 2.16772332e-005 -3.39067541e-004
      -4.44287842e-004 5.07402729e-005 -9.54575371e-005 -9.54575371e-005
      -9.54575371e-005 -9.54575371e-005 -9.54575371e-005
      -1.21364443e-004 -5.42101086e-020 1.72104716e-004 2.98090046e-004
      0. 0. 0. 0. 0. -1.92603649e-004 1.72104716e-004 3.14495323e-004 0.
      0. 0. 0. 0. -1.72104716e-004 -5.07402729e-005 3.14495323e-004
      4.44287842e-004 0. 2.63755035e-004 2.63755035e-004 2.63755035e-004
      2.63755035e-004 -5.07402729e-005 -9.16503268e-005 5.07402729e-005
      0. 0. 7.08042877e-004 7.08042877e-004 7.08042877e-004
      3.23991582e-004 -4.09774912e-005 2.06349596e-005 1.21891666e-004
      0. 0. 4.44287842e-004 4.44287842e-004 4.44287842e-004
      6.02365435e-005 5.02130533e-005 7.08042877e-004 6.67065382e-004
      1.21891666e-004 0. 0. 0. -3.84051295e-004 -7.08042877e-004
      -2.88327254e-004 0. 0. 0. 0. 0. 0. 0. 0. 0. 0. 0. 0. 0. 0. 0. 0.
      0. 0. 0. 0. 0. 0. 0. 0. 0. 0. 0. 0. 0. 0. 0. 0. 0. 0. 0. 0. 0. 0.
      0. 0. 0. 0. 0. 0. 0. 0. 0. 0.</_>
    <_>
      0. 2.93916557e-004 2.24719857e-004 -3.34247597e-005
      -3.34247597e-005 3.57719437e-005 2.93916557e-004 0. 0.
      2.93916557e-004 3.56181263e-004 2.88399424e-005 -1.09745924e-004
      -1.09745924e-004 -1.09745924e-004 9.80366458e-005 2.93916557e-004
      0. 3.56181263e-004 -1.90489885e-007 -2.93916557e-004
      3.34247597e-005 3.34247597e-005 -3.57719437e-005 -1.01643954e-018
      5.79598309e-005 2.93916557e-004 3.94114817e-004 -3.56181263e-004
      6.43250751e-005 1.09745924e-004 1.09745924e-004 4.05492210e-005
      9.64890751e-006 6.91967070e-005 6.88031374e-004 3.31850111e-004
      -6.88031374e-004 -3.60690057e-004 0. 0. -6.91967070e-005
      -1.88079212e-004 6.91967070e-005 6.88031374e-004 0.
      -3.60690057e-004 -6.42610539e-004 0. 0. -6.91967070e-005
      -2.31753089e-004 3.27341317e-004 3.94114817e-004 0.
      7.18123774e-005 -1.35970200e-004 -3.94114817e-004 -3.34247597e-005
      -9.64890751e-006 3.34247597e-005 3.94114817e-004 0. 0.
      6.88031374e-004 1.38585863e-004 6.77626358e-020 6.77626358e-020
      -4.00768149e-005 -1.44502678e-006 1.48642532e-004 0. 0.
      -7.18123774e-005 3.34247597e-005 1.72010637e-004 1.02813923e-004
      1.09502085e-004 6.77626358e-020 2.51224061e-004 1.48642532e-004
      -3.27341317e-004 -6.18834689e-004 -2.67525029e-004 0. 0.
      -2.69112992e-004 0. 0. 0. 0. 0. 0. 0. 0. 0. 0. 0. 0. 0. 0. 0. 0.
      0. 0. 0. 0. 0. 0. 0. 0. 0. 0. 0. 0. 0. 0. 0. 0. 0. 0. 0. 0. 0. 0.
      0. 0. 0. 0. 0. 0. 0. 0. 0. 0.</_>
    <_>
      0. 1.13628710e-004 1.13628710e-004 -1.15903560e-004
      -1.15903560e-004 -1.15903560e-004 1.13628710e-004 0. 0.
      1.13628710e-004 3.90446621e-005 3.90446621e-005 1.25991763e-004
      -1.03540508e-004 -1.03540508e-004 -6.42570667e-005 1.13628710e-004
      0. 2.68576929e-004 9.61539172e-006 1.15903560e-004 1.15903560e-004
      1.15903560e-004 1.15903560e-004 1.25991763e-004 -1.26018349e-005
      1.13628710e-004 1.52200562e-004 -3.90446621e-005 -3.90446621e-005
      1.03540508e-004 1.03540508e-004 1.03540508e-004 -1.13628710e-004
      8.13151629e-020 4.95361572e-004 -2.68576929e-004 -2.65829265e-004
      -1.23244099e-004 0. 0. 0. -9.61539172e-006 8.13151629e-020
      1.23244099e-004 -4.95361572e-004 -4.95361572e-004 0. 0. 0. 0.
      1.13628710e-004 8.13151629e-020 -1.13628710e-004 -2.65829265e-004
      -1.52200562e-004 1.13628710e-004 1.13628710e-004 1.13628710e-004
      1.13628710e-004 3.81732825e-004 -1.13628710e-004 -4.95361572e-004
      -4.95361572e-004 8.13151629e-020 2.29532277e-004 4.95361572e-004
      4.95361572e-004 3.40413331e-004 7.45840516e-005 -3.81732825e-004
      -2.65829265e-004 0. -1.13628710e-004 1.15903560e-004
      -1.13628710e-004 -1.13628710e-004 -1.13628710e-004 2.29532277e-004
      -5.16464970e-005 -3.81732825e-004 0. 0. -4.95361572e-004
      -2.65829265e-004 -4.95361572e-004 -2.65829265e-004 0. 0. 0. 0. 0.
      0. 0. 0. 0. 0. 0. 0. 0. 0. 0. 0. 0. 0. 0. 0. 0. 0. 0. 0. 0. 0. 0.
      0. 0. 0. 0. 0. 0. 0. 0. 0. 0. 0. 0. 0. 0. 0. 0. 0. 0. 0. 0. 0.</_>
    <_>
      -1.24241298e-004 -1.24241298e-004 -1.24241298e-004
      -1.24241298e-004 -1.24241298e-004 -1.24241298e-004 1.91290437e-005
      -1.24241298e-004 -1.24241298e-004 -1.31065623e-004
      -1.31065623e-004 -1.31065623e-004 -1.31065623e-004
      -1.31065623e-004 1.83739830e-005 1.83739830e-005 -1.31065623e-004
      -1.31065623e-004 -2.95797072e-004 -2.95797072e-004
      -1.71555774e-004 -1.71555774e-004 -2.81854427e-005 1.24241298e-004
      1.24241298e-004 -1.64831246e-004 -1.71555774e-004 -2.95797072e-004
      -2.95797072e-004 -1.64731449e-004 -2.13611147e-005 1.31065623e-004
      -1.23047139e-005 1.31065623e-004 -1.56582857e-004 -1.64731449e-004
      -2.95797072e-004 -2.95797072e-004 0. 1.49439613e-004
      2.89727817e-004 1.46357474e-004 2.95797072e-004 0. 0.
      -2.88972748e-004 -2.95797072e-004 1.09804469e-005 1.71555774e-004
      2.21161754e-005 1.46357474e-004 2.95797072e-004 0. 0.
      -2.95797072e-004 -1.67299877e-004 1.64731449e-004 1.52918456e-005
      -1.31065623e-004 2.21161754e-005 1.71555774e-004 3.14977979e-006
      0. -1.71555774e-004 -2.21161754e-005 -1.91290437e-005
      -2.51983111e-005 -1.71555774e-004 -4.51715823e-006 1.64731449e-004
      -1.31065623e-004 0. -1.64731449e-004 1.31065623e-004
      -5.58017473e-006 -1.64731449e-004 -1.64731449e-004
      -1.23047139e-005 3.57475915e-006 -1.52426743e-004 -1.31065623e-004
      1.49439613e-004 2.95797072e-004 2.95797072e-004 1.49439613e-004
      1.49439613e-004 2.95797072e-004 0. 0. 0. 0. 0. 0. 0. 0. 0. 0. 0.
      0. 0. 0. 0. 0. 0. 0. 0. 0. 0. 0. 0. 0. 0. 0. 0. 0. 0. 0. 0. 0. 0.
      0. 0. 0. 0. 0. 0. 0. 0. 0. 0. 0. 0. 0. 0. 0.</_>
    <_>
      -7.65237564e-005 -7.65237564e-005 -7.65237564e-005
      -1.85485143e-004 -1.85485143e-004 -1.85485143e-004 4.65139856e-005
      -7.65237564e-005 -7.65237564e-005 -7.65237564e-005 0.
      -1.85485143e-004 -1.88065140e-004 -1.88065140e-004 5.77461069e-005
      1.34269867e-004 -1.85485143e-004 -7.65237564e-005 -7.65237564e-005
      -1.85485143e-004 -1.11541383e-004 -2.59374094e-004
      -2.73749520e-005 1.85485143e-004 1.85485143e-004 -9.80022160e-005
      0. -7.65237564e-005 -1.88065140e-004 -2.59374094e-004
      -2.47949556e-005 1.88065140e-004 -4.39339892e-005 1.88065140e-004
      -2.59374094e-004 0. -1.08961387e-004 -4.44859237e-004
      -2.56794097e-004 2.45811243e-004 4.31047112e-004 1.99047980e-004
      4.44859237e-004 -2.56794097e-004 0. -1.88065140e-004
      -4.44859237e-004 -1.01318714e-004 2.59374094e-004 1.35628361e-005
      9.00865925e-005 3.35897843e-004 0. 0. -4.44859237e-004
      -2.23819268e-004 2.59374094e-004 2.47949556e-005 -1.88065140e-004
      1.09828397e-005 2.56794097e-004 -9.54222196e-005 0.
      -3.68335459e-004 -1.22524230e-004 1.01318714e-004 -6.03261033e-005
      -2.59374094e-004 -1.20457742e-004 1.08961387e-004 -1.88065140e-004
      -1.08961387e-004 -3.68335459e-004 7.65237564e-005 -3.03948236e-005
      -2.56794097e-004 -2.56794097e-004 -4.39339892e-005 1.11541383e-004
      -2.12860090e-004 -1.88065140e-004 -1.22524230e-004 7.65237564e-005
      1.88065140e-004 2.45811243e-004 2.45811243e-004 4.44859237e-004 0.
      0. 0. 0. 0. 0. 0. 0. 0. 0. 0. 0. 0. 0. 0. 0. 0. 0. 0. 0. 0. 0. 0.
      0. 0. 0. 0. 0. 0. 0. 0. 0. 0. 0. 0. 0. 0. 0. 0. 0. 0. 0. 0. 0. 0.
      0. 0. 0.</_>
    <_>
      -1.47153463e-004 -1.47153463e-004 -1.47153463e-004
      -1.47153463e-004 -1.47153463e-004 -1.47153463e-004 6.23529340e-005
      -1.47153463e-004 -1.47153463e-004 -1.69926672e-004
      -1.69926672e-004 -2.27732144e-005 -1.69926672e-004
      -1.69926672e-004 6.72643437e-005 6.72643437e-005 -1.69926672e-004
      -1.69926672e-004 -2.36891690e-004 -2.36891690e-004
      -2.36891690e-004 -2.36891690e-004 -2.73852966e-005 1.47153463e-004
      1.47153463e-004 -2.79292348e-004 -3.84045154e-004 -2.14118481e-004
      -2.14118481e-004 -2.14118481e-004 -4.61208219e-006 1.69926672e-004
      -3.95797178e-005 2.27732144e-005 -2.79291562e-004 -2.36891690e-004
      0. 0. 0. 2.37191023e-004 3.56360542e-004 1.46854130e-004
      2.07078614e-004 -2.36891690e-004 -2.14118481e-004 0. 0.
      1.04752813e-004 3.84045154e-004 1.46854130e-004 -2.99330878e-007
      2.14118481e-004 -2.14118481e-004 0. 0. 0. 3.84045154e-004
      1.74538756e-004 0. -3.01124037e-005 1.47153463e-004
      -2.14118481e-004 0. 0. 2.37191023e-004 1.74538756e-004
      1.46854130e-004 -1.69926672e-004 -2.09506397e-004 1.69926672e-004
      0. 0. 0. 3.84045154e-004 1.74538756e-004 0. -1.76966540e-004
      -6.23529340e-005 3.84045154e-004 1.04753584e-004 0.
      2.37191023e-004 3.84045154e-004 3.84045154e-004 6.72643437e-005
      -1.46854130e-004 1.69926672e-004 0. 0. 0. 0. 0. 0. 0. 0. 0. 0. 0.
      0. 0. 0. 0. 0. 0. 0. 0. 0. 0. 0. 0. 0. 0. 0. 0. 0. 0. 0. 0. 0. 0.
      0. 0. 0. 0. 0. 0. 0. 0. 0. 0. 0. 0. 0. 0. 0.</_>
    <_>
      0. 0. -1.60151918e-004 -2.45645613e-004 -2.45645613e-004
      -8.54936879e-005 1.18516182e-004 0. 0. 0. 0. -2.45645613e-004
      -3.21307161e-004 -3.21307161e-004 -8.81018568e-005 1.47711631e-004
      0. 0. 0. -2.45645613e-004 -5.48433105e-004 -3.02787492e-004
      -1.84271310e-004 -2.71050543e-020 -2.71050543e-020
      -8.54936879e-005 0. 0. -5.48433105e-004 -3.70790774e-004
      -1.08609755e-004 3.21307161e-004 4.26390616e-005 7.56615555e-005
      -3.88281187e-004 0. 0. -5.48433105e-004 -3.20277875e-004
      2.33205312e-004 4.33743960e-004 1.55075861e-004 -2.71050543e-020
      -3.88281187e-004 0. 0. -3.02787492e-004 -3.54255375e-004
      4.62939410e-004 3.15227779e-004 1.55075861e-004 1.60151918e-004
      -3.02787492e-004 0. 0. -1.08609755e-004 8.54936879e-005
      -1.18516182e-004 -2.45645613e-004 1.54072550e-004 2.45645613e-004
      0. 0. 0. 2.33205312e-004 -4.28546264e-005 -2.33205312e-004
      -5.48433105e-004 -1.18516182e-004 2.35813481e-004 0. 0. 0.
      2.27125929e-004 4.16357398e-005 -2.27125929e-004 -3.87277862e-004
      -5.05128919e-005 -2.71050543e-020 -4.26390616e-005 0.
      -1.24402977e-005 1.60151918e-004 2.45645613e-004 2.33205312e-004
      2.33205312e-004 1.61155243e-004 0. 0. 0. 0. 0. 0. 0. 0. 0. 0. 0.
      0. 0. 0. 0. 0. 0. 0. 0. 0. 0. 0. 0. 0. 0. 0. 0. 0. 0. 0. 0. 0. 0.
      0. 0. 0. 0. 0. 0. 0. 0. 0. 0. 0. 0. 0. 0. 0.</_>
    <_>
      0. 0. 0. -9.84882281e-005 -9.84882281e-005 -9.84882281e-005
      1.27871157e-004 0. 0. 0. -9.84882281e-005 -9.84882281e-005
      -7.12557812e-006 -1.05613806e-004 1.18629876e-004 1.25755454e-004
      0. 0. 0. -1.05613806e-004 -7.29216263e-005 -1.86072706e-004
      5.49495344e-005 9.84882281e-005 2.77435349e-004 -4.73397631e-005
      0. -9.84882281e-005 -1.86072706e-004 -1.86072706e-004
      -5.10759601e-005 1.05613806e-004 -2.22573581e-005 4.06575815e-020
      -2.07838224e-004 0. -2.84560927e-004 -1.86072706e-004
      -6.57960481e-005 2.24243675e-004 1.88188409e-004 6.03172484e-005
      1.05613806e-004 -2.84560927e-004 -1.05613806e-004 -2.84560927e-004
      -2.84560927e-004 5.11484650e-005 2.84560927e-004 6.03172484e-005
      6.03172484e-005 2.84560927e-004 -2.84560927e-004 -2.84560927e-004
      -1.86072706e-004 -1.86072706e-004 2.84560927e-004 6.03172484e-005
      0. 6.03172484e-005 2.84560927e-004 -2.33412458e-004
      -2.84560927e-004 -2.84560927e-004 -6.03172484e-005 8.37681437e-005
      6.03172484e-005 0. 6.03172484e-005 9.84882281e-005
      -2.84560927e-004 -1.86072706e-004 0. 4.06575815e-020
      2.17655288e-005 -2.84560927e-004 -2.84560927e-004 -1.27871157e-004
      9.84882281e-005 -1.56689770e-004 -2.84560927e-004 2.24243675e-004
      2.84560927e-004 4.06575815e-020 3.81709760e-005 -6.03172484e-005
      9.84882281e-005 0. 0. 0. 0. 0. 0. 0. 0. 0. 0. 0. 0. 0. 0. 0. 0. 0.
      0. 0. 0. 0. 0. 0. 0. 0. 0. 0. 0. 0. 0. 0. 0. 0. 0. 0. 0. 0. 0. 0.
      0. 0. 0. 0. 0. 0. 0. 0. 0.</_>
    <_>
      2.09734062e-004 2.09734062e-004 2.09734062e-004 -1.27984895e-004
      -1.27984895e-004 -1.27984895e-004 -1.27984895e-004 2.09734062e-004
      2.09734062e-004 2.09734062e-004 2.72094575e-003 -1.71047053e-004
      -2.14169922e-004 -2.14169922e-004 -2.14169922e-004 2.29704170e-003
      -1.27984895e-004 2.09734062e-004 6.69029600e-004 3.31310643e-004
      3.53915493e-005 1.27984895e-004 1.27984895e-004 1.27984895e-004
      3.73110495e-004 3.53915493e-005 4.59295552e-004 6.69029600e-004
      2.45125615e-004 -8.21148205e-006 1.71107764e-004 2.14169922e-004
      2.14169922e-004 2.14169922e-004 1.27984895e-004 4.59295552e-004
      2.84252223e-003 -2.10064171e-019 -1.49601314e-004 0. 0. 0. 0.
      -2.45125615e-004 0. 2.45125615e-004 -2.10064171e-019
      -3.53915493e-005 8.21148205e-006 -1.27984895e-004 -1.56009628e-004
      -3.37718957e-004 0. 0. -2.10064171e-019 -2.10064171e-019
      -1.27984895e-004 -2.14169922e-004 -2.14169922e-004
      -2.14169922e-004 -2.14169922e-004 -6.65672587e-006 0.
      -2.09734062e-004 3.53915493e-005 3.53915493e-005 1.27984895e-004
      3.09694209e-004 5.98006918e-005 -1.21576581e-004 -2.14169922e-004
      -3.37718957e-004 -2.09734062e-004 -2.09734062e-004 1.27984895e-004
      2.14169922e-004 2.14169922e-004 2.14169922e-004 6.65672587e-006
      -2.10064171e-019 -2.14169922e-004 -6.69029600e-004
      -4.23903984e-004 -2.45125615e-004 0. 0. 0. 0. 0. 0. 0. 0. 0. 0. 0.
      0. 0. 0. 0. 0. 0. 0. 0. 0. 0. 0. 0. 0. 0. 0. 0. 0. 0. 0. 0. 0. 0.
      0. 0. 0. 0. 0. 0. 0. 0. 0. 0. 0. 0. 0. 0. 0. 0. 0. 0.</_>
    <_>
      1.64078556e-005 1.64078556e-005 1.64078556e-005 1.64078556e-005
      1.64078556e-005 1.64078556e-005 1.64078556e-005 1.64078556e-005
      1.64078556e-005 -3.24192001e-006 -3.24192001e-006 8.87266793e-009
      -3.24192001e-006 -3.24192001e-006 -3.24192001e-006
      -3.24192001e-006 -3.24192001e-006 -3.24192001e-006 1.91246698e-004
      1.91246698e-004 -1.64078556e-005 -1.64078556e-005 -1.64078556e-005
      -1.64078556e-005 -1.64078556e-005 -2.07654550e-004
      -2.07654550e-004 2.28667937e-004 2.28667937e-004 3.24192001e-006
      3.24192001e-006 3.24192001e-006 3.24192001e-006 -1.88004778e-004
      -2.25426018e-004 -3.41793238e-005 4.93438158e-004 4.93438158e-004
      0. 0. 0. 0. -2.28667937e-004 -3.02191445e-004 -2.64770206e-004
      4.75666689e-004 4.93438158e-004 2.07654550e-004 2.07654550e-004
      2.07654550e-004 -1.24039987e-004 -2.28667937e-004 -2.64770206e-004
      0. 4.93438158e-004 4.93438158e-004 2.25426018e-004 2.25426018e-004
      2.25426018e-004 -2.10133876e-005 -9.45369029e-005 -5.71156561e-005
      0. 2.85783608e-004 2.85783608e-004 2.85783608e-004 2.85783608e-004
      1.24322367e-004 -1.77714664e-005 -2.13233982e-008 2.25426018e-004
      0. 2.68012140e-004 2.68012140e-004 2.68012140e-004 2.68012140e-004
      3.93441915e-005 -3.41793238e-005 2.85783608e-004 4.93438158e-004
      2.25426018e-004 0. 0. 0. -2.28667937e-004 -4.93438158e-004
      -2.64770206e-004 0. 0. 0. 0. 0. 0. 0. 0. 0. 0. 0. 0. 0. 0. 0. 0.
      0. 0. 0. 0. 0. 0. 0. 0. 0. 0. 0. 0. 0. 0. 0. 0. 0. 0. 0. 0. 0. 0.
      0. 0. 0. 0. 0. 0. 0. 0. 0. 0.</_>
    <_>
      1.63883902e-004 1.63883902e-004 6.12000513e-005 -1.01575177e-004
      -1.01575177e-004 1.10867882e-006 1.63883902e-004 1.63883902e-004
      1.63883902e-004 2.60677247e-004 2.60677247e-004 -4.78182665e-006
      -1.15466115e-004 -1.15466115e-004 -1.15466115e-004 9.79020260e-005
      2.60677247e-004 2.60677247e-004 5.25361043e-004 2.59901950e-004
      -1.63883902e-004 1.01575177e-004 1.01575177e-004 -1.10867882e-006
      -1.63883902e-004 1.98701891e-004 3.61477112e-004 5.25361043e-004
      1.76182853e-019 1.15466115e-004 1.15466115e-004 1.15466115e-004
      1.27822623e-005 -9.79020260e-005 -1.57993403e-004 2.64683767e-004
      5.25361043e-004 1.76182853e-019 -1.54608002e-004 0. 0.
      -1.02683851e-004 -2.51901511e-004 -4.22677171e-004 0.
      4.28567670e-004 2.65459093e-004 -3.61477112e-004 1.63883902e-004
      1.63883902e-004 2.61008904e-006 -3.11992888e-004 -2.59901950e-004
      0. 5.25361043e-004 3.76143376e-004 -1.01908539e-004
      -2.64683767e-004 -4.78182665e-006 1.10867882e-006 -9.60180332e-005
      1.05293941e-004 0. 3.61477112e-004 3.61477112e-004
      -5.31996193e-005 -1.63883902e-004 -5.85899652e-005
      -9.67933447e-005 -5.13156265e-005 2.60677247e-004 0.
      2.64683767e-004 -1.11459602e-004 4.78182665e-006 1.15466115e-004
      1.27822623e-005 -9.79020260e-005 -1.05293941e-004 2.51901511e-004
      2.60677247e-004 -2.65459093e-004 -4.22677171e-004 -1.49217653e-004
      0. 0. -2.51901511e-004 0. 0. 0. 0. 0. 0. 0. 0. 0. 0. 0. 0. 0. 0.
      0. 0. 0. 0. 0. 0. 0. 0. 0. 0. 0. 0. 0. 0. 0. 0. 0. 0. 0. 0. 0. 0.
      0. 0. 0. 0. 0. 0. 0. 0. 0. 0. 0. 0.</_>
    <_>
      1.47789673e-004 1.47789673e-004 1.47789673e-004 -7.18250958e-005
      -7.18250958e-005 -7.18250958e-005 1.47789673e-004 1.47789673e-004
      1.47789673e-004 1.69472580e-004 -5.01421891e-005 -5.01421891e-005
      3.38008322e-005 -9.91541965e-005 -9.91541965e-005 -5.01421891e-005
      8.28128395e-005 1.69472580e-004 4.64598153e-004 1.95971355e-004
      2.36192536e-005 7.18250958e-005 1.10278997e-004 7.18250958e-005
      1.81136711e-004 9.71936897e-005 3.16808466e-004 2.44983385e-004
      1.32955029e-004 5.01421891e-005 9.91541965e-005 9.91541965e-005
      9.91541965e-005 -1.69472580e-004 -1.69472580e-004 2.95125559e-004
      4.06575815e-020 1.32955029e-004 -1.57517454e-004 0. 0. 0.
      -1.95971355e-004 -4.64598153e-004 -2.68626784e-004
      -2.16829048e-005 4.06575815e-020 1.47789673e-004 1.47789673e-004
      1.47789673e-004 0. 0. -4.64598153e-004 -4.64598153e-004
      1.32955029e-004 1.32955029e-004 1.69472580e-004 1.69472580e-004
      1.69472580e-004 1.47789673e-004 1.47789673e-004 -3.16808466e-004
      -4.64598153e-004 -1.47789673e-004 -1.47789673e-004 2.36192536e-005
      3.16808466e-004 3.16808466e-004 1.47789673e-004 -1.62170531e-004
      -2.95125559e-004 -3.31643125e-004 2.95125559e-004 -1.69472580e-004
      -3.65175511e-005 -1.69472580e-004 -1.69472580e-004
      -1.69472580e-004 -1.48346480e-005 4.06575815e-020 -2.95125559e-004
      0. 0. -4.64598153e-004 -3.31643125e-004 -4.64598153e-004
      -2.44983385e-004 0. 0. 0. 0. 0. 0. 0. 0. 0. 0. 0. 0. 0. 0. 0. 0.
      0. 0. 0. 0. 0. 0. 0. 0. 0. 0. 0. 0. 0. 0. 0. 0. 0. 0. 0. 0. 0. 0.
      0. 0. 0. 0. 0. 0. 0. 0. 0. 0.</_>
    <_>
      -6.56818520e-005 -6.56818520e-005 -6.56818520e-005 4.62659642e-007
      4.62659642e-007 4.62659642e-007 4.62659642e-007 -6.56818520e-005
      -6.56818520e-005 -7.93749277e-005 -2.33920538e-004 6.49024667e-010
      4.24079153e-005 4.24079153e-005 4.24079153e-005 -1.12137692e-004
      -1.32304185e-005 -7.93749277e-005 -8.85665213e-005
      -2.24220148e-005 -1.21329285e-004 -4.62659642e-007
      -4.62659642e-007 -4.62659642e-007 -1.87473794e-004
      -3.41556733e-004 -4.63339587e-004 -7.48734456e-005 4.69093975e-005
      7.93749277e-005 -4.24079153e-005 -4.24079153e-005 -4.24079153e-005
      -2.62635382e-004 -2.20690112e-004 -2.43112125e-004 6.61445083e-005
      3.97195079e-004 1.87011145e-004 0. 0. 0. -2.33920538e-004
      -5.61009911e-005 -2.29419049e-004 2.76328443e-004 4.63339587e-004
      3.41556733e-004 1.54545603e-004 2.20690112e-004 -1.54082954e-004
      -1.67776030e-004 -2.29419049e-004 0. 4.63339587e-004
      4.07701271e-004 2.20690112e-004 2.76328443e-004 2.76328443e-004
      4.24079153e-005 3.32163181e-005 -1.63274541e-004 0.
      3.08793969e-004 1.21782847e-004 5.56383311e-005 2.42649476e-004
      8.72893543e-006 -1.21782847e-004 1.67776030e-004 2.76328443e-004
      6.61445083e-005 3.08793969e-004 3.08793969e-004 1.87011145e-004
      1.87011145e-004 -4.69093975e-005 -5.61009911e-005 3.41556733e-004
      4.63339587e-004 2.76328443e-004 3.08793969e-004 1.21782847e-004
      1.87011145e-004 -2.33920538e-004 -4.63339587e-004 -2.29419049e-004
      0. 0. 0. 0. 0. 0. 0. 0. 0. 0. 0. 0. 0. 0. 0. 0. 0. 0. 0. 0. 0. 0.
      0. 0. 0. 0. 0. 0. 0. 0. 0. 0. 0. 0. 0. 0. 0. 0. 0. 0. 0. 0. 0. 0.
      0. 0. 0. 0.</_>
    <_>
      1.66898157e-004 1.66898157e-004 1.42230929e-004 -1.33130437e-004
      -1.33130437e-004 -1.08463217e-004 2.21101640e-004 1.66898157e-004
      1.66898157e-004 1.66898157e-004 0. -1.28347092e-004
      -1.24085534e-004 -1.24085534e-004 -1.24085534e-004
      -3.22105552e-006 2.21101640e-004 1.66898157e-004 1.66898157e-004
      -1.33130437e-004 -5.82042325e-004 1.26644925e-004 1.33130437e-004
      7.50333420e-005 -3.47114372e-004 -3.22105552e-006 0.
      1.66898157e-004 -4.15144197e-004 3.25895147e-004 1.28868880e-004
      1.24085534e-004 9.94182992e-005 -1.60206153e-004 -1.96434412e-004
      0. 5.42034795e-005 -8.13151629e-020 -2.18284949e-005 0. 0.
      -2.46672280e-005 -3.86056607e-004 -4.68574726e-004 0.
      4.93241940e-004 3.54232063e-004 -2.89442978e-004 1.87671758e-004
      2.21101640e-004 2.30507376e-005 -6.03320834e-004 -5.54154045e-004
      0. 9.08386137e-004 4.68854065e-004 -3.57719662e-004
      -4.15144197e-004 1.39009877e-004 1.26776271e-004 -6.09121198e-005
      5.42034795e-005 0. 7.41488009e-004 6.15475234e-004
      -3.18946957e-004 -2.21101640e-004 -2.21101640e-004
      -2.02676907e-004 2.33559156e-004 4.93241940e-004 5.42034795e-005
      7.41488009e-004 1.24160506e-004 -4.22873454e-005 1.24085534e-004
      9.94182992e-005 -1.70162617e-004 -2.02676907e-004 3.15725891e-004
      4.93241940e-004 3.87255917e-004 -2.68243661e-004 8.71847078e-005
      0. 0. -3.15725891e-004 0. 0. 0. 0. 0. 0. 0. 0. 0. 0. 0. 0. 0. 0.
      0. 0. 0. 0. 0. 0. 0. 0. 0. 0. 0. 0. 0. 0. 0. 0. 0. 0. 0. 0. 0. 0.
      0. 0. 0. 0. 0. 0. 0. 0. 0. 0. 0. 0.</_>
    <_>
      3.35897676e-006 3.35897676e-006 3.35897676e-006 4.56510315e-006
      4.56510315e-006 4.56510315e-006 2.02767711e-004 3.35897676e-006
      3.35897676e-006 3.35897676e-006 -1.98202601e-004 4.56510315e-006
      1.61306249e-004 -2.23908919e-005 -2.23908919e-005 7.71328450e-006
      1.88262246e-004 3.35897676e-006 3.35897676e-006 -2.88980500e-005
      -5.70896736e-005 -3.87906098e-008 8.03256989e-005 -4.56510315e-006
      1.57181275e-005 7.71328450e-006 0. -1.94843626e-004
      -1.38621501e-004 9.53264316e-005 2.23908919e-005 2.23908919e-005
      2.23908919e-005 -2.09274862e-004 -2.02767711e-004 0.
      -3.32184776e-004 1.19447774e-004 1.07281689e-004 0. 0. 0.
      -2.99927749e-004 -2.09274862e-004 -2.31665763e-004
      -3.22318636e-004 0. 3.25677625e-004 1.02876169e-004
      2.02767711e-004 1.99408736e-004 1.99408736e-004 -5.31593512e-004
      -5.31593512e-004 1.83697135e-004 1.77189984e-004 2.02767711e-004
      2.09274862e-004 2.09274862e-004 2.09274862e-004 2.09274862e-004
      -3.32184776e-004 -5.31593512e-004 -3.35897676e-006
      -2.68498028e-004 -1.21339042e-004 3.28825787e-004 3.28825787e-004
      3.25677625e-004 6.10995221e-006 -3.22318636e-004 -1.48487627e-004
      5.28234523e-004 -3.35897676e-006 -2.55777250e-005 -2.09274862e-004
      -2.09274862e-004 -2.09274862e-004 -2.22187482e-005 0.
      -3.22318636e-004 5.28234523e-004 2.63095484e-004 -2.09274862e-004
      -3.47896363e-004 -5.31593512e-004 -3.33390897e-004 0. 0. 0. 0. 0.
      0. 0. 0. 0. 0. 0. 0. 0. 0. 0. 0. 0. 0. 0. 0. 0. 0. 0. 0. 0. 0. 0.
      0. 0. 0. 0. 0. 0. 0. 0. 0. 0. 0. 0. 0. 0. 0. 0. 0. 0. 0. 0. 0.</_>
    <_>
      1.44982041e-004 1.44982041e-004 4.80971248e-005 -9.83017235e-005
      -9.83017235e-005 -1.41680289e-006 1.44982041e-004 1.44982041e-004
      1.44982041e-004 2.48283381e-004 2.48283381e-004 1.23268990e-006
      -9.38545199e-005 -9.38545199e-005 -9.38545199e-005 1.01884551e-004
      2.48283381e-004 2.48283381e-004 3.38882179e-004 9.55984069e-005
      -1.44982041e-004 9.83017235e-005 9.83017235e-005 1.41680289e-006
      -1.44982041e-004 3.37465375e-004 4.83864220e-004 2.35580825e-004
      -2.48283381e-004 2.58218133e-005 9.38545199e-005 9.38545199e-005
      -3.03039883e-006 1.11130204e-004 9.68849199e-005 3.38882179e-004
      0. -4.83864220e-004 -2.40580455e-004 0. 0. -9.68849199e-005
      -5.33225575e-005 -4.80971248e-005 2.35580825e-004 0.
      -2.40580455e-004 -4.15831513e-004 0. 0. 4.80971248e-005
      -1.07874461e-004 -4.99962880e-006 0. 0. -1.41726297e-004
      -3.37465375e-004 -4.83864220e-004 -2.43283765e-004 3.88898152e-005
      9.83017235e-005 2.35580825e-004 0. 0. 0. -3.85010062e-004
      -4.83864220e-004 -2.35580825e-004 -7.45388994e-020
      -5.25443284e-005 0. 0. 0. -3.42137908e-004 -2.40580455e-004
      -1.41726297e-004 1.47101509e-005 1.41680289e-006 -4.83864220e-004
      -2.45253003e-004 0. -2.43283765e-004 -3.86979285e-004
      -2.09759004e-004 2.48283381e-004 4.83864220e-004 -3.03039883e-006
      0. 0. 0. 0. 0. 0. 0. 0. 0. 0. 0. 0. 0. 0. 0. 0. 0. 0. 0. 0. 0. 0.
      0. 0. 0. 0. 0. 0. 0. 0. 0. 0. 0. 0. 0. 0. 0. 0. 0. 0. 0. 0. 0. 0.
      0. 0. 0. 0.</_>
    <_>
      1.34113827e-004 1.34113827e-004 1.34113827e-004 -6.59532743e-005
      -6.59532743e-005 -6.59532743e-005 1.34113827e-004 1.34113827e-004
      1.34113827e-004 1.34113827e-004 -6.59532743e-005 -6.59532743e-005
      1.15277486e-004 -8.47896226e-005 -8.47896226e-005 -6.59532743e-005
      1.34113827e-004 1.34113827e-004 2.26916804e-004 8.01335318e-006
      1.08794331e-004 6.59532743e-005 1.08794331e-004 6.59532743e-005
      2.08080455e-004 1.60963522e-004 3.61030630e-004 2.68496988e-005
      6.59532743e-005 6.59532743e-005 8.47896226e-005 8.47896226e-005
      8.47896226e-005 1.35525272e-020 1.35525272e-020 2.26916804e-004
      -3.61030630e-004 -1.60963522e-004 -9.92861242e-005 0. 0. 0.
      1.48616673e-005 -1.34113827e-004 8.01335318e-006 -3.61030630e-004
      -3.61030630e-004 0. 0. 0. 1.34113827e-004 1.34113827e-004
      -1.34113827e-004 -3.61030630e-004 -1.60963522e-004
      -1.60963522e-004 0. 0. 0. 1.56988855e-004 2.26916804e-004
      -1.34113827e-004 -3.61030630e-004 -3.61030630e-004
      -3.61030630e-004 -1.18122472e-004 0. 1.66289610e-004
      3.61030630e-004 2.44553924e-008 -3.61030630e-004 -1.60963522e-004
      0. -3.61030630e-004 -1.60963522e-004 -3.61030630e-004
      -1.71866006e-004 -1.34113827e-004 -1.60963522e-004
      -3.61030630e-004 -3.61030630e-004 0. 0. -3.61030630e-004
      5.32607964e-006 1.35525272e-020 6.59532743e-005 0. 0. 0. 0. 0. 0.
      0. 0. 0. 0. 0. 0. 0. 0. 0. 0. 0. 0. 0. 0. 0. 0. 0. 0. 0. 0. 0. 0.
      0. 0. 0. 0. 0. 0. 0. 0. 0. 0. 0. 0. 0. 0. 0. 0. 0. 0. 0. 0.</_>
    <_>
      0. 0. 3.75385098e-005 4.06872778e-006 4.06872778e-006
      -3.34697797e-005 0. 0. 0. 0. -8.71585798e-005 4.06872778e-006
      9.80217301e-005 1.08631493e-005 1.08631493e-005 -3.34697797e-005
      0. 0. 0. -7.43421551e-005 8.71585798e-005 -4.06872778e-006
      -4.06872778e-006 3.67792563e-005 2.72728677e-004 -3.34697797e-005
      0. -8.71585798e-005 8.71585798e-005 -4.30090695e-005
      -1.08631493e-005 -1.08631493e-005 2.66753595e-005 -6.82746759e-005
      -3.75385098e-005 0. -3.51139548e-004 8.71585798e-005
      7.43421551e-005 0. 0. 3.75385098e-005 7.29403255e-005
      -3.75385098e-005 -1.65569465e-004 -3.51139548e-004
      -9.12273026e-005 3.33244214e-004 3.30947705e-006 0.
      3.75385098e-005 2.71351222e-004 -9.12273026e-005 -3.51139548e-004
      -2.63980968e-004 -8.92740354e-005 2.97450752e-004 3.51139548e-004
      9.12273026e-005 9.66442822e-005 2.59912253e-004 -3.51139548e-004
      -3.51139548e-004 -3.51139548e-004 -3.51139548e-004 1.95327334e-006
      3.51139548e-004 3.51139548e-004 3.51139548e-004 -3.55852353e-005
      -3.51139548e-004 -2.63980968e-004 0. -1.74706947e-004
      -7.59250554e-007 -1.51372486e-004 -1.13833972e-004
      -5.36887965e-005 8.71585798e-005 -2.12245446e-004 -3.51139548e-004
      9.12273026e-005 3.13601049e-004 -1.33477122e-004 -2.63980968e-004
      -3.51139548e-004 -5.17355256e-005 0. 0. 0. 0. 0. 0. 0. 0. 0. 0. 0.
      0. 0. 0. 0. 0. 0. 0. 0. 0. 0. 0. 0. 0. 0. 0. 0. 0. 0. 0. 0. 0. 0.
      0. 0. 0. 0. 0. 0. 0. 0. 0. 0. 0. 0. 0. 0. 0.</_></support_vectors>
  <decision_functions>
    <_>
      <sv_count>1</sv_count>
      <rho>1.9575621298634971e-001</rho>
      <alpha>
        1.</alpha>
      <index>
        0</index></_>
    <_>
      <sv_count>1</sv_count>
      <rho>3.2226652636479824e-001</rho>
      <alpha>
        1.</alpha>
      <index>
        1</index></_>
    <_>
      <sv_count>1</sv_count>
      <rho>-4.9679320456911438e-002</rho>
      <alpha>
        1.</alpha>
      <index>
        2</index></_>
    <_>
      <sv_count>1</sv_count>
      <rho>8.6014012442629936e-004</rho>
      <alpha>
        1.</alpha>
      <index>
        3</index></_>
    <_>
      <sv_count>1</sv_count>
      <rho>-1.3055361687386199e-001</rho>
      <alpha>
        1.</alpha>
      <index>
        4</index></_>
    <_>
      <sv_count>1</sv_count>
      <rho>9.6847315168856821e-002</rho>
      <alpha>
        1.</alpha>
      <index>
        5</index></_>
    <_>
      <sv_count>1</sv_count>
      <rho>1.6313119345424998e-001</rho>
      <alpha>
        1.</alpha>
      <index>
        6</index></_>
    <_>
      <sv_count>1</sv_count>
      <rho>-5.5310380745029100e-002</rho>
      <alpha>
        1.</alpha>
      <index>
        7</index></_>
    <_>
      <sv_count>1</sv_count>
      <rho>-3.2980821922586762e-001</rho>
      <alpha>
        1.</alpha>
      <index>
        8</index></_>
    <_>
      <sv_count>1</sv_count>
      <rho>1.5497269747922443e-001</rho>
      <alpha>
        1.</alpha>
      <index>
        9</index></_>
    <_>
      <sv_count>1</sv_count>
      <rho>-3.1177275176869967e-001</rho>
      <alpha>
        1.</alpha>
      <index>
        10</index></_>
    <_>
      <sv_count>1</sv_count>
      <rho>-9.8185388012601085e-002</rho>
      <alpha>
        1.</alpha>
      <index>
        11</index></_>
    <_>
      <sv_count>1</sv_count>
      <rho>-4.5480138698865996e-001</rho>
      <alpha>
        1.</alpha>
      <index>
        12</index></_>
    <_>
      <sv_count>1</sv_count>
      <rho>-1.3529990919711893e-001</rho>
      <alpha>
        1.</alpha>
      <index>
        13</index></_>
    <_>
      <sv_count>1</sv_count>
      <rho>-5.1988392764906306e-002</rho>
      <alpha>
        1.</alpha>
      <index>
        14</index></_>
    <_>
      <sv_count>1</sv_count>
      <rho>-2.0145196180460523e-001</rho>
      <alpha>
        1.</alpha>
      <index>
        15</index></_>
    <_>
      <sv_count>1</sv_count>
      <rho>-4.5553542289200422e-001</rho>
      <alpha>
        1.</alpha>
      <index>
        16</index></_>
    <_>
      <sv_count>1</sv_count>
      <rho>-6.4139443771649429e-001</rho>
      <alpha>
        1.</alpha>
      <index>
        17</index></_>
    <_>
      <sv_count>1</sv_count>
      <rho>-2.7765475415997470e-001</rho>
      <alpha>
        1.</alpha>
      <index>
        18</index></_>
    <_>
      <sv_count>1</sv_count>
      <rho>-5.2577756733901793e-001</rho>
      <alpha>
        1.</alpha>
      <index>
        19</index></_>
    <_>
      <sv_count>1</sv_count>
      <rho>-2.8401002243210888e-001</rho>
      <alpha>
        1.</alpha>
      <index>
        20</index></_>
    <_>
      <sv_count>1</sv_count>
      <rho>-2.7276653720974764e-001</rho>
      <alpha>
        1.</alpha>
      <index>
        21</index></_>
    <_>
      <sv_count>1</sv_count>
      <rho>-4.0553486011432716e-001</rho>
      <alpha>
        1.</alpha>
      <index>
        22</index></_>
    <_>
      <sv_count>1</sv_count>
      <rho>-8.0029828256900537e-001</rho>
      <alpha>
        1.</alpha>
      <index>
        23</index></_>
    <_>
      <sv_count>1</sv_count>
      <rho>1.4522663447919648e-001</rho>
      <alpha>
        1.</alpha>
      <index>
        24</index></_>
    <_>
      <sv_count>1</sv_count>
      <rho>-1.9440964055090876e-001</rho>
      <alpha>
        1.</alpha>
      <index>
        25</index></_>
    <_>
      <sv_count>1</sv_count>
      <rho>3.0737013034442701e-001</rho>
      <alpha>
        1.</alpha>
      <index>
        26</index></_>
    <_>
      <sv_count>1</sv_count>
      <rho>5.0822249207683379e-001</rho>
      <alpha>
        1.</alpha>
      <index>
        27</index></_>
    <_>
      <sv_count>1</sv_count>
      <rho>1.4401073139678014e-001</rho>
      <alpha>
        1.</alpha>
      <index>
        28</index></_>
    <_>
      <sv_count>1</sv_count>
      <rho>-3.0553994523140698e-001</rho>
      <alpha>
        1.</alpha>
      <index>
        29</index></_>
    <_>
      <sv_count>1</sv_count>
      <rho>-1.4299556379383707e-001</rho>
      <alpha>
        1.</alpha>
      <index>
        30</index></_>
    <_>
      <sv_count>1</sv_count>
      <rho>-1.0174433895538789e-002</rho>
      <alpha>
        1.</alpha>
      <index>
        31</index></_>
    <_>
      <sv_count>1</sv_count>
      <rho>1.9293351632103856e-001</rho>
      <alpha>
        1.</alpha>
      <index>
        32</index></_>
    <_>
      <sv_count>1</sv_count>
      <rho>-2.0568591658644336e-001</rho>
      <alpha>
        1.</alpha>
      <index>
        33</index></_>
    <_>
      <sv_count>1</sv_count>
      <rho>-2.6783512470998727e-001</rho>
      <alpha>
        1.</alpha>
      <index>
        34</index></_>
    <_>
      <sv_count>1</sv_count>
      <rho>1.1370214170765180e+000</rho>
      <alpha>
        1.</alpha>
      <index>
        35</index></_>
    <_>
      <sv_count>1</sv_count>
      <rho>5.1914375719599237e-001</rho>
      <alpha>
        1.</alpha>
      <index>
        36</index></_>
    <_>
      <sv_count>1</sv_count>
      <rho>2.5444323518821493e-001</rho>
      <alpha>
        1.</alpha>
      <index>
        37</index></_>
    <_>
      <sv_count>1</sv_count>
      <rho>-3.5747587141466441e-001</rho>
      <alpha>
        1.</alpha>
      <index>
        38</index></_>
    <_>
      <sv_count>1</sv_count>
      <rho>1.3907152356394978e-001</rho>
      <alpha>
        1.</alpha>
      <index>
        39</index></_>
    <_>
      <sv_count>1</sv_count>
      <rho>-1.3230093673232021e-001</rho>
      <alpha>
        1.</alpha>
      <index>
        40</index></_>
    <_>
      <sv_count>1</sv_count>
      <rho>-5.7067700360909768e-001</rho>
      <alpha>
        1.</alpha>
      <index>
        41</index></_>
    <_>
      <sv_count>1</sv_count>
      <rho>-2.7198341585517516e-001</rho>
      <alpha>
        1.</alpha>
      <index>
        42</index></_>
    <_>
      <sv_count>1</sv_count>
      <rho>-4.6960572785082288e-001</rho>
      <alpha>
        1.</alpha>
      <index>
        43</index></_>
    <_>
      <sv_count>1</sv_count>
      <rho>-3.1519415847350529e-001</rho>
      <alpha>
        1.</alpha>
      <index>
        44</index></_></decision_functions></my_svm>
</opencv_storage>
