<?xml version="1.0"?>
<opencv_storage>
<my_svm type_id="opencv-ml-svm">
  <svm_type>C_SVC</svm_type>
  <kernel><type>LINEAR</type></kernel>
  <C>1.</C>
  <term_criteria><epsilon>2.2204460492503131e-016</epsilon>
    <iterations>100</iterations></term_criteria>
  <var_all>900</var_all>
  <var_count>900</var_count>
  <class_count>14</class_count>
  <class_labels type_id="opencv-matrix">
    <rows>1</rows>
    <cols>14</cols>
    <dt>i</dt>
    <data>
      0 1 2 3 4 5 6 7 8 9 10 11 12 13</data></class_labels>
  <sv_total>91</sv_total>
  <support_vectors>
    <_>
      1.18070291e-002 1.84942260e-002 1.38737634e-002 -1.00394608e-002
      -2.61742361e-002 -1.87853689e-003 2.47710943e-003 2.70998734e-003
      -6.08369336e-003 1.69049073e-002 2.69487333e-002 2.62749530e-002
      1.50603091e-003 -3.50461081e-002 -1.23678371e-002 -7.93062057e-003
      -6.50619529e-003 -6.85842335e-003 2.36656908e-002 2.43551843e-002
      1.84127651e-002 -5.69145149e-003 -1.35358637e-002 -9.47264209e-003
      -7.87946454e-004 1.93905842e-003 6.87994668e-003 2.68480163e-002
      2.86313780e-002 2.74047330e-002 -4.61276248e-003 -3.58721130e-002
      -2.34487467e-002 -2.65749008e-003 1.29934994e-003 1.12787914e-002
      3.35577838e-002 2.21343301e-002 1.60197113e-002 -1.17401788e-002
      -4.04575840e-002 -2.33387370e-002 -1.34514933e-002
      -5.72948065e-003 1.39798708e-002 2.82710548e-002 2.20307685e-003
      -7.51620205e-003 -1.70946624e-002 -2.22936179e-002
      -8.31058901e-003 -1.82975852e-003 2.84082256e-003 2.55047511e-002
      2.93456633e-002 2.36369316e-002 1.91705599e-002 -2.06975527e-002
      -4.03947271e-002 -3.33895497e-002 -7.66758295e-003
      -3.69594025e-004 1.82554852e-002 1.92041937e-002 7.79874064e-003
      -6.84800092e-003 -1.56342555e-002 -2.23811530e-002
      -9.46286693e-003 -2.86964141e-003 4.77912975e-003 1.84525438e-002
      1.99021734e-002 -3.80566949e-003 -1.34509476e-002 -1.87800396e-002
      -2.64108516e-002 -1.26364948e-002 -4.75761294e-003 2.33456827e-004
      1.71512887e-002 3.08171585e-002 3.57302534e-003 -9.08087753e-003
      -1.80553868e-002 -2.67505981e-002 -2.24447995e-002
      -1.15671279e-002 -1.17852138e-002 2.37348620e-002 1.66267063e-002
      -8.37260019e-003 -2.05084849e-002 -1.89121719e-002
      -1.59293171e-002 -8.96767806e-003 -6.00762572e-003
      -5.96932194e-004 1.78138800e-002 2.25334913e-002 -3.89307528e-003
      -2.27128547e-002 -1.90623682e-002 -1.71328671e-002
      -7.76619697e-003 -1.06942104e-002 -1.62648652e-002 1.55321239e-002
      2.23922394e-002 1.49713072e-003 -4.60240757e-003 -1.12903304e-002
      -2.24423781e-002 -1.82382874e-002 -1.28965229e-002
      -1.19473226e-002 2.28353906e-002 8.72513745e-003 -7.42270332e-003
      -6.28663925e-003 -1.60413012e-002 -2.58953758e-002 4.50191146e-004
      1.77379381e-002 1.16768843e-002 1.68020576e-002 2.35522445e-002
      6.86989981e-004 -1.14966566e-002 -1.26469219e-002 -1.32767865e-002
      -1.55297443e-002 -1.70508623e-002 -1.74504351e-002 1.77999083e-002
      1.26029011e-002 -2.50625238e-003 -9.23520979e-003 -1.76117085e-002
      -2.68654209e-002 -7.18243513e-003 7.11177569e-003 2.84624868e-003
      1.33694205e-002 1.59015190e-002 -1.37414620e-003 -5.99038368e-003
      -2.25628037e-002 -3.85952145e-002 1.50916083e-002 2.68322323e-002
      2.41876617e-002 2.61884779e-002 6.72565540e-003 -7.70723214e-004
      -9.95661039e-003 -2.87519395e-002 -3.74147408e-002 6.64549414e-003
      1.48844244e-002 1.51712932e-002 1.90365184e-002 1.42803313e-002
      1.18299609e-003 -2.74320738e-003 -2.11961940e-002 -3.82727161e-002
      7.37019582e-003 2.61675138e-002 2.42648926e-002 2.31629182e-002
      1.78397465e-002 2.55539641e-003 -2.07597367e-003 -2.21132115e-002
      -1.39259258e-002 1.08121298e-002 2.11699083e-002 2.00367719e-002
      2.34351195e-002 6.14072103e-003 1.34290121e-002 9.64280218e-003
      -8.84067325e-004 -1.09580727e-002 -8.71185027e-003
      -4.66347177e-004 1.56056951e-003 1.94255018e-003 2.09097043e-002
      2.96666026e-002 2.86846608e-002 8.06549098e-003 -3.31992917e-002
      -3.07716001e-002 -7.24081835e-003 -1.41090713e-003 4.12938744e-003
      3.25097586e-003 2.06580926e-002 1.91727933e-002 1.83165148e-002
      6.36756280e-003 -1.04255136e-002 -3.28228669e-003 -8.77101265e-004
      8.31877787e-006 -2.12024944e-003 2.78989412e-002 2.83066425e-002
      2.23617591e-002 -2.02657841e-002 -3.80125642e-002 -2.82997563e-002
      -1.41996164e-002 -1.40768951e-002 2.67811101e-002 2.84003485e-002
      2.63381302e-002 8.46078806e-003 -3.29670236e-002 -2.18353756e-002
      -6.85018254e-003 -1.94815092e-003 7.84145016e-003 1.57143958e-002
      1.71825700e-002 -3.62355873e-004 -8.56154540e-004 -6.35279296e-003
      -2.32846709e-003 4.36023867e-004 1.11086462e-002 7.20449351e-003
      -2.13167872e-002 1.79567076e-002 2.29720455e-002 1.70699507e-002
      -1.20122079e-002 -1.88427400e-002 -1.55769959e-002
      -8.54962505e-003 -2.83699986e-002 -1.13263233e-002 6.93907216e-003
      4.26601293e-003 5.60902152e-003 4.15884191e-003 7.81699084e-003
      6.37192605e-003 9.75130592e-003 -1.07087214e-002 2.07905602e-002
      3.01553635e-003 -7.18697254e-003 -1.65416382e-003 -1.94936141e-003
      5.31146761e-005 6.55423326e-004 9.51121561e-003 1.56259555e-002
      2.02001464e-002 1.05604413e-003 -7.93917105e-003 -2.93313735e-003
      1.70182949e-003 1.34398160e-003 -1.22029032e-003 7.84904696e-005
      1.98888797e-002 -1.63008571e-002 1.32552616e-003 4.66302922e-003
      6.10021083e-003 9.05517954e-003 8.20044056e-003 4.33503324e-003
      -1.69795798e-003 -1.78042930e-002 -1.37968287e-002
      -1.23770917e-002 1.08361838e-003 6.82246033e-003 1.80149823e-002
      1.27603151e-002 3.95988254e-003 -1.64591882e-003 -1.94023997e-002
      1.38752144e-002 -3.50062648e-004 -7.01936567e-003 -4.47399123e-003
      -1.75643095e-003 -5.05696563e-003 -4.50193509e-003
      -3.78145045e-003 1.82812996e-002 7.34606246e-003 -4.76324407e-004
      -6.58836821e-003 -8.39095190e-003 -9.51622054e-003 1.13433683e-002
      2.43965611e-002 1.90316290e-002 1.00173587e-002 -1.44166201e-002
      -1.50109977e-002 -1.94156077e-003 1.45538140e-003 4.65506688e-003
      2.62725167e-003 -6.51854381e-004 -8.15764815e-003 -1.90420486e-002
      -1.94116477e-002 -1.15636438e-002 -7.55683659e-003
      -4.60712053e-003 1.43993273e-003 2.23438405e-002 2.58073714e-002
      7.97772780e-003 -2.07452793e-002 -6.94050966e-003 -4.42684302e-003
      -8.82095471e-003 -2.46559400e-002 -2.88468339e-002 1.45383766e-002
      2.75552459e-002 2.45571490e-002 9.96716414e-003 1.34057668e-003
      -1.40587287e-003 -5.47663728e-003 -2.43654400e-002
      -4.28444613e-003 1.76605806e-002 2.42349692e-002 1.48090646e-002
      8.90159979e-003 -3.18536349e-002 -2.05902718e-002 -2.16345061e-002
      -2.48783827e-002 1.38135185e-003 2.71326005e-002 2.90061496e-002
      2.36925464e-002 -1.98015179e-002 -7.21014198e-003 -1.26449754e-002
      -1.95866525e-002 -2.86601447e-002 -1.72762107e-003 2.57827491e-002
      2.96730455e-002 2.21263245e-002 6.69304375e-003 -4.53797402e-003
      3.35939066e-003 6.93121878e-003 2.31118519e-002 2.53589060e-002
      -1.05782063e-003 -5.93677489e-003 -3.86308273e-003
      -7.89252017e-003 -1.72375459e-002 4.65944083e-003 1.15365870e-002
      2.37200335e-002 1.47266090e-002 -1.62322111e-002 -2.28632856e-002
      -1.39684398e-002 -2.10275371e-002 -3.40656303e-002
      -5.01198275e-003 -7.38156319e-004 1.04288589e-002 2.82315165e-002
      2.89699528e-002 9.63459909e-003 -1.65754405e-003 -2.42737830e-002
      -3.35371606e-002 -8.69605597e-003 -7.62808893e-004 5.24709094e-003
      2.39299312e-002 1.95015091e-002 7.48463208e-003 8.66163615e-003
      -2.24959198e-002 -2.57680379e-002 2.68545863e-003 1.18224965e-002
      1.71911437e-002 1.53802065e-002 1.50445255e-003 2.64689070e-003
      7.04251928e-003 -2.42885798e-002 -2.41683573e-002 1.42513460e-003
      6.79883687e-003 8.20474606e-003 1.35116596e-002 1.86154433e-002
      1.61742996e-002 1.23307323e-002 -2.25307252e-002 -1.82854589e-002
      2.14136275e-003 1.10510932e-002 1.56728607e-002 2.15904433e-002
      2.27249172e-002 2.03876663e-002 1.67425126e-002 -5.96984755e-003
      -2.25408990e-002 3.54654295e-003 1.16874268e-002 1.52073726e-002
      1.86220538e-002 1.18720103e-002 7.95602147e-003 2.38631479e-003
      -2.17539836e-002 -2.44421698e-002 1.08600473e-002 1.34019703e-002
      1.48793012e-002 2.01095752e-002 1.56884380e-002 1.12036886e-002
      3.55895935e-003 -2.16579251e-002 -2.73600575e-002 5.56461688e-004
      1.63589641e-002 1.99509189e-002 2.69395690e-002 1.97714083e-002
      1.59910135e-002 1.04796775e-002 -1.89444292e-002 -1.71932913e-002
      8.42053350e-003 1.08152721e-002 1.60374232e-002 2.11624727e-002
      1.08674895e-002 6.55958569e-003 3.98014765e-003 -2.10815426e-002
      -1.93777960e-002 9.90404375e-003 1.50111271e-002 1.96702518e-002
      2.60074399e-002 1.75750032e-002 1.38586313e-002 1.87125411e-002
      -1.22628277e-002 -2.08011176e-002 3.10383155e-004 9.89000034e-003
      1.19580673e-002 1.27827534e-002 9.47614573e-003 9.14882123e-003
      5.70518197e-003 -2.24235579e-002 -1.82413813e-002 4.91266884e-003
      6.85057091e-003 1.36084938e-002 2.13921517e-002 2.46774666e-002
      2.23610681e-002 9.73981433e-003 -2.24417858e-002 -1.75746102e-002
      4.06824937e-003 7.51939835e-003 1.05330423e-002 1.14552649e-002
      8.12743977e-003 7.50842784e-003 1.55766420e-002 -1.52079826e-002
      -1.28851384e-002 2.34100502e-002 2.73270216e-002 2.44262721e-002
      1.92499999e-002 1.63133461e-002 5.14878193e-003 -2.29634286e-004
      -2.12147292e-002 -3.11184842e-002 -2.66849007e-002
      -1.91565622e-002 -4.38337121e-003 3.02961394e-002 2.86041964e-002
      1.35622434e-002 4.59324894e-003 -3.01392972e-002 -1.81317460e-002
      -2.19612662e-002 -2.36304644e-002 -8.57383199e-003 2.40617301e-002
      3.16090025e-002 1.37750581e-002 6.61326852e-003 -2.13504233e-003
      -2.43164729e-002 8.96889716e-003 1.76182855e-002 2.33523194e-002
      3.08178421e-002 8.28688685e-003 -1.10394163e-002 -2.12536473e-002
      -3.04585025e-002 -3.23397107e-003 2.83364835e-003 5.63388178e-003
      1.60134565e-002 2.63704546e-002 8.93787481e-003 -1.65797025e-002
      -1.78553909e-002 -1.35067990e-002 -4.13143709e-002
      -4.78083082e-003 -2.90835975e-003 -4.55535424e-004 2.82948129e-002
      2.89175082e-002 2.62005460e-002 1.06562143e-002 -2.37676483e-002
      -3.91677432e-002 -7.84809887e-003 -2.43406650e-003 1.31113897e-003
      2.05141082e-002 2.59366594e-002 2.60613430e-002 1.85793005e-002
      -2.78411228e-002 -2.03256905e-002 -1.35069191e-002
      -8.11583828e-003 -1.13399269e-003 2.45828517e-002 2.77423784e-002
      2.32534017e-002 1.26485499e-002 -1.76439378e-002 -1.91535018e-002
      -8.97952076e-003 -3.83932609e-003 4.89492493e-004 5.36101358e-003
      2.18418594e-002 2.22232938e-002 1.83294415e-002 -2.20905524e-003
      -2.12010872e-002 6.37165038e-004 4.63883672e-003 7.23452214e-003
      1.35961827e-002 1.47991385e-002 1.67444460e-002 1.40746608e-002
      -2.06551999e-002 -2.04437654e-002 -1.95315777e-004 6.16111327e-003
      7.13488786e-003 7.78350607e-003 3.90175876e-004 -2.71717436e-003
      -6.08595274e-003 -1.19197275e-002 3.80454957e-003 7.41613284e-003
      3.95085383e-003 3.78452823e-003 4.66011884e-003 1.34068001e-002
      2.03187689e-002 1.51808616e-002 7.48795597e-003 3.65656498e-003
      -8.46009050e-003 2.89221387e-003 9.19988437e-004 -7.05470957e-005
      -3.42686800e-003 -5.20907482e-003 3.24151432e-003 1.97040453e-003
      -1.77273266e-002 2.97426479e-004 4.19102190e-003 4.44486132e-003
      5.27740503e-003 8.10773985e-004 -9.28341469e-005 -1.04962848e-003
      -1.21198399e-002 -7.94050284e-003 6.91763649e-004 4.21972526e-003
      4.94084926e-003 7.43028009e-003 3.48845148e-003 4.97069908e-003
      1.03677744e-002 -1.51486034e-002 5.93397906e-003 -5.82979247e-003
      6.63401617e-004 -1.25573296e-003 -2.29667407e-003 -4.20110626e-003
      -3.39283794e-003 5.70648722e-003 1.11238407e-002 3.62337148e-003
      1.58191496e-003 8.67717259e-004 -1.95398787e-003 -5.72897494e-003
      -4.10915958e-003 1.72682782e-003 9.23622213e-003 1.17897736e-002
      -1.56066092e-002 3.01720691e-004 4.91586886e-003 2.88455002e-003
      2.03305390e-003 2.15034955e-003 4.97800624e-003 5.22550894e-003
      -1.51923457e-002 -1.97987314e-002 2.39762794e-002 3.05285584e-002
      2.06984654e-002 4.11379570e-003 6.72674287e-005 -1.72766007e-003
      -1.48611050e-002 -2.55495831e-002 1.44319853e-003 2.37770542e-003
      3.29008326e-003 -1.29370345e-003 -4.51890053e-003 -1.99876050e-003
      3.01835733e-003 7.84105971e-004 3.67660285e-003 3.78902245e-004
      2.53163427e-002 3.23851369e-002 2.05512196e-002 -4.64931363e-003
      -6.91174949e-003 -5.74014382e-003 -1.95228346e-002
      -6.78113848e-003 -1.94918364e-002 2.57446859e-002 3.18890512e-002
      3.02178450e-002 4.79838951e-003 -1.24501418e-002 -1.46738049e-002
      -2.01110467e-002 -3.15864682e-002 7.65556982e-003 2.17619464e-002
      2.77126338e-002 2.71557849e-002 -2.38744798e-003 -1.97735745e-002
      -1.73400491e-002 -1.20105995e-002 -5.84147358e-003
      -5.11187091e-006 2.31054723e-002 3.14268246e-002 2.33587082e-002
      -2.60175169e-002 -3.21955793e-002 -1.97020285e-002
      -1.92014407e-002 -1.81771275e-002 1.18724350e-002 1.93898641e-002
      2.77046505e-002 2.86004096e-002 -5.65354899e-003 -3.24174836e-002
      -1.61020029e-002 -7.83118047e-003 -2.33550512e-004
      -1.17590313e-003 -1.99740846e-002 -1.89054348e-002
      -1.19464248e-002 7.19106337e-003 1.38011072e-002 1.87695343e-002
      1.43213654e-002 4.41173930e-003 -2.94257444e-003 -1.78269390e-002
      -1.57095045e-002 -9.34422761e-003 -3.95187503e-003 9.47953667e-003
      1.47396512e-002 6.95548998e-003 3.14902747e-003 6.00906229e-003
      -4.20601154e-003 -1.24808280e-002 -1.17500024e-002
      -1.64694730e-002 -1.23636257e-002 6.17840188e-003 1.15813920e-002
      1.12393536e-002 1.03483126e-002 -3.46492347e-003 -1.46552585e-002
      -1.30775813e-002 -8.82032514e-003 3.30411643e-003 1.44769549e-002
      1.65924057e-002 2.05112062e-002 4.77882242e-003 -8.44611321e-003
      -7.11200479e-003 -3.96509375e-003 -2.99363350e-003 2.43951171e-003
      3.90121853e-003 -7.89311901e-003 5.07553061e-003 2.43708701e-003
      -2.15611756e-002 -1.02982186e-002 -7.54162017e-003
      -1.22504644e-002 -1.36476904e-002 -1.36900852e-002
      -9.52219125e-003 4.28582402e-003 2.07138900e-002 -1.09181914e-003
      -1.32448310e-002 -9.27834492e-003 -7.02897692e-003 9.64605343e-003
      1.47215063e-002 1.20450770e-002 2.41095051e-002 2.40462739e-002
      6.51073037e-003 -3.85999610e-003 -5.02690999e-003 -1.71332732e-002
      -1.58785135e-002 -1.13619557e-002 -1.32864574e-003 2.06697155e-002
      2.27123592e-003 -1.83327515e-002 -6.84038689e-003 -6.35622349e-003
      -1.45918876e-002 -1.34379594e-002 -1.10734478e-002
      -5.70116285e-003 4.91719646e-003 4.34980588e-003 -1.02314763e-002
      -5.72477095e-003 -8.02430138e-003 -1.97810903e-002
      -1.46349519e-002 -7.07335072e-003 -7.93346204e-003 3.44728003e-003
      2.99572125e-002 5.61844278e-003 -1.68107112e-003 -1.89939828e-003
      -2.49759629e-002 -1.72894299e-002 -7.80186197e-003 1.46398100e-003
      2.47872844e-002 2.11512987e-002 6.31151674e-003 -4.97957226e-003
      -2.99427891e-003 -1.67169943e-002 -1.28228003e-002
      -5.10785403e-003 3.26741696e-003 1.96014121e-002 1.30465580e-003
      -6.52774191e-003 -4.93374653e-003 -8.86596367e-003
      -1.53843518e-002 -9.61987302e-003 -4.64770338e-003
      -9.81987733e-003 3.11698299e-003 4.10239771e-003 3.68993892e-003
      1.51475854e-002 4.07749601e-003 -2.62716822e-002 -1.82282235e-002
      -1.35079157e-002 -2.26475392e-002 -1.91345590e-003 1.72395129e-002
      1.02337892e-003 -4.03355481e-003 -1.21703381e-002 -1.87987257e-002
      -5.03066415e-003 2.69385171e-004 6.76171901e-003 1.75103489e-002
      2.40056496e-002 1.64359976e-002 1.88186597e-002 1.25951844e-003
      -2.35741530e-002 -9.77608841e-003 -6.23545703e-003
      -1.55299052e-003 2.15611774e-002 2.08352357e-002 1.96958873e-002
      2.64346004e-002 2.01900471e-002 -3.86087038e-002 -2.41259448e-002
      -6.54986082e-003 -5.61155565e-003 9.76033323e-003 2.69525275e-002
      2.17503682e-002 2.17575636e-002 2.46189274e-002 -1.86936129e-002
      -3.02726943e-002 -4.78694635e-003 -2.06423970e-003 1.22837918e-002
      2.82888729e-002 2.43799370e-002 2.63988078e-002 1.92465186e-002
      -3.71225886e-002 -1.52162341e-002 -3.88660841e-003
      -2.10694550e-003 1.56626441e-002 2.19151005e-002 1.71306338e-002
      1.46157471e-002 1.32307550e-002 -3.25509310e-002 -1.96631514e-002
      -4.73934039e-003 -5.99902775e-003 3.72651080e-003</_>
    <_>
      4.73583629e-003 1.37001369e-003 -9.31928772e-003 -7.30181811e-004
      3.44656338e-003 9.42074344e-004 1.07180304e-003 3.18354316e-004
      -2.42070295e-002 1.79721005e-002 1.89993121e-002 1.03819184e-002
      -1.92925357e-003 -1.86992437e-002 -1.47378892e-002
      -8.86731781e-003 -1.08231511e-002 -2.35350206e-002 2.20726505e-002
      7.98241794e-003 -2.76286853e-003 -2.46844837e-003 -2.69559305e-003
      -3.13706580e-004 -1.29083043e-003 1.57229684e-003 3.45997512e-003
      2.69585252e-002 6.77896524e-003 3.59657512e-004 -1.12644471e-002
      -2.65109800e-002 -7.89062493e-003 -3.71824764e-003 3.24120832e-004
      7.34513858e-003 2.54455656e-002 1.45694455e-002 1.14654582e-002
      -1.89070273e-002 -2.84385961e-002 -2.45578755e-002
      -1.44566083e-002 -1.30492579e-002 -3.21206660e-003 1.57798715e-002
      -3.88098578e-003 -7.63473567e-003 -1.05248298e-002
      -1.66683346e-002 -4.04187432e-003 -4.86732041e-003
      -1.77879969e-003 1.89485773e-002 2.47033443e-002 7.50855589e-003
      9.73412825e-004 -1.92968138e-002 -2.87320390e-002 -1.67451203e-002
      -1.32377315e-002 -7.90445134e-003 -3.78875737e-003 1.31946234e-002
      9.30189900e-003 -8.73965025e-003 -1.71021596e-002 -2.80627478e-002
      -1.21276230e-002 -1.19485296e-002 -4.42241738e-003 1.28572043e-002
      1.29295159e-002 -1.17314626e-002 -1.30359698e-002 -1.19402278e-002
      -1.93012450e-002 -4.85713966e-003 -2.69329292e-003 2.66341725e-003
      2.78813783e-002 1.39592141e-002 -1.00860139e-002 -9.24231019e-003
      -7.81121384e-003 -1.59771536e-002 -9.43062361e-003
      -8.48680176e-003 -5.30885858e-003 2.56224107e-002 1.14521850e-002
      -4.93640639e-003 -1.18366638e-002 -1.69997718e-002
      -2.87662596e-002 -1.35196717e-002 -1.19315442e-002
      -2.66280817e-003 1.20175108e-002 1.33078378e-002 -1.50488503e-002
      -1.60794817e-002 -1.30343083e-002 -1.79678220e-002
      -1.27765909e-002 -1.22042680e-002 -1.62597094e-002 1.23376651e-002
      1.73748694e-002 -7.26590492e-003 -4.66205645e-003 -3.07288277e-003
      -2.82305432e-003 -2.25602696e-003 -2.08493555e-003 4.07812651e-003
      2.75813732e-002 5.34822512e-003 -3.18196118e-002 -3.55091691e-002
      -3.62849608e-002 -8.46458878e-003 2.04726215e-002 2.59919260e-002
      2.76469588e-002 2.87670121e-002 1.69784874e-002 -2.47652009e-002
      -3.52104604e-002 -1.50424019e-002 -5.24069835e-003
      -3.82583844e-003 -4.07200819e-003 -2.66839005e-003 2.09048092e-002
      1.74471624e-002 -2.99247988e-002 -3.48044187e-002 -3.66917625e-002
      -7.10102916e-003 1.81258954e-002 2.52473727e-002 2.37922557e-002
      3.02615054e-002 -7.57678831e-003 -2.21040025e-002 -3.01733445e-002
      -2.98211817e-002 -7.55269639e-003 1.87249575e-002 2.54782587e-002
      2.35132128e-002 3.98146920e-004 -5.17789228e-003 4.83567797e-004
      -5.47368079e-003 -5.05461916e-003 2.89566442e-003 1.38927326e-002
      1.17382044e-002 3.33801121e-003 -6.95600500e-003 1.07750306e-002
      -2.42520031e-002 -3.01138703e-002 -3.02271936e-002
      -9.70286969e-003 1.60091799e-002 1.58297177e-002 1.62905566e-002
      1.85228642e-002 1.33744972e-002 2.44270777e-003 -2.05814140e-003
      4.29212023e-003 1.98617708e-002 1.56940427e-002 -2.80979089e-003
      -1.07836723e-003 -1.48270850e-003 1.09238597e-002 1.43803554e-002
      1.09133208e-002 -6.30992884e-003 -9.89460479e-003 -6.41514780e-003
      -6.10215939e-004 1.54569629e-003 3.49374628e-003 2.31075250e-002
      2.04406027e-002 1.24046430e-002 -1.06485821e-002 -3.32354009e-002
      -1.03056682e-002 -3.28017841e-003 9.69802320e-004 4.64648847e-003
      8.47012643e-003 2.64268350e-002 2.90373880e-002 1.19806621e-002
      -1.34914834e-002 -2.87256818e-002 -1.78660484e-004
      -3.86406900e-005 2.69454997e-003 1.97543669e-003 2.61652935e-002
      2.69448459e-002 1.11966012e-002 -1.88524164e-002 -2.66268067e-002
      -1.50335266e-003 -4.88942547e-004 -5.87928994e-003 3.00972294e-002
      1.97600145e-002 1.15006315e-002 -3.24697839e-003 -2.47219764e-002
      -1.99849773e-002 -1.62537042e-002 -4.39853547e-003 4.38206550e-003
      2.82086320e-002 1.79452896e-002 -1.06605096e-002 -2.37928014e-002
      -2.75540352e-002 -1.41858514e-002 -9.50914435e-003 4.60571609e-003
      2.03908589e-002 2.17148708e-003 5.04889339e-003 7.81220151e-003
      -1.12058688e-003 -1.66100413e-002 -1.86742544e-002
      -7.37245055e-003 -4.69077099e-003 -1.72072072e-002 2.03685984e-002
      -5.45824086e-003 -1.98655203e-002 -2.12281588e-002
      -2.20909473e-002 -1.41831639e-003 2.59102532e-003 7.76467659e-003
      1.28365895e-002 2.82072611e-002 4.80603776e-004 -4.12731525e-003
      -7.65461102e-003 -1.41018564e-002 -3.71137424e-003
      -2.82572187e-003 8.43803212e-003 2.97303703e-002 1.98817421e-002
      -1.25726452e-002 -1.99128166e-002 -2.95776129e-002
      -1.61800813e-002 -4.84776869e-003 -7.57023925e-003
      -2.56742002e-003 2.06295494e-002 1.52119836e-002 -1.38527602e-002
      -2.75020152e-002 -1.42636923e-002 -2.13389937e-003 9.88970418e-003
      5.22915227e-003 6.07242854e-003 1.97994187e-002 1.55295003e-002
      -2.66343970e-002 -2.79933829e-002 -2.63054185e-002 6.87159831e-004
      1.09733641e-002 2.85125151e-003 4.83844522e-003 1.39755821e-002
      2.81503946e-002 -1.67508125e-002 -2.97687147e-002 -3.04182824e-002
      -1.13537498e-002 -7.58073060e-004 4.75462875e-005 4.55538230e-003
      2.97073871e-002 2.72580404e-002 -2.39890888e-002 -3.11573427e-002
      -3.17481719e-002 -1.92405458e-003 2.92813964e-002 3.32120359e-002
      2.86828410e-002 3.22101414e-002 1.90304704e-002 -2.55194046e-002
      -2.90545914e-002 -2.93554645e-002 -9.37168486e-003 4.57783835e-003
      5.19631244e-003 9.51133482e-003 1.83156785e-002 1.24624334e-002
      -2.68856138e-002 -3.05078719e-002 -2.87937690e-002
      -1.66936952e-003 2.95639280e-002 3.25115882e-002 2.60091908e-002
      1.92520954e-002 -1.06882758e-003 -2.09034476e-002 -3.02704405e-002
      -2.88618281e-002 -3.58470459e-003 1.62924659e-002 7.73160905e-003
      1.16090141e-002 1.20837893e-002 -1.11911050e-003 -2.88997311e-003
      -3.28489067e-003 1.92765996e-003 1.74321830e-002 1.07713016e-002
      -6.95647253e-003 -4.16729040e-003 3.06944596e-003 -3.47448839e-003
      -2.34849863e-002 -3.12911272e-002 -2.63471268e-002
      -5.55500714e-003 1.42235281e-002 1.88466571e-002 2.41695363e-002
      5.78355463e-003 4.09657194e-004 -5.45695517e-003 -1.10952761e-002
      -2.13006623e-002 -1.90480438e-003 8.28341488e-003 1.18680112e-002
      1.95179638e-002 1.02889016e-002 3.40304896e-003 8.06714501e-003
      1.18885199e-002 1.83329787e-002 -1.09962001e-002 -1.19035821e-002
      1.18136720e-003 1.24443788e-003 1.52398029e-003 -7.15268368e-004
      8.70941579e-003 1.39330141e-002 1.72801614e-002 -1.40183941e-002
      -1.74662247e-002 1.09891105e-003 1.75727578e-003 -2.44352734e-003
      2.30819540e-004 1.80356132e-004 1.27761520e-003 -7.70087307e-003
      -1.09962001e-002 2.21107490e-002 1.44441826e-002 1.07290056e-002
      7.56003009e-003 -2.85587012e-004 1.91493542e-003 4.59602242e-003
      -2.48581986e-003 -1.09962001e-002 1.70093197e-002 1.61912926e-002
      9.45622288e-003 4.59527830e-003 -1.34202722e-003 1.97993941e-003
      3.70736746e-003 2.73381383e-003 -8.10207333e-003 -9.33554620e-005
      1.19895032e-002 6.57488452e-003 -3.81845143e-003 2.09002546e-003
      -5.00851450e-003 -1.89027693e-002 -1.92157365e-002
      -4.34485218e-003 1.37569187e-002 1.53142232e-002 1.44167589e-002
      2.50207679e-003 9.62223799e-004 4.00569942e-003 -1.07318175e-003
      3.77457379e-003 3.17443907e-003 1.79547928e-002 1.56031149e-002
      8.06357153e-003 7.12041976e-003 -1.15216933e-002 -1.71738397e-002
      -1.41925672e-002 -1.16382055e-002 2.70293769e-003 7.44985510e-003
      2.84152292e-003 6.78779138e-003 -1.93489215e-003 8.66749138e-003
      3.00875632e-003 -2.27401163e-002 -1.16829202e-002 1.45913111e-002
      1.87495649e-002 1.59703679e-002 1.71423350e-002 1.57046039e-002
      9.45044030e-003 -1.79742631e-002 -2.14811359e-002 -1.66516937e-002
      1.76270045e-002 2.40013283e-002 1.93597581e-002 2.18596663e-002
      2.38589887e-002 6.07579388e-003 -1.21740801e-002 -1.97454672e-002
      -1.68811008e-002 1.19723119e-002 9.73198470e-003 7.32954172e-003
      1.06704356e-002 1.11313788e-002 1.31491693e-002 -1.67423412e-002
      -1.77761875e-002 -1.67857204e-002 9.08370689e-003 1.78120639e-002
      1.29692247e-002 2.12120581e-002 2.22260039e-002 1.12198079e-002
      -2.22074166e-002 -2.59892456e-002 -2.44908743e-002 5.51068038e-003
      1.43584209e-002 1.45076532e-002 1.92839745e-002 1.74857136e-002
      1.10966954e-002 -2.42890362e-002 -2.58705355e-002 -1.57719571e-002
      1.31105306e-002 2.42484044e-002 2.37697866e-002 2.46731509e-002
      1.73189100e-002 1.21855149e-002 -1.94072481e-002 -2.26067901e-002
      -2.09229086e-002 -1.02603659e-002 9.39531252e-003 6.98936172e-003
      1.56809166e-002 1.95999704e-002 1.34538030e-002 9.69403051e-003
      2.72733509e-003 -1.10847614e-004 9.90824075e-004 1.15476251e-002
      1.32492941e-003 4.41092858e-003 1.28584197e-002 5.54991966e-005
      -1.19719850e-002 -2.24534962e-002 -4.74298000e-003
      -8.34418926e-003 1.26186050e-002 1.35847563e-002 1.25025148e-002
      3.18516628e-003 1.97823625e-003 -1.14540278e-003 -3.10419989e-003
      -9.16297920e-003 -8.34418926e-003 9.08528734e-003 1.27579710e-002
      1.04440879e-002 6.73329365e-003 2.63721659e-003 1.28060933e-002
      1.84200816e-002 2.37016380e-002 -9.01978277e-003 -9.95522179e-003
      -7.39725889e-004 -2.32524099e-003 -1.39052165e-004 7.29664881e-003
      1.09624341e-002 1.63809061e-002 2.20458508e-002 -8.34418926e-003
      -9.35492758e-003 -6.98591291e-004 -4.23973252e-004 2.59109051e-003
      -5.73821506e-003 -1.56093424e-003 -1.28276891e-003
      -2.23061070e-002 -3.65034281e-003 1.43027809e-002 1.97178740e-002
      1.24121094e-002 -1.47448352e-003 -2.28634812e-002 1.04961055e-003
      1.65990146e-003 -1.16480570e-002 -7.02945003e-003 1.39677683e-002
      2.18378101e-002 8.06748122e-003 -1.89160164e-002 -6.21978287e-003
      -1.07054040e-003 -6.88513275e-004 7.92823790e-004 7.28932675e-003
      -2.67423829e-003 -4.10279213e-003 -6.51332550e-003
      -1.17243603e-002 -1.40546132e-002 1.72997953e-003 -3.92341957e-004
      -6.52435818e-004 -6.14642864e-003 1.31182568e-002 1.71492826e-002
      1.30565874e-002 -5.37224207e-003 -1.88702028e-002 -9.15840210e-004
      -5.14184870e-003 1.26244419e-003 1.62379090e-002 1.99938919e-002
      1.75705310e-002 1.59244463e-002 -5.16654877e-003 -9.31133330e-003
      -2.44906750e-002 -2.51485389e-002 -2.17002463e-002 7.22788321e-003
      2.06420920e-003 1.83186738e-003 9.81282163e-003 2.10531745e-002
      1.17219274e-003 4.92157275e-003 -4.70636273e-003 9.31358605e-004
      7.96028692e-003 2.12924201e-002 2.65803915e-002 2.55173799e-002
      1.17219274e-003 3.83019121e-003 -1.45668536e-002 -2.65936647e-002
      -2.87169330e-002 -2.63978424e-003 1.24994328e-003 2.41912901e-003
      1.82349663e-002 2.49597654e-002 1.05326464e-002 -2.53918022e-002
      -2.90825069e-002 -2.81188190e-002 1.60945929e-003 1.01287884e-003
      2.05691764e-003 8.27220362e-003 2.62069553e-002 2.24724449e-002
      -2.63064764e-002 -2.92632468e-002 -2.90965308e-002
      -4.10991634e-004 1.82653160e-003 4.51538526e-003 1.08924657e-002
      2.45015267e-002 3.90788205e-002 -1.55652212e-002 -3.15101855e-002
      -3.35685834e-002 -8.91376846e-003 -9.22702777e-004 1.34546787e-003
      1.68268997e-002 4.48584184e-002 4.11144532e-002 -7.87039008e-003
      -3.20354290e-002 -3.40973027e-002 -9.32006910e-003
      -3.84488073e-003 1.18097069e-003 1.21233109e-002 4.45616171e-002
      4.61951923e-003 -2.68714391e-002 -2.75110137e-002 -3.01501285e-002
      -2.85388678e-002 -9.50125139e-003 -3.53026087e-003 3.43686016e-003
      1.69522893e-002 1.23011032e-002 1.94394495e-002 1.97331570e-002
      -1.54211291e-003 -2.99869627e-002 -2.00208556e-002
      -1.19904205e-002 -1.05133234e-002 -1.14956259e-004 2.52704844e-002
      -1.05129909e-002 -2.61918306e-002 -3.23767662e-002
      -1.28150349e-002 -1.26431966e-002 -5.14543103e-003 3.17162112e-003
      3.14149149e-002 3.07869930e-002 2.94519570e-002 2.91044209e-002
      1.01104602e-002 -3.05239856e-002 -1.52306994e-002 -9.38655250e-003
      -9.87298694e-003 2.48397160e-002 4.78157122e-003 2.64927801e-002
      3.16591337e-002 2.62658447e-002 -3.73349451e-002 -1.70994345e-002
      -1.87450217e-003 -3.42023047e-003 -1.33506756e-003 1.02867885e-002
      2.33686790e-002 2.81330664e-002 1.71645060e-002 -2.75268294e-002
      -1.25816995e-002 -2.12326137e-004 -3.08385119e-004 2.79823504e-003
      2.19931733e-002 2.81612948e-002 2.97554992e-002 5.05672721e-003
      -4.57301997e-002 -1.21889114e-002 -1.78810500e-003
      -2.07751594e-003 5.24178799e-003 1.65129732e-002 1.92334987e-002
      2.70664115e-002 8.50116194e-004 -2.16616821e-002 -1.21983653e-002
      -1.51378277e-004 -2.69834534e-004 4.30693990e-003 1.83890481e-002
      6.45959657e-003 1.43853060e-004 4.72106738e-003 1.40509708e-002
      -9.21285432e-003 -1.12211639e-002 2.11152295e-003 1.15577830e-002
      -4.71875630e-003 -9.59280442e-005 -1.84401614e-003 5.61613648e-004
      -4.65265103e-003 6.21683663e-003 1.32113602e-002 1.26045682e-002
      6.70514815e-003 1.27259130e-002 1.27128148e-002 5.58496546e-003
      8.96919891e-003 3.63197341e-003 -2.37474460e-002 -2.00022366e-002
      -1.15639530e-002 -2.83997710e-004 -1.28098754e-002
      -4.17462876e-003 2.61182035e-003 3.50881182e-003 8.80685076e-003
      8.05289112e-003 8.32429715e-003 2.82228598e-003 -6.52231881e-003
      -8.13746545e-003 -1.10025713e-002 -4.08675056e-003 9.32772178e-004
      3.80860711e-003 1.75273456e-002 1.88922491e-002 1.38414865e-002
      1.75156482e-002 5.06239990e-003 -2.65708100e-002 -3.15304287e-002
      -2.66452730e-002 -4.82201483e-003 1.45136437e-003 2.52136216e-003
      9.11553390e-003 2.94793323e-002 -1.08079668e-002 -2.73118876e-002
      -2.60460470e-003 4.62096417e-004 7.46533833e-003 2.55797207e-002
      2.31084321e-002 2.38441303e-002 2.26315968e-002 -3.41294520e-003
      -2.23958027e-002 -1.47399083e-002 -9.08084121e-003 1.18015218e-003
      1.29568833e-003 2.92343344e-003 1.14769898e-002 2.61099413e-002
      2.28127651e-002 -2.92047616e-002 -3.37647684e-002 -3.47556397e-002
      -2.70050094e-002 -5.28848125e-003 -9.52783274e-004 9.12828557e-003
      3.76069210e-002 3.16171199e-002 -8.62064771e-003 -3.12398020e-002
      -3.51209044e-002 -2.30665524e-002 -1.13808643e-002
      -7.57858669e-003 2.05210806e-003 3.41238976e-002 1.00900587e-002
      -2.10608076e-002 -2.61612516e-002 -2.37849560e-002
      -9.30471905e-003 -3.69475689e-003 -6.47034321e-004 1.03200711e-002
      2.03940049e-002 2.48206612e-002 7.36922724e-004 -7.64921913e-003
      -1.17765255e-002 -9.74808447e-003 -6.80061989e-003
      -5.95566258e-003 1.25672780e-002 2.63266973e-002 1.07654817e-002
      -1.70743447e-002 -1.79804191e-002 -2.15784889e-002
      -1.42267495e-002 -1.30085908e-002 -1.56089701e-002
      -1.21441074e-002 1.31642241e-002 1.48326326e-002 2.31805095e-003
      4.15284943e-004 -4.46344307e-003 -2.14138646e-002 -1.31933717e-002
      -1.22268070e-002 -1.85874589e-002 1.04107000e-002 1.65790189e-002
      -1.17808452e-003 -3.99221200e-003 -7.55114714e-003
      -1.11388601e-002 -6.77607255e-003 -1.54140620e-002
      -6.14224526e-004 1.53634818e-002 2.25615669e-002 1.55106243e-002
      1.43981650e-002 4.28151153e-003 -1.52087426e-002 -1.81882586e-002
      -1.97309442e-002 -1.48858353e-002 1.85420308e-002 2.68946979e-002
      2.23559607e-002 2.00660396e-002 -2.76013114e-003 -2.87492163e-002
      -1.28823891e-002 -3.50694032e-003 -1.94065948e-003 1.32366531e-002
      1.79018062e-002 1.51252476e-002 1.98355783e-002 1.67503965e-003
      -9.19683650e-003 -2.11622156e-002 -5.27304364e-003
      -3.57434363e-003 9.15631838e-003 2.81726476e-002 2.34785248e-002
      2.45474838e-002 1.64581817e-002 -1.84689071e-002 -2.02377439e-002
      -1.77362394e-002 -1.11215673e-002 1.09417560e-002 -3.18575860e-003
      1.12895323e-002 1.35470498e-002 9.62375756e-003 -1.62430741e-002
      -2.24181656e-002 -2.20081136e-002 -2.41406094e-002
      -1.05008278e-002</_>
    <_>
      7.04263570e-003 1.37225948e-002 -1.30270440e-002 -1.63327008e-002
      -2.89467559e-003 -5.05768461e-004 2.02492718e-003 1.10307476e-003
      -1.43302875e-002 1.95805095e-002 2.70599592e-002 1.07640168e-002
      -4.49767977e-004 -2.89623067e-002 -2.11452916e-002
      -1.23345712e-002 -1.18765226e-002 -1.18573783e-002 2.56210882e-002
      1.80880167e-002 6.59048033e-004 3.25015222e-004 -3.70580656e-003
      -9.97037441e-003 -1.44201808e-003 1.36670435e-003 3.76430992e-003
      2.85786502e-002 1.82063710e-002 8.93868797e-004 -1.26873627e-002
      -3.35812978e-002 -1.69493407e-002 -4.61334363e-003
      -2.41993243e-004 4.09164140e-003 4.45693694e-002 2.60850582e-002
      1.79107916e-002 -1.81074683e-002 -4.11420800e-002 -2.87222266e-002
      -1.19959749e-002 -4.97603603e-003 1.72298308e-002 1.91884190e-002
      -8.70849658e-003 -1.49090076e-002 -1.90324187e-002
      -1.99795943e-002 -8.53708014e-003 -1.71471923e-003 2.16679578e-003
      2.59753652e-002 3.98997366e-002 2.46014297e-002 1.34180365e-002
      -2.39323564e-002 -4.16972935e-002 -2.55919006e-002
      -6.54898444e-003 1.19404751e-003 1.55174565e-002 1.58857014e-002
      -8.91773403e-003 -2.88578440e-002 -3.58747728e-002
      -4.06513363e-002 -1.61142275e-002 -2.30691838e-003 1.04620568e-002
      2.59948894e-002 1.67824235e-002 -3.24294367e-003 -6.30387990e-003
      -5.55646606e-003 -6.38758577e-003 -4.30120574e-003
      -7.38171907e-003 -4.24143532e-003 1.10878777e-002 3.54060754e-002
      1.45823946e-002 1.10512483e-003 -5.29833324e-003 -1.30396839e-002
      -1.15721822e-002 -1.22680673e-002 -6.11000787e-003 1.95595510e-002
      1.73353106e-002 -1.37445871e-002 -1.69544108e-002 -3.12186070e-002
      -3.59726846e-002 -2.16685180e-002 -1.88340750e-002
      -2.21464993e-003 1.84930600e-002 2.78894175e-002 1.14160962e-002
      -5.03350701e-003 -1.59167591e-002 -3.64717655e-002
      -3.69823277e-002 -3.08147930e-002 -1.26720592e-002 1.82585064e-002
      2.70331260e-002 6.60814857e-003 -1.99929252e-003 -1.53825087e-002
      -2.47667972e-002 -1.36589836e-002 -7.52804708e-003 5.86255267e-003
      3.20313834e-002 9.30314511e-003 -1.02649471e-002 -2.03586910e-002
      -3.30619961e-002 -3.05489358e-002 -7.07761943e-003 8.66491999e-003
      2.56765708e-002 3.39460745e-002 2.74978373e-002 3.20921210e-003
      -1.13816829e-002 -2.03079190e-002 -3.77247483e-002
      -3.60022224e-002 -1.66412853e-002 -5.43076405e-003 2.56913006e-002
      2.10907571e-002 1.98216617e-006 -7.70904776e-003 -2.33182106e-002
      -3.20503488e-002 -9.63484682e-003 -3.99913359e-003 6.08275086e-003
      2.23796796e-002 1.35169801e-004 -4.79641464e-003 -1.10416654e-002
      -1.36297848e-002 -1.92657933e-002 1.20694975e-004 4.39456524e-003
      1.47931455e-002 2.18490716e-002 5.12775080e-003 9.59236547e-003
      -1.58682803e-003 -6.71914488e-004 -3.93593265e-003
      -1.74390543e-002 -1.72780100e-002 -1.17613385e-002 2.60669549e-005
      2.03429908e-002 4.00415435e-003 -1.13193877e-003 -5.76823577e-003
      -2.71620229e-002 -4.75666020e-003 8.20882560e-004 1.03552165e-002
      2.78308075e-002 2.16191616e-002 5.77635178e-003 -1.21129997e-005
      7.30537437e-003 -1.32572639e-003 -3.67140234e-003 -4.48910892e-003
      -7.02349644e-005 1.19719859e-002 1.17817475e-002 1.96239930e-002
      1.64281242e-002 -3.78615013e-003 -1.60446204e-002 -1.34674003e-002
      -8.87157978e-004 1.77948212e-003 2.38899863e-003 2.15858109e-002
      2.79789343e-002 2.07101554e-002 -6.31243922e-003 -4.50558662e-002
      -1.54241202e-002 -3.26940184e-003 -8.66447052e-004
      -1.04243006e-003 8.58724117e-003 3.21921743e-002 3.62992063e-002
      1.36104785e-002 -2.08531562e-002 -1.76528208e-002 -6.21566796e-005
      1.28615729e-003 2.72014993e-003 2.31237151e-003 3.45181115e-002
      3.47766504e-002 1.82102341e-002 -2.80271005e-002 -1.97258629e-002
      -1.12408027e-003 -2.47140275e-003 -3.84626887e-003 4.08966169e-002
      3.29469852e-002 3.01449262e-002 3.99863813e-003 -4.64419089e-002
      -1.32861361e-002 -2.52555800e-003 9.66273830e-004 1.80048216e-002
      4.12515961e-002 2.36983933e-002 -4.78316611e-003 -4.55168895e-002
      -5.66627234e-002 -1.21536488e-002 1.75704912e-003 1.78555194e-002
      4.45448607e-002 1.58689395e-002 2.06027497e-002 2.51219384e-002
      1.01824831e-002 -4.10118215e-002 -3.46476818e-003 3.35549400e-003
      5.06799109e-003 3.52670136e-003 3.29989530e-002 1.42633999e-002
      1.46280811e-003 -2.71907840e-002 -4.98400368e-002 -4.00571665e-003
      1.30830696e-002 2.47272737e-002 2.70843040e-002 4.18620706e-002
      4.55615949e-003 -2.64550536e-003 -3.14699560e-002 -5.15646785e-002
      -1.44090177e-002 -8.48790980e-004 1.74742043e-002 4.44475114e-002
      4.65163514e-002 1.45564340e-002 3.05389240e-003 -2.24906448e-002
      -4.74217236e-002 -2.23092046e-002 -6.41990127e-003 6.38042390e-003
      4.47205417e-002 2.55662873e-002 1.25454441e-002 8.40789266e-003
      -2.46684011e-002 -3.86827849e-002 6.37153117e-003 1.10436035e-002
      2.00651586e-002 3.39168124e-002 3.54361013e-002 1.36142932e-002
      9.94626060e-003 -2.82041915e-002 -2.33887061e-002 6.64209307e-004
      6.91969134e-003 1.37710823e-002 2.75344439e-002 3.26617807e-002
      8.72341637e-003 -5.04934788e-003 -2.38556899e-002 -4.40909937e-002
      -3.31929848e-002 -9.06923320e-003 2.58052372e-003 3.24939005e-002
      3.01394016e-002 4.50356025e-003 -4.83121676e-003 -1.38060246e-002
      -3.47922146e-002 -4.35971975e-004 1.70969721e-002 2.34015211e-002
      2.84032505e-002 2.31243223e-002 5.50135877e-003 -9.25411528e-004
      -2.90932488e-002 -3.68078686e-002 -2.81802323e-002
      -4.31166496e-003 7.99418427e-003 1.57996751e-002 1.18598258e-002
      -4.30026732e-004 -4.59494209e-003 -2.15938482e-002
      -3.59270871e-002 1.06358863e-002 2.78864689e-002 2.60770675e-002
      1.71122979e-002 9.51157697e-003 1.18184567e-003 9.61670303e-005
      -4.37382236e-003 -4.51792032e-002 -6.62075542e-003 1.70412362e-002
      2.48171259e-002 1.71835963e-002 2.84773298e-003 3.25048226e-004
      -1.73038885e-003 -2.70662276e-004 -1.82104632e-002
      -2.85396213e-003 1.61469020e-002 1.57839824e-002 6.37450861e-003
      8.83277680e-004 5.41845453e-004 2.23698662e-004 -1.32276295e-002
      -2.24533845e-002 1.32345380e-002 3.32677811e-002 3.54072489e-002
      8.61628074e-003 1.79190387e-003 -1.23177737e-003 -1.91961089e-003
      -2.07083151e-002 -1.82104632e-002 1.36243403e-002 3.53164263e-002
      3.33516262e-002 1.45740937e-002 1.89136504e-003 9.26356483e-003
      1.44980513e-002 1.98912267e-002 -1.78793557e-002 -3.26183136e-003
      9.59952653e-004 2.35003955e-003 1.24295836e-003 -2.63981218e-003
      1.13506950e-002 1.93321109e-002 2.17352714e-002 -2.19196156e-002
      -6.34654472e-003 2.61274818e-003 4.80217719e-003 -1.44120038e-003
      -1.83645322e-003 -1.72799977e-004 1.60891726e-003 7.90405180e-003
      -1.78793557e-002 2.10186299e-002 1.63083151e-002 1.20103890e-002
      7.10460776e-003 -2.47213268e-003 -9.29195725e-004 4.09653457e-003
      3.58614582e-003 -1.78793557e-002 1.40938042e-002 2.06951331e-002
      1.56761911e-002 7.42024463e-003 2.13704095e-003 1.02338027e-002
      1.32696545e-002 1.18688801e-002 -2.49178242e-002 9.58741829e-003
      1.95978153e-002 1.72672085e-002 3.79804871e-003 9.52786766e-003
      9.93311405e-003 6.59867376e-003 -5.53205283e-003 -2.78206319e-002
      1.36410398e-003 2.84067485e-002 2.66377479e-002 1.13813095e-002
      5.36408927e-003 -4.09367634e-003 -2.98969587e-003 2.49846210e-003
      -9.39868577e-003 2.31697112e-002 2.38342099e-002 1.70263667e-002
      1.69305988e-002 1.34373400e-002 -5.36640687e-003 -1.21045411e-002
      -1.91446450e-002 -1.69175863e-002 -1.39116182e-003 1.35231381e-002
      8.36153701e-003 9.23817232e-003 1.09680723e-002 1.53591400e-002
      1.25027345e-002 -4.53239959e-003 -1.99732762e-002 1.21958065e-003
      2.21770853e-002 2.53939498e-002 1.99268479e-002 1.44708483e-002
      1.62546393e-002 1.28474236e-002 -7.58888246e-003 -1.47121530e-002
      1.38493965e-003 1.72968935e-002 2.62422208e-002 3.09502892e-002
      1.50931375e-002 1.19089456e-002 1.19250435e-002 -1.66289194e-003
      -1.75308045e-002 -1.87542327e-002 1.51232607e-003 7.16891373e-003
      1.39210457e-002 2.63565760e-002 1.91583056e-002 2.01074760e-002
      1.02967126e-002 -1.47121530e-002 -2.21395139e-002 -2.73755919e-002
      -4.01606644e-003 2.76758783e-002 1.49005093e-002 5.59934648e-003
      -5.66059316e-004 -2.15434004e-002 -1.87772941e-002
      -1.30379293e-002 7.71750091e-003 1.75906904e-002 1.69230103e-002
      1.43321455e-002 3.57933273e-003 -3.56157147e-003 -9.94438212e-003
      -1.31817497e-002 1.67584959e-002 2.36688890e-002 2.82493811e-002
      2.01464687e-002 2.07498409e-002 7.43525289e-003 1.51508779e-003
      -4.90384828e-003 -2.04131771e-002 -2.31376048e-002
      -2.78465617e-002 -1.38650332e-002 1.52839189e-002 1.90719292e-002
      8.58013425e-003 1.31637545e-003 -9.65448190e-003 -8.42120126e-003
      2.70329299e-003 -6.71681541e-004 7.46914279e-003 1.93542410e-002
      2.98883114e-003 1.64874538e-003 1.06042367e-003 -2.00295894e-004
      -1.42787618e-003 1.72728356e-002 1.59644727e-002 1.69459544e-002
      6.34480547e-003 8.67216324e-004 -2.04199273e-003 9.78187425e-004
      -2.41196714e-003 -1.42787618e-003 1.01880329e-002 1.48067093e-002
      1.30944084e-002 6.59440178e-003 4.61597787e-003 -7.39869010e-003
      -8.29689484e-003 -6.54261420e-003 -2.27316492e-003 3.68480687e-003
      2.98830564e-004 1.44931395e-003 4.90912842e-003 5.17936889e-003
      -2.88206106e-003 -2.49006273e-003 2.99142115e-003 -1.42787618e-003
      -3.96860577e-003 -2.23780330e-003 -1.07999926e-003 8.05523654e-004
      -1.04038895e-003 2.99355335e-004 5.96991798e-004 -3.33593867e-004
      -3.65883904e-003 3.41984932e-003 1.81805454e-002 1.20979082e-002
      1.73121854e-003 -6.09437935e-003 -2.83714267e-003 -7.29255425e-003
      -1.25188539e-002 -6.59502810e-003 3.38217290e-003 2.07700115e-002
      5.34657110e-003 -6.80194469e-003 5.86762093e-003 3.11282463e-003
      1.65410701e-003 6.98148506e-003 -3.65883904e-003 -3.65883904e-003
      -6.06772769e-003 -7.01889023e-003 -9.22789890e-003
      -2.18570139e-003 -3.05794016e-003 -1.26478560e-002
      -1.41286049e-002 -9.37744323e-003 1.06681176e-002 1.02080842e-002
      1.28320768e-003 -2.31447141e-003 6.81862561e-003 -1.13878530e-002
      -2.53045298e-002 -2.26043854e-002 9.22422577e-003 2.03877762e-002
      1.88898798e-002 1.77528989e-002 1.01494463e-002 1.25044603e-002
      -1.99570339e-002 -2.60646995e-002 -2.55470127e-002
      -1.03711812e-002 -1.96001329e-003 -1.99546036e-003 7.98649993e-003
      2.50786543e-002 1.88626479e-002 -1.83086086e-003 -2.77200881e-002
      -2.95085553e-002 1.25355914e-003 2.43853983e-002 2.81858481e-002
      2.44625416e-002 1.56603530e-002 3.46083604e-002 -7.39580393e-003
      -2.77415197e-002 -3.17091346e-002 -7.36623351e-003
      -1.53997391e-002 -9.79355909e-003 1.80362072e-002 2.68643629e-002
      2.05749795e-002 -3.40323895e-003 -5.92636876e-003 -1.24173323e-002
      -1.70744583e-002 -2.20750496e-002 -1.96695179e-002
      -4.61780792e-003 2.30004694e-002 3.88825834e-002 9.76128969e-003
      5.25309285e-003 2.79009924e-003 -2.09896509e-002 -3.59850638e-002
      -3.39141637e-002 -1.63839664e-002 2.55173780e-002 4.74625789e-002
      -1.68293004e-003 -1.63031332e-002 -2.52550412e-002
      -8.86091776e-003 -3.54784988e-002 -3.32632177e-002
      -4.70529636e-003 3.33112851e-002 5.00713065e-002 1.22087467e-002
      -7.14519061e-004 -4.53888625e-003 -2.50848047e-002
      -4.02360931e-002 -3.54719572e-002 -1.52515564e-002 4.03091796e-002
      1.78178865e-002 4.69100755e-003 4.16691322e-003 -2.90912983e-004
      -2.12939642e-002 -3.37821245e-002 -2.71375496e-002
      -1.13867894e-002 1.52852833e-002 1.71238626e-003 8.42458941e-003
      9.56042111e-003 -9.34532098e-003 -1.13746058e-002 -1.76966432e-002
      -7.02683860e-003 -3.17871920e-003 4.32317983e-003 1.65849142e-002
      5.66724828e-003 4.02304390e-003 -2.17630272e-003 -1.81011800e-002
      -3.56443711e-002 -2.50146426e-002 -7.79822422e-003 1.56633295e-002
      9.61884577e-003 7.19742524e-003 1.11358976e-002 -2.98841274e-003
      -4.62745735e-003 -1.18905203e-002 -7.45427376e-003
      -6.94320491e-003 1.24291554e-002 -3.58804339e-003 -4.42623300e-003
      1.01960424e-004 -2.16902653e-003 -9.45128195e-005 -3.87721276e-003
      -1.43001322e-003 -9.84306680e-004 5.90108335e-004 -1.86270359e-003
      -3.64485756e-003 5.93101897e-004 4.16430878e-003 -2.90238386e-004
      -5.37192915e-003 -1.57320872e-003 -1.35410693e-003
      -3.54544516e-003 7.46132201e-003 -1.57308823e-004 1.01960424e-004
      -8.68138205e-003 1.21165963e-003 -1.27357256e-003 -1.20962024e-004
      2.89926596e-004 2.90814927e-003 4.99626761e-003 -8.60204361e-003
      -2.20182608e-003 1.01960424e-004 2.80286130e-002 -1.23791723e-003
      -4.47455299e-004 -8.33251688e-005 -1.14006083e-003 2.27830391e-002
      1.06221549e-002 1.82676711e-003 1.01050560e-003 -1.38877351e-002
      -9.23794974e-003 2.62528169e-003 5.34298457e-003 5.13410475e-003
      7.16757867e-003 1.43793062e-003 -9.83285997e-003 -1.42830079e-002
      -8.92074022e-004 2.62231901e-002 1.80293676e-002 8.23113509e-003
      -6.33159326e-003 1.61165706e-004 1.79801639e-002 8.04880168e-003
      9.28078406e-003 -2.48631630e-002 -2.16439664e-002 3.62103485e-004
      -1.78347633e-003 -1.19514996e-002 -2.19924818e-003
      -7.01691781e-004 -8.25828686e-003 -1.60223879e-002 7.29839178e-003
      2.82722935e-002 2.83860434e-002 2.42516994e-002 2.28003060e-004
      1.41770151e-002 -2.00694408e-002 -3.30202095e-002 -3.22779082e-002
      -8.58775224e-004 2.09341981e-002 2.12864280e-002 1.46887386e-002
      2.08822731e-002 3.03605963e-002 -2.00340878e-002 -3.14679146e-002
      -3.50623727e-002 -7.76243629e-003 -1.59584433e-002
      -8.21804535e-003 4.12381999e-003 3.45536731e-002 6.26824796e-003
      -2.23917421e-002 -3.44359837e-002 -3.46836299e-002
      -7.13941222e-003 2.88329925e-002 2.68120468e-002 2.84659639e-002
      1.84432361e-002 2.88171601e-002 -5.52416127e-003 -2.39730757e-002
      -3.44686694e-002 -1.05225695e-002 -8.03035405e-003
      -2.29788339e-003 3.84236360e-003 3.61599922e-002 3.42746824e-002
      -3.88373900e-003 -1.47649283e-002 -1.81829110e-002
      -6.44394755e-003 -3.37189846e-002 -3.64370309e-002
      -2.45432723e-002 3.65614034e-002 4.09285687e-002 4.64367587e-003
      -9.49010486e-004 -1.95603492e-003 -9.75283887e-003
      -3.86024565e-002 -3.59852426e-002 -2.68590432e-002 3.08284108e-002
      3.95223573e-002 9.02246125e-003 -9.82209388e-003 -3.75782955e-003
      -4.80810739e-003 -3.11660115e-002 -3.09269838e-002
      -6.20681280e-003 3.69793847e-002 3.25776264e-002 1.65537987e-002
      2.51706387e-003 1.16524275e-003 -9.52514261e-003 -3.56390849e-002
      -3.15043628e-002 -1.03722401e-002 1.68297347e-002 5.36054838e-003
      -1.78672752e-004 9.87232197e-005 -2.06381315e-003 -6.81385351e-003
      -2.29585413e-002 -2.10723840e-002 -1.40345320e-002 1.36393553e-003
      -7.54235359e-003 2.50931596e-003 1.24509763e-002 1.77734867e-002
      4.07085754e-003 -8.95963050e-004 -3.16092372e-003 -4.03651316e-003
      -3.84928589e-003 4.69053484e-004 9.81029868e-003 3.49888136e-003
      -2.32124294e-004 -6.84182718e-003 -2.00276896e-002
      -1.19981766e-002 1.09207642e-003 -1.59119826e-003 -1.05502689e-003
      2.15982851e-002 3.08937952e-002 2.97931880e-002 4.61282814e-003
      1.20281195e-003 2.00390955e-003 5.60302427e-003 -2.35807640e-003
      1.54804653e-002 1.00979479e-002 -6.13586977e-003 -3.80872982e-004
      4.27467795e-003 8.12415266e-004 3.24520224e-004 8.00484093e-004
      9.50469356e-003 2.93901581e-002 -4.97373228e-004 -1.51843745e-002
      -7.75859132e-003 2.35721283e-002 2.05580471e-003 1.43424689e-003
      2.11606640e-003 1.84420086e-002 5.59685612e-003 9.60880797e-003
      1.93057023e-003 -1.69188878e-003 5.33405086e-003 5.27500501e-003
      4.77428455e-003 3.08281975e-003 -1.05721895e-002 2.15360913e-002
      -5.50970901e-003 -2.34264545e-002 -2.17933748e-002 4.61812876e-003
      8.66587460e-003 8.48415401e-003 6.76193647e-003 2.02963762e-002</_>
    <_>
      2.55261641e-002 1.83760822e-002 1.53905815e-002 2.21911422e-003
      -1.86366029e-002 -1.88468769e-002 -1.55280484e-002
      -1.83587447e-002 -8.77624191e-003 2.73736455e-002 2.00421866e-002
      2.25506164e-002 -2.28440156e-003 -3.11476998e-002 -3.09022479e-002
      -1.73960309e-002 -2.18596868e-002 -1.24792699e-002 1.51060438e-002
      2.16240250e-002 2.25626454e-002 1.57908332e-002 8.99720658e-003
      -1.68550219e-002 -1.69320982e-002 -1.81440096e-002
      -1.26727698e-002 2.04162467e-002 9.01623908e-003 1.55752515e-002
      -1.51392715e-002 -3.51479873e-002 -3.25177722e-002
      -1.76555496e-002 -1.87534466e-002 -3.38646583e-003 4.02900986e-002
      1.89638119e-002 2.64283549e-002 -4.59364895e-003 -2.14043148e-002
      -1.09273577e-002 -4.60362062e-003 -4.52376902e-003 1.51807070e-002
      3.00761815e-002 -9.26866475e-003 -1.42867565e-002 -2.87090931e-002
      -2.75932737e-002 -1.51664475e-002 -1.01240398e-002
      -4.31871274e-003 3.33417989e-002 1.93502009e-002 9.01816972e-003
      1.51657574e-002 -1.55601548e-002 -1.79588236e-002 -1.55594684e-002
      -9.32702329e-003 -7.01317238e-003 -4.32180241e-003 7.39206700e-003
      -2.42032837e-002 -3.91236395e-002 -4.15586121e-002
      -2.82486808e-002 -1.52061842e-002 -1.33335935e-002
      -5.25242696e-003 8.37205630e-003 3.31736021e-002 -1.07574491e-002
      -1.44968536e-002 -1.87982451e-002 -2.17000321e-002
      -7.04507763e-003 -2.63422821e-003 3.21414671e-003 3.59083042e-002
      2.36999132e-002 -1.92298573e-002 -3.51998173e-002 -3.84158418e-002
      -1.81004852e-002 -4.20107180e-003 -8.76096135e-004 2.26533995e-003
      3.06401085e-002 1.42493006e-002 -2.98826303e-002 -3.78677696e-002
      -3.87037694e-002 -1.78557765e-002 -2.16183253e-003 8.23324604e-004
      8.96371994e-003 2.75939871e-002 1.22443512e-002 -1.98309217e-002
      -3.11576240e-002 -3.60664241e-002 -1.12226158e-002
      -1.22178404e-003 3.90197529e-004 1.95442559e-003 3.02332565e-002
      1.19500607e-002 -2.24910397e-002 -3.84718701e-002 -4.24567126e-002
      -1.85751542e-002 -1.62105158e-003 -8.30320467e-004 6.98474469e-004
      1.57439057e-002 1.94835737e-002 -5.75945107e-003 -1.14222849e-002
      -1.49428155e-002 -3.22678611e-002 5.81510505e-003 1.70757882e-002
      7.40127731e-003 1.43410992e-002 1.72937158e-002 -1.31770838e-002
      -2.60708276e-002 -2.75250357e-002 -1.47399092e-002
      -6.79078698e-003 -6.95987884e-003 -4.19909135e-003 3.16230021e-002
      3.98955606e-002 5.41317929e-003 -3.42999469e-003 -1.89381391e-002
      -4.29006182e-002 -5.69952140e-003 2.03341804e-002 2.11409051e-002
      3.82316560e-002 2.20340602e-002 6.40947651e-003 9.46835440e-004
      -3.64055019e-003 -4.53712381e-002 -5.53865312e-003 8.90606362e-003
      4.02350584e-003 1.32635729e-002 2.52461173e-002 1.19542489e-002
      -6.52547344e-004 -3.71135795e-003 -2.67667267e-002
      -1.00613413e-002 -5.91017026e-003 -5.01364470e-003 2.15259697e-002
      2.78398469e-002 6.17139973e-003 1.73374225e-004 -1.88500341e-002
      -4.49279994e-002 -7.73580931e-003 2.50992496e-002 2.54656598e-002
      3.35191786e-002 2.90364735e-002 7.17025762e-003 -7.13240181e-004
      2.63416604e-003 -1.04450360e-002 1.08901609e-003 6.59065042e-003
      1.14068817e-002 2.41418164e-002 8.41260608e-003 2.22741943e-002
      2.57989597e-002 2.94802207e-002 2.94499677e-002 -4.95518511e-003
      -6.16783882e-003 -5.45389857e-003 -7.04692025e-003 2.33676825e-002
      1.82235688e-002 1.38177462e-002 -3.83928139e-003 -1.96825322e-002
      -1.19678201e-002 -9.04630218e-003 -7.46275717e-003 1.34563458e-003
      -3.14002074e-002 -2.49391515e-003 1.53529993e-003 8.24258663e-003
      2.66151335e-002 4.08008455e-005 -3.25982622e-003 -7.84113165e-003
      -1.98035073e-002 -3.47967781e-002 -5.11907320e-003
      -5.11907320e-003 -5.12623647e-003 4.47616354e-003 -2.75434996e-003
      -5.12849027e-003 -1.02838771e-002 -1.94418393e-002 3.21071520e-002
      1.95183922e-002 1.34540675e-002 -4.36365418e-003 -7.76974438e-003
      -2.27038097e-003 -1.13837607e-003 7.58780865e-004 1.70181505e-002
      1.21694794e-002 1.39095518e-003 -2.51204297e-002 -3.39295305e-002
      -8.60851072e-003 -2.61718349e-004 2.83183297e-003 1.55010941e-002
      1.27403261e-002 -5.83789125e-003 -8.20490438e-003 -7.52926059e-003
      -1.16050784e-002 -1.52515434e-003 6.72732340e-003 4.89644473e-003
      6.25569420e-003 -9.80810379e-004 -3.37827462e-003 -1.59185994e-002
      -3.17485482e-002 -3.08276173e-002 -2.86831893e-003 1.28421718e-002
      1.39402458e-002 2.25348137e-002 -2.71710358e-003 1.77480876e-002
      -2.26952825e-002 -3.04344296e-002 -3.22780423e-002
      -8.50206055e-003 1.65288546e-003 3.52022098e-003 1.57187860e-002
      3.06349639e-002 1.91362053e-002 -9.60836932e-003 -1.33808525e-002
      -2.11719722e-002 -9.80486162e-004 -1.05736742e-003
      -4.19643102e-003 -2.56220018e-003 2.93702874e-002 -6.51463494e-003
      -2.08704807e-002 -2.78376751e-002 -2.42315922e-002 6.53036498e-003
      1.53916022e-002 1.03472872e-002 1.37159545e-002 7.08313240e-003
      1.00320932e-002 -7.00506940e-003 -1.01873549e-002 -9.83825419e-003
      5.93653368e-003 2.63805920e-003 -7.57721253e-003 -1.56414341e-002
      -3.50098615e-003 2.34962571e-002 3.48550524e-003 -3.12145497e-003
      -6.20108005e-003 -1.11300694e-002 -1.14729563e-002
      -1.16987713e-002 -6.83546485e-003 2.64695548e-002 4.40780483e-002
      9.75459442e-003 -3.05265025e-003 -3.42228077e-002 -5.37555069e-002
      1.56798847e-002 3.82591598e-002 3.63037810e-002 4.44996879e-002
      1.88279562e-002 6.98737055e-003 2.49903696e-003 -9.08554904e-003
      -3.23138051e-002 -2.83759683e-002 -1.85339693e-002
      -2.24869158e-002 -9.29065328e-003 2.37702671e-002 6.11061230e-003
      -1.83239742e-003 -4.36374433e-002 -4.87784855e-002 1.36564011e-002
      3.81354205e-002 3.10729388e-002 2.56436709e-002 9.56277270e-003
      -1.44086953e-004 -5.60876681e-003 -3.96424122e-002
      -5.31341806e-002 1.74750220e-002 3.71572077e-002 3.24755087e-002
      2.00012121e-002 -5.19182591e-004 -2.64127320e-003 -7.17192842e-003
      -8.78376048e-003 5.02476795e-003 2.17430238e-002 2.29041744e-002
      1.44856498e-002 3.99707537e-003 -1.84355292e-003 -1.87337352e-003
      -6.44973526e-003 -4.62436676e-002 -2.78026219e-002 1.81005802e-002
      3.68800685e-002 3.53811607e-002 5.63236792e-003 -7.61829363e-003
      -7.23026460e-003 -1.05231702e-002 -2.80880611e-002
      -1.11039793e-002 1.80761628e-002 3.18012387e-002 2.74250582e-002
      4.70769498e-003 -3.47849354e-002 -2.59913057e-002 -2.58992892e-002
      4.59212344e-003 4.76490967e-002 2.37405021e-002 3.25679011e-003
      1.83995301e-003 -1.09877354e-002 -3.82915400e-002 -2.60410048e-002
      -2.03274898e-002 9.05783940e-003 3.36899273e-002 1.18338838e-002
      3.81609239e-003 5.08731557e-003 -1.20359547e-002 -3.70213017e-002
      -3.89813632e-002 -3.96160707e-002 -1.38952387e-002 4.75119203e-002
      4.94504236e-002 2.18939278e-002 1.45246182e-002 -4.93779313e-004
      -3.12396046e-002 -2.69589908e-002 -1.96711868e-002 2.28718226e-003
      2.91232355e-002 3.49109024e-002 2.34698579e-002 1.55939246e-002
      4.88941732e-004 -1.59199536e-002 -1.55275976e-002 -1.84692964e-002
      -5.57239447e-003 9.83442087e-003 1.36736603e-002 1.73279699e-002
      1.62233617e-002 -2.35641887e-003 -2.72332169e-002 -1.16043054e-002
      -1.47849098e-002 -1.06521109e-002 1.37104141e-002 2.32062917e-002
      2.54372507e-002 2.18961928e-002 -1.46653764e-002 -7.62823969e-003
      -1.90878287e-003 1.60724390e-003 1.24551160e-002 9.23470501e-003
      1.72738992e-002 1.81329101e-002 9.74844955e-003 -3.65169486e-003
      -2.06686370e-002 1.08236412e-003 8.92667472e-003 8.11225455e-003
      2.05517616e-002 8.05679802e-003 6.03357702e-003 -3.51163908e-003
      -2.62269899e-002 -2.23455653e-002 -6.36526104e-003
      -1.52646098e-002 -1.04820626e-002 2.01760046e-002 2.39890106e-002
      2.09712815e-002 1.95687935e-002 -6.61369786e-003 -1.07210968e-002
      1.66495866e-003 -2.24258914e-003 -5.77044860e-003 1.91338721e-003
      1.15315579e-002 9.10366513e-003 6.57445053e-003 3.12620285e-003
      -2.26287171e-002 -3.00591905e-003 6.32442813e-003 5.40166674e-003
      2.29268763e-002 1.17571764e-002 7.11878156e-003 5.84360678e-003
      -1.53187178e-002 -3.12371412e-003 -9.72444657e-004 4.82067280e-003
      -3.72450147e-003 8.99677724e-003 8.24020337e-003 5.90998400e-003
      1.23853693e-002 4.54790657e-003 1.35461511e-002 8.46691057e-003
      3.75039852e-003 -1.30364476e-002 -2.41409838e-002 -1.07050687e-002
      3.89920059e-003 8.40601698e-003 9.59095079e-003 2.10278593e-002
      1.33450879e-002 1.05746603e-002 -6.57285505e-004 -2.20379010e-002
      -2.21259659e-003 2.71147713e-002 3.14444900e-002 2.24273931e-002
      4.25381958e-003 1.51912193e-003 -9.18362057e-004 -1.58676486e-002
      -2.67782658e-002 -7.12800957e-003 6.74213655e-003 1.78281683e-002
      2.05111597e-002 2.24515889e-002 3.49804386e-002 3.41095701e-002
      2.05681659e-002 -2.35910751e-002 -1.56282131e-002 -4.39433055e-003
      5.51158702e-003 1.49600748e-002 -7.61046214e-003 4.68515791e-004
      2.82232580e-003 4.79572080e-003 -1.92933227e-003 -4.10116557e-003
      1.16015272e-002 1.34436740e-002 -5.36368752e-004 -2.37023551e-002
      -7.96131324e-003 -3.45800561e-003 1.05135692e-002 1.15269711e-002
      1.95742082e-002 1.30961081e-002 9.30054765e-003 -8.91083013e-003
      -2.51366869e-002 1.58321038e-002 2.55825054e-002 3.66032794e-002
      1.05966923e-004 -2.50094477e-002 -2.16419306e-002 -1.22653386e-002
      -2.63100769e-002 -3.86557207e-002 2.27636844e-003 1.67652909e-002
      4.22097370e-002 3.84519398e-002 4.60782554e-003 -7.10157864e-003
      -8.72882735e-003 -4.06055376e-002 -3.48531678e-002
      -2.74644140e-002 -2.88981330e-002 -2.25535780e-002 3.10709588e-002
      3.84389088e-002 3.64886113e-002 2.53872424e-002 -9.53373220e-003
      -2.81949192e-002 -1.89292077e-002 -1.40731791e-002
      -9.25839413e-003 6.62378594e-003 1.52846435e-002 3.04292552e-002
      2.21023280e-002 -5.83812641e-003 -2.99592428e-002 -6.26970967e-003
      -1.04639959e-002 -5.04768686e-003 2.85226330e-002 3.52467522e-002
      3.01966313e-002 1.83186214e-002 -2.20992975e-002 -1.39507614e-002
      1.98086305e-003 -8.98079423e-004 -2.75852997e-003 -9.84498672e-003
      1.70051306e-002 2.87857857e-002 3.60554792e-002 4.98428475e-004
      -1.00263376e-002 2.56320438e-003 1.07943732e-003 3.38703208e-003
      1.89380764e-004 3.35039990e-003 1.04570780e-002 1.10086957e-002
      -7.09748594e-003 -2.64612045e-002 -2.81483913e-003 3.02616972e-003
      4.49994532e-003 3.90481873e-004 -1.08233755e-002 -8.26095976e-003
      -6.78231381e-003 -1.65917706e-002 9.97492392e-003 2.10338458e-002
      8.08356423e-003 4.96000517e-003 -4.46528476e-003 7.89605640e-003
      2.23738831e-002 3.07630245e-002 1.18295504e-002 -3.33093409e-003
      1.06087495e-002 7.28521496e-003 1.93582568e-003 -1.65449164e-003
      -9.12993401e-003 -5.61913615e-003 9.76458844e-003 -6.60668593e-004
      -1.84802022e-002 -7.25321192e-003 2.76760967e-003 2.66248197e-003
      5.13016479e-003 -2.31818165e-004 -1.49178109e-003 -1.90003600e-003
      -1.08873304e-002 -2.00095354e-003 -1.05254389e-002
      -6.85514370e-003 -1.03484970e-002 -1.17050223e-002
      -4.66847792e-003 -9.25953151e-004 -3.55401519e-003
      -9.98938549e-003 1.18265888e-002 1.61112181e-003 2.39090156e-003
      4.75022425e-005 -7.58474489e-005 -2.33733258e-003 -4.69249440e-004
      7.48149352e-003 1.32025192e-002 1.52323879e-002 -8.15635663e-004
      -4.66445647e-003 -4.46708314e-003 -3.25811747e-003
      -9.62234288e-003 -1.25823263e-002 -1.12229967e-002 1.32025192e-002
      -2.09786603e-003 -1.87620688e-002 -2.09884122e-002
      -2.83054542e-002 -2.49188691e-002 -1.16016455e-002 1.84116559e-003
      2.24019890e-003 2.83966307e-003 1.66057199e-002 2.89352685e-002
      3.16256545e-002 6.75004022e-003 -2.69214679e-002 -3.03440839e-002
      -1.73929576e-002 -8.85546207e-003 6.55600219e-004 1.49839642e-002
      -8.51658080e-003 -1.05906911e-002 -1.80288255e-002
      -2.12141294e-002 -2.24530678e-002 -1.93086676e-002
      -1.06983883e-002 1.93968955e-002 3.38314548e-002 2.78784297e-002
      2.33820304e-002 3.39093269e-003 -2.49735489e-002 -2.85172723e-002
      -1.56739280e-002 -3.05418065e-003 3.80672403e-002 -3.59870084e-002
      2.71631628e-002 3.75843868e-002 3.77940871e-002 -3.78135336e-003
      -2.37109698e-002 -2.47472841e-002 -1.51997553e-002
      -3.26058641e-002 -3.39361243e-002 1.60526223e-002 3.46645899e-002
      4.02427092e-002 3.02500352e-002 -4.54172352e-003 -8.27241968e-003
      -9.08285286e-003 -4.38717194e-002 -1.41309435e-002 1.36251207e-002
      2.28117015e-002 1.44930547e-002 -3.00564989e-003 -1.25134345e-002
      -1.35618588e-002 -8.05863831e-003 -1.47070531e-002
      -2.40608640e-002 3.81021365e-003 2.79477518e-002 3.36705595e-002
      3.49209122e-002 -1.23425352e-003 -4.32060892e-003 -7.88745098e-003
      -4.00504544e-002 -2.76217218e-002 6.67652022e-003 1.01284741e-003
      6.52849814e-003 3.03988568e-002 2.97062658e-002 2.47600265e-002
      1.96927283e-002 -1.84171274e-002 -1.73570085e-002 6.64105825e-003
      7.45033671e-004 3.46629764e-004 -3.55505408e-003 2.62398291e-002
      3.24109755e-002 2.88864169e-002 -2.29667965e-002 -1.19605595e-002
      1.36356577e-002 5.39566902e-003 1.01090269e-002 9.03835427e-003
      1.27709135e-002 1.83967389e-002 1.99725330e-002 -1.74055193e-002
      -1.48686115e-002 4.34903707e-003 -1.46956695e-003 9.24341264e-004
      6.96397573e-003 2.87943948e-002 3.10699847e-002 2.54350491e-002
      -5.48425363e-003 -8.82600993e-003 6.28505694e-003 1.57051790e-003
      -1.40715612e-003 -4.82664350e-003 1.39164506e-002 2.29226090e-002
      1.57281533e-002 -1.20456349e-002 -6.74583158e-003 -4.75558802e-004
      2.28653383e-003 -6.07231725e-003 -8.38238001e-003 -5.42649394e-003
      -3.29390168e-004 1.01221749e-003 -6.07619248e-003 1.22137659e-003
      8.62770758e-005 -1.53525907e-003 -3.20503209e-003 -4.65371134e-003
      2.33493969e-002 2.35244259e-002 1.25807896e-002 1.01749115e-002
      9.58851073e-003 -5.10596903e-003 7.96491629e-004 -7.04681454e-003
      -1.34202354e-002 -7.65351718e-003 -4.40229522e-003
      -5.22604026e-003 7.76524376e-003 -2.37159315e-003 -8.81981291e-003
      -1.54721749e-003 -3.54176783e-003 -5.28041646e-003
      -7.46817933e-003 -3.91915021e-003 1.53124135e-003 1.07365623e-002
      1.04804756e-002 -2.86995969e-003 -1.11076504e-003 -1.24520226e-003
      -1.71487071e-002 -2.38307659e-002 -2.59862617e-002
      -2.12885775e-002 7.54238293e-003 2.00805515e-002 -9.55231301e-003
      -4.56671882e-003 -6.00926718e-003 -7.84566440e-003
      -5.21077262e-003 1.14852919e-004 1.48678301e-002 2.10448150e-002
      2.52826195e-002 -1.11150043e-003 -3.89395951e-004 -4.21615224e-003
      -3.04862615e-002 -2.94441525e-002 -2.82731485e-002 1.37294317e-003
      2.22417507e-002 3.08846347e-002 3.08915420e-004 -9.65170329e-004
      -2.79340078e-003 -2.46405546e-002 -2.57099345e-002
      -3.15600932e-002 -1.45456465e-002 2.58634817e-002 3.32170762e-002
      1.35795791e-002 1.56208817e-002 3.52112879e-003 -2.29947828e-002
      -1.22927912e-002 -1.00564864e-002 -6.47006149e-004 3.55107337e-002
      2.84723751e-002 7.72919646e-003 2.62352778e-003 -3.49232368e-003
      -4.10803072e-002 -3.75967510e-002 -2.60981917e-002
      -6.26094034e-003 1.87294502e-002 2.26501971e-002 7.58716138e-003
      9.13320296e-003 -3.14763584e-003 -3.34801264e-002 -2.01521348e-002
      -1.71056893e-002 6.72920432e-004 3.34320031e-002 5.19730989e-003
      1.34206805e-002 1.45704560e-002 1.01867951e-002 -1.67118981e-002
      -8.46348936e-004 -2.19342485e-003 -1.08037575e-003
      -6.24836248e-004 -8.03239364e-003 1.51257785e-002 2.10756082e-002
      2.58644503e-002 2.69497372e-002 4.60660201e-004 -2.16855644e-003
      -4.78550000e-003 -2.09890846e-002 5.47352945e-003 2.55563576e-003
      4.49916022e-003 -7.26024434e-003 -2.71041635e-002 3.30072641e-003
      1.83452107e-003 -4.84479126e-003 -5.04238857e-003 4.40023281e-003
      6.83736429e-003 1.06386486e-002 8.84761661e-003 4.72763972e-003
      4.82233567e-003 -1.00683083e-003 -1.14238113e-002 -1.73217431e-002</_>
    <_>
      -1.20705599e-002 1.94973499e-002 2.05006059e-002 1.75850745e-002
      9.72815137e-003 4.13361145e-003 4.11636103e-003 2.92163203e-003
      -4.07481007e-002 -1.20705599e-002 2.44312752e-002 3.26599255e-002
      2.36769356e-002 2.62248237e-003 -1.34043850e-003 -3.80743388e-003
      -1.44247124e-002 -3.99191864e-002 -4.94299829e-003 1.88154038e-002
      1.92265753e-002 2.38496326e-002 2.70365868e-002 -7.63638935e-004
      -2.77038501e-003 -6.64632814e-003 -1.80227533e-002
      -1.20705599e-002 1.92279741e-002 2.65185907e-002 1.52896196e-002
      -3.33331409e-004 -5.10354107e-003 -6.82277465e-003
      -1.58864371e-002 -3.45143266e-002 8.82957410e-003 2.01834254e-002
      2.94591691e-002 7.53559452e-003 -1.90289598e-003 -4.17771051e-003
      -5.67546254e-003 -2.07286943e-002 -2.15284918e-002 6.00584084e-003
      -8.70790891e-003 -3.40258633e-003 -2.81051546e-003
      -1.47964584e-003 -2.27478147e-003 -3.72806191e-003
      -1.93299744e-002 1.52411801e-003 1.52411801e-003 2.49219947e-002
      3.15511189e-002 6.38782373e-003 -3.17707774e-003 -8.35016649e-003
      -9.36630275e-003 -1.64819881e-002 -2.07170993e-002 1.02258734e-002
      7.11175101e-003 -5.06140478e-003 -7.20784627e-003 -5.74131822e-003
      -1.19567811e-002 -2.09254324e-002 -1.13872234e-002 6.90241065e-003
      7.77784269e-003 -2.94531160e-003 -1.55375304e-003 -2.48406525e-003
      -1.48498882e-002 -1.15253450e-002 -8.65553506e-003
      -1.01282420e-002 1.32197002e-002 2.61214972e-002 9.48103052e-003
      -3.08726635e-003 -1.30391177e-002 -3.26806642e-002
      -2.92398706e-002 -1.63398031e-002 -1.03849676e-002 2.14667283e-002
      3.37117314e-002 4.70056664e-003 -1.67974492e-003 -1.20957019e-002
      -3.99536490e-002 -1.77843776e-002 -1.15875294e-002 1.33166113e-003
      2.46269796e-002 4.11060154e-002 1.43696591e-002 -6.20806636e-003
      -2.51388382e-002 -4.23666686e-002 -2.84728389e-002
      -6.25816220e-003 1.87533442e-003 3.68671902e-002 1.99576225e-002
      5.34200226e-005 -8.92324559e-003 -1.61719229e-002 -2.32922379e-002
      -2.39723362e-002 -1.08038308e-002 8.70229385e-004 2.96754371e-002
      -4.43554833e-004 -2.33072210e-002 -2.11824533e-002
      -1.61324292e-002 -1.53641282e-002 -4.66679782e-003 2.17563240e-003
      2.00843364e-002 2.60784272e-002 2.76618544e-002 1.11522293e-003
      -1.66615937e-002 -2.35230532e-002 -3.52076739e-002
      -1.85039565e-002 -6.04536757e-003 -2.38596505e-004 3.13082263e-002
      2.04966590e-002 -5.42717287e-003 -1.20708318e-002 -1.10680452e-002
      -1.58204678e-002 -1.20051699e-002 -4.74012224e-003 6.94445102e-003
      2.58535594e-002 -7.53985858e-003 -2.21481398e-002 -1.25867650e-002
      -7.25506991e-003 -6.19697478e-003 3.44922370e-003 3.77284829e-003
      1.86461806e-002 1.95639394e-002 -2.65718099e-005 -2.33715936e-003
      -1.86169764e-003 -8.25663039e-004 3.36038903e-003 -9.09207296e-003
      -1.75220612e-002 -9.74971801e-003 4.06037504e-003 1.91750899e-002
      9.88236934e-005 -2.64643040e-003 -3.47113982e-003 -1.71209686e-002
      -8.19661655e-003 -3.70622450e-003 1.15648676e-002 2.78315004e-002
      2.19263919e-002 4.23662551e-003 1.46897137e-003 1.09724114e-002
      4.61945403e-003 -7.06327381e-003 -1.10067632e-002 -4.16553346e-003
      1.39404517e-002 -5.77241066e-004 1.03924032e-002 1.02994563e-002
      8.14037025e-003 5.37304860e-003 -3.15994513e-003 -2.04227678e-003
      -1.67157617e-003 -5.27878758e-003 -1.24371350e-002 1.22746304e-002
      1.68231558e-002 1.07586076e-002 -9.72057972e-003 -2.47289729e-003
      -1.27401960e-003 -8.55714921e-003 -3.25380638e-002 3.41582741e-003
      2.41814572e-002 2.33445745e-002 7.38327671e-003 -1.20096290e-002
      -1.89424474e-002 -1.07051351e-003 7.85897253e-004 9.54648829e-004
      -2.90440265e-002 1.92613062e-002 2.02984959e-002 9.79384594e-003
      -1.93086173e-002 -2.29049660e-002 -1.26483757e-003
      -3.62195307e-003 -1.87072027e-002 3.87122575e-003 2.85811126e-002
      3.28076892e-002 1.99027881e-002 -2.53459322e-003 -6.66007027e-003
      -9.19852313e-003 -1.51054990e-002 -1.73706990e-002 2.39154939e-002
      2.79902965e-002 4.40193946e-003 1.63539313e-003 -2.52738521e-002
      -2.77376622e-002 -2.86466219e-002 -7.77975796e-003 1.50310649e-002
      -1.28341755e-002 1.85290091e-002 2.60121655e-002 1.48503389e-002
      -2.85224784e-002 -9.00136027e-003 -2.46505276e-003
      -2.21685809e-003 -1.96789876e-002 2.29214355e-002 1.60981156e-002
      6.82393229e-003 -9.11086705e-003 -3.34178172e-002 -2.49470063e-002
      -7.02222483e-003 1.33360056e-002 1.35385646e-002 4.66591418e-002
      1.04734870e-002 2.94904760e-003 -1.08726872e-002 -5.20268865e-002
      -1.34369181e-002 -1.07942177e-002 1.15886284e-002 4.37846631e-002
      4.67515402e-002 1.51720010e-002 1.82695361e-003 -2.38035247e-002
      -4.78797778e-002 -4.02650842e-003 1.53450423e-003 9.01240297e-003
      4.66954745e-002 2.36573834e-002 1.22599294e-002 9.48143099e-003
      -1.08064683e-002 -4.02230285e-002 -8.18098616e-003 3.31483758e-003
      1.62430704e-002 3.03304419e-002 3.35005447e-002 1.27253905e-002
      8.20381194e-003 -1.92811489e-002 -2.54248977e-002 -1.62050442e-003
      8.30026716e-003 1.31488498e-002 2.54131202e-002 3.29855233e-002
      7.77801126e-003 -1.11221988e-002 -2.50785314e-002 -4.63732556e-002
      -1.13368724e-002 -5.30556869e-003 2.75923312e-003 3.48266624e-002
      3.08060478e-002 3.46467108e-003 -6.46324642e-003 -7.07378844e-003
      -2.06888430e-002 3.09473998e-003 3.06811673e-003 1.84645280e-002
      3.06692962e-002 2.40263715e-002 6.37564855e-003 -4.15334105e-003
      -2.38926597e-002 -3.96693461e-002 -2.07726546e-002
      -2.32233410e-003 8.42442364e-003 1.74582042e-002 1.53739685e-002
      2.24134931e-003 -4.77598934e-003 -1.43422121e-002 -3.74772996e-002
      6.99223205e-003 1.97568499e-002 2.43891273e-002 1.89790949e-002
      9.76155698e-003 1.18879846e-003 1.84024015e-004 -2.94634118e-003
      -3.36429216e-002 -1.68709108e-003 4.34592878e-003 2.37125903e-002
      1.82004943e-002 4.45199246e-003 1.24250527e-003 6.20627950e-004
      5.37600880e-003 -1.28962444e-002 -1.09464186e-003 4.45639482e-003
      1.11787561e-002 6.27479004e-003 2.03378662e-003 1.15165394e-003
      -2.80042208e-004 -1.27756521e-002 -1.95167754e-002 7.80437933e-003
      3.00840437e-002 3.33353765e-002 8.52791313e-003 2.93859071e-003
      2.85840506e-004 -1.98763818e-003 -1.87329967e-002 -1.53930178e-002
      4.25275229e-003 3.06234583e-002 3.03164460e-002 1.41626038e-002
      2.86552473e-003 8.55552685e-003 1.31421844e-002 1.36201689e-002
      -9.58932564e-003 -1.53702946e-004 1.65134470e-003 2.30134511e-003
      1.62464182e-003 1.77308284e-005 1.06656738e-002 1.76391192e-002
      1.04228621e-002 -1.37366261e-002 -1.08891744e-002 2.51714000e-003
      5.86444000e-003 -1.52422261e-004 5.99218649e-004 2.93802557e-004
      -1.75561022e-003 -1.66515093e-002 -9.58932564e-003 2.04170998e-002
      1.67906843e-002 1.34260580e-002 9.60708596e-003 -9.13064228e-004
      -2.84663722e-004 -7.76221510e-004 -1.86703186e-002
      -9.58932564e-003 1.50850303e-002 1.96550824e-002 1.72543116e-002
      9.35973413e-003 3.81825888e-003 1.18943444e-002 1.61046162e-002
      1.07009001e-002 -2.61291061e-002 -5.75323007e-004 1.92957986e-002
      1.77782923e-002 3.93233402e-003 9.48582310e-003 1.18550444e-002
      1.17811998e-002 1.98691222e-003 -2.68504638e-002 -1.81596745e-002
      2.18039285e-002 2.55803224e-002 1.12084709e-002 5.44952787e-003
      8.05542432e-003 1.45589132e-002 1.24939820e-002 -8.36489815e-003
      7.75951752e-003 2.11061276e-002 1.75098013e-002 1.82214621e-002
      1.31283253e-002 1.47879887e-002 1.91628374e-002 1.88297164e-002
      -1.37941027e-002 -3.14027928e-002 -2.88944822e-002 6.07290189e-004
      8.02346878e-003 1.04473000e-002 1.51663935e-002 1.40114678e-002
      8.73396080e-003 -1.82122812e-002 -1.64852422e-002 1.67725645e-002
      2.29448415e-002 1.83103476e-002 1.38047440e-002 1.58280749e-002
      1.31071368e-002 1.11850770e-002 -1.28117725e-002 -1.28117725e-002
      1.92123335e-002 2.74781883e-002 3.06947585e-002 1.50729781e-002
      1.54602500e-002 1.82567611e-002 1.85953733e-002 -1.11517813e-002
      -2.98795365e-002 -2.60824934e-002 5.21500455e-003 1.37553792e-002
      2.50023939e-002 1.95084549e-002 2.13558078e-002 1.91624090e-002
      -8.67416337e-003 -1.97271686e-002 -1.71761718e-002 1.27497632e-002
      2.77272798e-002 1.13497786e-002 7.91808590e-003 2.85866368e-003
      -8.54125153e-003 -2.16247067e-002 -2.06987355e-002 8.33211374e-003
      2.21986175e-002 2.06404030e-002 1.09597789e-002 5.93010429e-003
      2.14790064e-003 -3.43320798e-003 -9.73829534e-003 1.57174729e-002
      1.82668716e-002 2.54755579e-002 1.95179265e-002 1.55937131e-002
      1.13344379e-002 7.88954273e-003 5.01900911e-003 -1.90046113e-002
      -2.54653562e-002 -2.33878568e-002 -4.54585860e-003 1.70378573e-002
      9.70396493e-003 8.27674288e-003 -1.98342255e-003 -5.73853264e-003
      -6.39342051e-003 -3.90649075e-004 -5.21155028e-003 1.58363348e-003
      1.48434108e-002 2.50270544e-003 1.86713831e-003 2.10578600e-003
      3.63449682e-003 6.82689279e-005 1.57622173e-002 1.37392795e-002
      1.43532641e-002 5.25794318e-003 2.77084578e-003 3.20221443e-004
      4.27041232e-004 1.75443490e-003 6.82689279e-005 4.93543269e-003
      1.42890876e-002 1.30160423e-002 8.22595786e-003 2.56137922e-004
      -1.22467261e-002 -9.40031838e-003 -1.27964641e-003
      -8.52036930e-004 2.54670414e-003 -6.47186302e-004 -7.96362525e-004
      2.69955164e-003 5.81601169e-003 -4.26066201e-003 -9.29381233e-003
      3.20763234e-003 6.82689279e-005 -8.47306941e-003 -2.02235184e-003
      -2.33554485e-004 2.06110091e-003 1.17663376e-003 1.18715609e-004
      -3.72687448e-003 -2.67601591e-002 -1.22879306e-002 7.76250986e-003
      2.99195815e-002 2.42771786e-002 1.11683812e-002 1.20353233e-003
      -2.25470518e-003 -6.90140901e-003 -2.69849002e-002
      -1.52982119e-002 2.69903801e-003 2.55595129e-002 1.92499179e-002
      1.39883170e-002 1.09605519e-002 2.91331625e-003 2.62439833e-004
      -1.33014405e-002 -1.22879306e-002 6.20086398e-003 2.24160105e-002
      1.92516092e-002 1.39853498e-002 2.10561175e-002 5.29737491e-003
      -2.59809825e-003 -2.81156544e-002 -3.46134417e-002
      -1.50053820e-003 2.23581512e-002 3.08856945e-002 3.05811800e-002
      6.68154703e-003 -3.78098688e-003 -2.08241399e-004 -1.11590035e-003
      -4.35342453e-003 -3.02923098e-003 8.53626616e-003 1.70432515e-002
      1.49298077e-002 9.77650285e-003 5.22772083e-004 2.80130841e-003
      -6.11731457e-003 -2.40529068e-002 -3.54296640e-002
      -3.53272893e-002 -5.39259054e-003 2.22249851e-002 3.71453427e-002
      1.92711260e-002 2.39288388e-003 -1.36290081e-002 -2.38902923e-002
      -1.20013608e-002 1.32423490e-002 2.42568590e-002 3.58919613e-002
      3.56265008e-002 1.41158104e-002 1.39024225e-003 -2.00741589e-002
      -3.34151313e-002 -3.70145142e-002 -2.29595993e-002 1.18019469e-002
      3.40932831e-002 2.22240631e-002 6.81538321e-003 5.64787118e-003
      -7.24531058e-003 -2.85380408e-002 -3.57340612e-002
      -2.89843958e-002 1.51953346e-003 2.99224630e-002 3.64746600e-002
      1.07379472e-002 6.67905202e-003 1.13908362e-004 -2.12161168e-002
      -3.32525261e-002 -2.85867900e-002 -6.45358954e-003 2.72752568e-002
      4.76481020e-002 7.81742018e-003 5.20469272e-004 -1.82563253e-002
      -3.57715636e-002 -3.40685062e-002 -2.63877194e-002 1.19059989e-002
      4.84744236e-002 4.91846651e-002 1.38820745e-002 2.63862545e-004
      -1.45843597e-002 -3.04869544e-002 -2.88838465e-002
      -3.01409066e-002 -4.98485053e-004 4.53531519e-002 2.04823446e-002
      5.21852728e-003 5.04717650e-003 1.15528831e-003 -8.41786433e-003
      -2.97450777e-002 -2.71500088e-002 -1.13772880e-002 1.39012001e-002
      8.56864266e-003 7.62098376e-003 4.98342142e-003 -7.43405428e-003
      -9.35635623e-003 -1.82349011e-002 -1.74344685e-002
      -1.48553485e-002 2.02536490e-003 2.70798113e-002 6.07051654e-003
      3.05911130e-003 -4.07182705e-003 -5.94870653e-003 -2.27313433e-002
      -2.68336423e-002 -1.42483804e-002 1.77165624e-002 1.62912272e-002
      1.04930950e-002 8.43964051e-003 -9.77864838e-004 -1.42097566e-003
      -7.42499670e-003 -1.67877097e-002 -1.77337490e-002 6.51291478e-003
      -3.09117860e-003 -6.99950987e-003 -1.46477378e-003
      -1.71378269e-004 3.65956174e-003 -1.37499720e-003 -1.78904226e-003
      -3.02734156e-003 -1.79295719e-004 7.15606555e-004 -9.06600337e-003
      -2.30827089e-003 2.17068964e-003 9.63346753e-003 -1.57227484e-003
      -1.20503257e-003 -7.68529950e-004 -2.37997476e-004 1.12683373e-002
      -3.02673224e-003 -1.46477378e-003 -4.08693030e-003 2.31497129e-003
      -1.06644409e-003 -1.69669150e-003 -6.34569628e-003 8.25065479e-004
      7.22416164e-003 -1.07555389e-002 -3.82959493e-003 5.73857687e-003
      3.06264013e-002 2.35665808e-004 -7.08537627e-005 -9.96352537e-005
      1.99903641e-003 2.38793716e-002 4.53442615e-003 -3.77450208e-003
      -1.93402786e-002 -1.28610684e-002 6.61938358e-003 2.04238947e-002
      1.82897244e-002 1.67451538e-002 2.96030436e-002 6.90326467e-003
      -2.32357485e-003 -3.29181813e-002 -3.20444107e-002 7.37445988e-003
      2.46066116e-002 2.65601166e-002 3.03939376e-002 -1.26281651e-002
      -8.33873171e-003 -9.74841416e-003 -1.50085911e-002
      -2.53767483e-002 4.69913706e-003 1.59258228e-002 1.56502686e-002
      -1.42419813e-002 1.24348914e-002 -2.91495072e-003 -5.63476374e-003
      -2.21601445e-002 -1.99420154e-002 7.17297150e-003 2.33123451e-002
      2.70134229e-002 2.58809626e-002 2.73322109e-002 6.47437107e-003
      -2.06924533e-003 -2.28776410e-002 -2.86564138e-002
      -6.33686688e-003 1.02223791e-002 7.82470871e-003 3.01415883e-002
      3.70498002e-002 5.12460480e-003 -3.47015890e-003 -2.78732069e-002
      -3.37594748e-002 -2.77506579e-002 -2.96471044e-002
      -6.85514510e-003 3.21036279e-002 2.21931227e-002 1.15412800e-003
      -3.69771640e-003 -2.29889452e-002 -2.17609443e-002 4.96053183e-003
      7.94273522e-003 1.53341424e-002 3.01025379e-002 3.35664228e-002
      1.51216052e-002 -4.30533383e-003 -2.26175785e-002 -3.07525638e-002
      -2.73950137e-002 -2.44131777e-002 -1.20627577e-003 2.83070859e-002
      3.51665653e-002 2.36453814e-003 -2.10632803e-003 -1.55061977e-002
      -2.68595740e-002 -3.41073312e-002 -3.68055962e-002
      -1.01361731e-002 3.87753583e-002 3.98834422e-002 4.28234087e-003
      -2.00913148e-003 -8.10445286e-003 -1.40289403e-002
      -3.31454761e-002 -3.64290215e-002 -2.00954042e-002 3.10752708e-002
      4.15697806e-002 1.21331206e-002 -4.17986797e-004 -7.96352141e-003
      -1.14128115e-002 -3.08743212e-002 -3.24281938e-002 6.08051009e-003
      3.72396260e-002 3.42473201e-002 1.46805122e-002 1.58234185e-003
      1.41911500e-004 -6.72121998e-004 -3.60386148e-002 -3.20866667e-002
      -1.17175803e-002 1.25672771e-002 2.11373456e-002 2.80367560e-004
      -1.44627108e-003 -5.73860714e-003 -5.07677114e-003
      -1.44114904e-002 -2.37980802e-002 -1.84365138e-002 4.10448061e-003
      -2.08213180e-003 -2.99099367e-003 1.27144428e-002 1.96423922e-002
      4.24398482e-003 4.58452014e-005 -4.37503634e-003 -1.64283179e-002
      3.48356698e-004 2.67317658e-003 1.26996264e-003 1.19970099e-003
      -3.41249397e-004 1.36927690e-003 -1.14830751e-002 -1.87091939e-002
      -1.22062583e-002 -3.80373374e-003 -3.80373374e-003
      -4.53689182e-003 2.25593094e-002 2.98886113e-002 8.75569321e-003
      2.94007082e-003 2.09163292e-003 -2.69862614e-003 6.60799415e-005
      1.35278990e-002 -3.20844701e-003 -1.06131909e-002 1.54354507e-002
      5.69166942e-003 9.36431461e-004 1.79670868e-004 -2.72879074e-003
      1.13435406e-002 2.53048278e-002 -6.99660555e-003 -1.60077754e-002
      4.75663645e-003 2.79465485e-002 2.65121157e-003 1.57144433e-003
      1.27763517e-004 1.45128071e-002 -7.73620000e-003 -1.25819873e-002
      -6.61843317e-003 2.43079364e-002 1.07820872e-002 5.23033179e-003
      4.70459322e-003 1.13582506e-003 6.30174484e-003 1.06383571e-002
      -1.77246109e-002 -2.53142454e-002 3.46922828e-003 1.69195794e-002
      8.25480837e-003 7.23659201e-003 8.53859063e-004 5.68746449e-003</_>
    <_>
      3.34265269e-002 2.90269535e-002 1.10867620e-002 1.12073286e-003
      3.48465843e-003 4.52699373e-003 8.83653667e-003 1.11115603e-002
      -2.70777219e-003 -5.45099098e-003 1.05349831e-002 1.79624073e-002
      2.28754943e-003 -2.25742604e-003 4.93188563e-004 -1.06097560e-003
      -7.25374150e-004 -3.31455022e-002 1.92807242e-002 -8.69650394e-003
      -1.19902901e-002 -1.23272603e-002 3.95961888e-002 1.39765348e-003
      -3.20024003e-004 4.76187452e-005 8.12403741e-004 -5.45099098e-003
      -5.45099098e-003 -5.45099098e-003 -3.44370417e-002
      -8.67519528e-003 -1.64295465e-003 -1.80014886e-003 1.16168434e-004
      -2.62628626e-002 1.40652377e-002 2.68281368e-003 -8.98986240e-004
      -3.91080081e-002 -1.24828573e-002 -8.32292135e-004
      -1.19352911e-003 8.83226399e-004 9.61065013e-003 1.35604599e-002
      -2.14142911e-002 -3.43685485e-002 -3.58388573e-002
      -5.76021662e-003 1.99716748e-003 4.41411277e-003 9.62508377e-003
      1.35604599e-002 1.35604599e-002 4.17045318e-003 -1.46309892e-003
      -3.50900441e-002 -1.04131624e-002 -9.94519913e-004 2.28843826e-004
      2.01159134e-003 -1.89055735e-003 1.40731269e-002 -1.93371007e-003
      -3.00478302e-002 -3.09270322e-002 -7.35256169e-003
      -2.30829674e-003 -3.32756113e-004 1.75684155e-003 1.35604599e-002
      -6.83238823e-003 -2.57026590e-003 -4.14473424e-003
      -3.39530106e-003 -1.37738962e-005 2.65243696e-003 4.91459947e-003
      7.16068968e-003 -6.83238823e-003 -6.83238823e-003 1.54444799e-002
      3.13813007e-003 2.87793839e-004 9.52020870e-004 5.12531493e-004
      2.04770523e-003 1.84837263e-004 -6.83238823e-003 1.44123547e-002
      -2.00109207e-004 -4.81261173e-003 -8.78262334e-003
      -1.12845199e-002 -1.44571979e-002 -1.57254450e-002
      -1.58799328e-002 -6.83238823e-003 2.74916850e-002 4.37068800e-003
      -2.07050163e-002 -2.23393682e-002 -1.47610465e-002
      -1.40293408e-002 -8.58825166e-003 -3.32376640e-003 3.26483473e-002
      -1.07538514e-002 2.76789418e-003 1.15733105e-003 1.22922676e-004
      2.38166098e-003 6.43105537e-004 1.22432620e-003 9.34512261e-003
      4.27145930e-003 -1.77588463e-002 1.98217435e-003 1.93477748e-003
      3.79309873e-004 3.94401560e-003 -1.32286800e-002 -2.23450013e-003
      6.64970931e-003 4.27145930e-003 6.48382446e-003 -1.03217335e-002
      -2.48353649e-002 -1.69993974e-002 -1.59628654e-003
      -1.78034802e-003 -1.43001950e-003 2.28036055e-003 1.79665033e-002
      -1.99206313e-003 -6.46862993e-003 -6.02200441e-003
      -3.09343846e-003 4.20119381e-003 -2.38556089e-003 -3.20391147e-003
      2.60076043e-003 4.27145930e-003 1.49823232e-002 3.54168168e-003
      1.07109302e-003 5.56709070e-004 -7.75652588e-005 -1.97821017e-002
      -2.97842477e-003 1.50887552e-003 -7.70869781e-004 1.99460648e-002
      1.23658506e-002 -9.58125340e-004 -7.89293670e-004 6.71441609e-004
      -4.91159409e-003 -3.78168887e-003 -6.44825585e-003
      -1.72409089e-003 2.58089299e-003 2.14009918e-003 1.41984504e-003
      1.18660717e-003 4.01569158e-003 -6.24287291e-004 -9.81584191e-004
      -3.43004102e-003 -1.38112856e-003 1.51767982e-002 5.83101390e-003
      3.79090919e-003 2.03847587e-002 3.47656035e-003 -8.78762454e-003
      -6.10516639e-003 -1.16967652e-002 -4.43967432e-003 4.22714045e-004
      -1.48995547e-002 -3.99828097e-003 7.69960973e-003 5.11462539e-002
      4.91180830e-003 4.65871708e-004 8.02810246e-004 -2.90179881e-003
      -9.76763200e-003 1.22868037e-002 4.74682450e-003 -1.32595971e-002
      -1.76090910e-003 -2.50284770e-003 -2.25632940e-003
      -2.93409475e-003 -2.21692603e-002 -1.44312512e-002 8.33866000e-003
      3.71114700e-003 1.04603088e-002 2.79347715e-003 -2.21908995e-004
      -3.91079637e-004 2.86782190e-004 -1.03516802e-002 -4.13096100e-002
      7.98333809e-003 4.42470238e-003 8.63647740e-003 -7.67810852e-004
      -1.24894461e-004 2.47635460e-003 -4.13341448e-003 -3.97568867e-002
      1.48457587e-002 2.35126317e-002 7.46215228e-003 -1.99029874e-002
      -5.32647921e-003 -5.72956924e-004 1.52214919e-003 3.00318236e-003
      7.50637287e-003 2.51268260e-002 7.19313277e-003 -4.04451452e-002
      -3.09558194e-002 -1.07362671e-002 -4.02829517e-003
      -3.08832293e-003 1.15443040e-002 1.41826170e-002 -2.24121176e-002
      8.87481589e-003 2.00063689e-003 -1.77624095e-002 -1.61067378e-002
      3.87499691e-003 8.79099313e-003 1.11737046e-002 -1.57039128e-002
      2.51116455e-002 -1.79243349e-002 -3.54627408e-002 -3.53426859e-002
      -4.06168513e-002 -6.54729921e-003 1.04353242e-002 3.43387201e-002
      2.92817503e-002 5.52080050e-002 -1.09321605e-002 -2.06179060e-002
      -1.80782229e-002 -2.24126466e-002 -1.64408870e-002
      -1.72794722e-002 5.70023898e-003 2.50342023e-002 5.92275895e-002
      -2.65444275e-002 -4.07825038e-002 -3.19958813e-002
      -1.19666196e-002 -7.91837554e-003 -6.03103917e-003 7.95732625e-003
      7.14235827e-002 2.37532090e-002 -2.68470179e-002 -3.22721712e-002
      -3.67605910e-002 -3.43575813e-002 -1.58005450e-002 4.01926052e-004
      2.08272729e-002 3.77047956e-002 3.01033445e-002 -3.76075767e-002
      -3.80096883e-002 -3.83566506e-002 -1.27763618e-002
      -4.78690583e-003 8.55569076e-003 1.56497676e-002 3.53731476e-002
      1.26596289e-002 -3.73050608e-002 -4.93254587e-002 -3.61471288e-002
      -9.97036113e-004 1.89384387e-003 1.41059153e-003 6.36742264e-003
      3.79523970e-002 9.84257925e-003 -2.27601007e-002 -2.90133320e-002
      -7.44088599e-003 6.48602983e-003 1.79372784e-002 7.58887082e-003
      9.90476459e-003 7.58887082e-003 1.42913787e-002 -4.54723723e-002
      -4.93171401e-002 -2.83274818e-002 -1.48930009e-002 2.59910035e-003
      7.65840616e-003 1.30415084e-002 2.75782868e-002 9.44473315e-003
      -2.61818022e-002 -3.14007066e-002 -3.75270983e-003 9.13736783e-003
      1.92517601e-002 6.65127672e-003 1.67112071e-002 2.04941556e-002
      -1.24649238e-003 -6.25507208e-004 4.61295771e-004 1.89203036e-003
      5.04218321e-003 7.67035503e-003 -3.31496424e-003 6.53964933e-004
      -1.63173792e-003 2.65722629e-003 2.51394766e-003 3.07851075e-003
      1.97298918e-002 -3.31496424e-003 -3.31496424e-003 -4.88895085e-003
      1.17644267e-004 -1.91016099e-003 -2.15414344e-004 -1.19914487e-003
      -4.15155984e-004 3.31503968e-003 1.09353836e-003 -3.31496424e-003
      -3.31496424e-003 8.73690937e-003 5.08789439e-003 1.96338235e-003
      -5.46285664e-005 7.17565999e-004 3.87900858e-003 -3.31496424e-003
      -3.31496424e-003 -3.31496424e-003 1.00059342e-002 8.59389268e-003
      -5.64531051e-003 4.56778705e-003 5.86058293e-003 -1.29169028e-003
      -9.47402790e-003 -1.21604213e-002 -6.27398898e-004 7.44704041e-004
      -5.37880510e-003 -3.21853124e-002 -3.02255037e-003 9.64468252e-003
      1.90856832e-003 -1.37205347e-002 -5.98594779e-003 7.69769261e-003
      7.50320498e-003 -1.89910270e-002 1.00041449e-004 9.91170760e-004
      3.41750449e-003 -8.21973570e-003 -9.47402790e-003 1.67314913e-002
      2.26764064e-002 2.01499015e-002 1.09755537e-002 3.89123423e-004
      1.43787905e-003 9.80824791e-003 -1.35610485e-003 -9.47402790e-003
      1.62592512e-002 3.22896726e-002 3.69944908e-002 1.58199798e-002
      -1.88695490e-002 8.58626422e-003 9.33958497e-003 -1.35863607e-003
      -3.12036350e-002 1.65264271e-002 3.34545523e-002 2.88468339e-002
      -3.28298309e-003 9.00199544e-003 3.01173190e-003 -1.17493803e-002
      -4.46149483e-002 -4.26368304e-002 -1.35080954e-002 2.85018031e-002
      3.81378457e-002 1.67898703e-002 1.58206522e-002 1.86617896e-002
      2.73689013e-002 1.34705352e-002 -2.16672588e-002 3.24638933e-002
      3.94434370e-002 3.83090377e-002 3.01554408e-002 1.76290032e-002
      2.02388987e-002 2.10400876e-002 -3.30784284e-002 -2.42416877e-002
      -1.47786830e-002 1.88502241e-002 1.53709892e-002 1.31137585e-002
      1.32622095e-002 1.32016419e-002 8.20285454e-003 -1.19620906e-002
      -3.03340033e-002 -1.39864599e-002 1.91247761e-002 2.89408881e-002
      2.01998446e-002 1.58651788e-002 -2.24456703e-003 3.39751341e-003
      -8.35398585e-003 -2.03883220e-002 -1.15435040e-002 3.35604511e-002
      3.85441259e-002 4.16067950e-002 2.12126747e-002 1.59138534e-002
      1.99446063e-002 -2.14268100e-002 -2.01670378e-002 -1.07363304e-002
      1.40502881e-002 2.01353952e-002 2.03341711e-002 3.74068804e-002
      2.58028843e-002 3.09991073e-002 -7.89108337e-004 -1.82656795e-002
      -2.45310478e-002 -6.68093422e-003 2.86724772e-002 4.25733514e-002
      1.22460052e-002 -4.16275673e-002 -2.93447990e-002 -2.52565667e-002
      -3.58968526e-002 -2.59886980e-002 1.02382433e-002 2.39117276e-002
      3.15952189e-002 1.60784163e-002 -1.09910322e-002 -1.07025495e-002
      1.02421287e-002 2.13123206e-003 1.75023694e-002 3.29973618e-003
      2.20506489e-002 2.56870966e-002 3.60837467e-002 1.62570663e-002
      1.10899210e-002 -1.86037291e-002 -3.83682698e-002 -3.50175761e-002
      -3.50301564e-002 -2.45954981e-003 3.42370309e-002 2.78853644e-002
      2.55233441e-002 1.72014013e-002 6.70045940e-003 -1.29286759e-002
      3.51989712e-003 -1.82535369e-002 1.79454382e-003 2.49922983e-002
      2.48563685e-003 2.06755474e-003 3.82787059e-003 1.71388909e-002
      -5.23731671e-003 2.03957534e-004 -6.15189690e-003 8.08967184e-003
      5.20139001e-003 1.11859024e-003 5.61647266e-006 2.13071704e-003
      1.68517157e-002 -5.23731671e-003 -1.22940717e-002 -4.59921686e-003
      4.86818934e-003 4.42935247e-003 4.82619181e-003 7.68980244e-003
      1.26804756e-002 6.73212856e-003 -6.93364069e-003 1.63382757e-003
      -1.46389601e-003 -5.83112705e-005 4.32435749e-003 7.75047299e-003
      1.05915871e-002 1.11134592e-002 4.45195427e-003 -5.23731671e-003
      -7.12885568e-003 -5.43534942e-003 -3.39620095e-003
      -4.93111671e-004 -6.18003949e-004 -4.11485758e-004
      -1.06148142e-003 -2.70405356e-002 -5.98995434e-003 1.06018418e-002
      3.40291671e-002 3.29338200e-002 1.26011586e-002 1.94868725e-003
      -1.70994038e-003 6.27250352e-004 -2.41788160e-002 -1.46343708e-002
      1.58570074e-002 3.87020595e-002 2.88184322e-002 2.29255594e-002
      2.41906242e-003 -7.23906967e-004 -1.55134650e-003 -7.62897590e-003
      -1.29071716e-003 -5.98995434e-003 -1.56361237e-002
      -1.74076091e-002 -3.58103262e-003 1.62048358e-002 -1.87018584e-003
      -8.30629189e-003 -3.11374851e-002 -4.20053564e-002
      -6.64912339e-004 -4.01116762e-004 -2.48020049e-003 2.91407984e-002
      1.62527505e-002 3.76056973e-003 3.28827067e-003 -8.82466603e-003
      -3.49196605e-002 8.57124478e-003 2.57952232e-002 3.41696553e-002
      2.66693253e-002 2.56473292e-002 9.87569802e-003 4.77056438e-003
      -3.86442281e-002 -4.54136655e-002 -6.00021333e-002
      -2.70939227e-002 9.81462188e-003 4.52620648e-002 5.19513562e-002
      1.80094969e-002 -2.26447568e-003 -1.74688026e-002 -4.15402614e-002
      -1.77594891e-003 1.93742011e-002 2.45058257e-002 5.53621426e-002
      6.05437420e-002 2.09624674e-002 6.28881250e-003 -5.36817312e-003
      -5.20412102e-002 -6.46551251e-002 -5.87830469e-002
      -5.50464215e-003 5.82631528e-002 3.16795856e-002 8.48580059e-003
      5.79434400e-003 -1.61210410e-002 -4.84051332e-002 -4.88926992e-002
      -3.17748040e-002 9.77930613e-003 4.68692482e-002 5.10217249e-002
      1.66531857e-002 9.59851686e-003 -2.08793045e-003 -3.89097966e-002
      -5.28485291e-002 -4.97104712e-002 -5.21414913e-003 4.46342863e-002
      7.52642751e-002 1.31999329e-002 3.10163922e-003 -1.38593710e-003
      -2.78321952e-002 -6.01940826e-002 -5.63200824e-002 3.07680364e-003
      7.36261383e-002 7.50744790e-002 2.47583911e-002 3.54451593e-004
      -2.46470817e-003 -1.29892919e-002 -5.59951067e-002
      -5.22619076e-002 -1.54532418e-002 6.08759224e-002 3.21521163e-002
      1.50984414e-002 1.16872052e-002 1.64767753e-005 -2.40672082e-002
      -4.63785864e-002 -4.41905186e-002 -1.26626464e-002 2.19447818e-002
      1.28612379e-002 2.37169582e-002 6.36438420e-003 -6.07417384e-003
      -5.71779814e-003 -1.29011422e-002 -1.83033030e-002
      -4.92023351e-003 1.22857944e-003 4.06820774e-002 2.13383120e-002
      9.15802829e-003 -7.54386652e-004 -6.39439514e-003 -4.22612913e-002
      -4.58265841e-002 -2.68049203e-002 1.24864960e-002 1.15262242e-002
      1.28235957e-002 9.78531688e-003 -5.47350338e-003 -2.03359942e-003
      -1.03820590e-002 -1.77709423e-002 -1.81357693e-002 1.46018108e-003
      -7.87351746e-005 4.36825445e-003 1.45403901e-004 -1.26082741e-003
      -1.74000654e-002 -3.16124945e-003 -5.42549649e-004
      -2.56974134e-004 1.18832540e-005 9.09062568e-003 1.12566631e-002
      3.12088814e-004 1.20601011e-003 -1.62490439e-002 -8.96619074e-003
      -3.38423788e-003 -2.64767720e-003 2.38613895e-004 1.48635143e-002
      -3.98357725e-003 -8.14618252e-004 -1.12607963e-002 4.21694573e-003
      -4.36286180e-004 -1.13815338e-004 -4.18968993e-004
      -5.68288565e-003 1.30040133e-002 -1.78636108e-002 -5.51702501e-003
      8.39838386e-003 4.57584821e-002 -2.56508065e-004 -1.65400340e-003
      -1.43280299e-003 1.03699858e-003 3.18116508e-003 -2.12912960e-003
      -3.50542017e-003 1.70356117e-003 3.28951478e-002 -5.73434914e-003
      -1.39023727e-002 -1.63116381e-002 -5.45483548e-003
      -1.13155006e-003 -1.89426672e-002 -2.50903964e-002
      -4.09906171e-002 -3.00815981e-002 8.41150712e-003 7.13785319e-003
      -5.30551793e-003 1.01034585e-002 -2.37056706e-003 4.76076733e-003
      5.67379687e-003 1.33217555e-002 1.37930131e-002 5.88941528e-003
      6.22452423e-003 -4.06002579e-003 -1.31166782e-002 -8.22684448e-003
      -1.53779006e-002 -1.38569325e-002 -1.40690291e-002 1.28733907e-002
      3.87599692e-002 3.97944227e-002 3.31505239e-002 9.65089723e-003
      2.83953231e-002 -1.05853323e-002 -2.52340846e-002 -4.80489843e-002
      -5.11556268e-002 -1.47630172e-002 -4.29372722e-003
      -4.02375637e-003 4.60003130e-002 5.61953001e-002 6.14258321e-003
      1.50011678e-003 -2.17801891e-003 -3.48259695e-002 -6.17112219e-002
      -5.71317896e-002 -3.61808166e-002 5.15548997e-002 2.94747483e-002
      -1.32250991e-002 -1.77129637e-002 -2.21747812e-002
      -1.28251249e-002 3.30886692e-002 2.41366383e-002 2.56719608e-002
      4.87874150e-002 5.27868792e-002 2.18920857e-002 7.13741174e-003
      -1.44684326e-003 -1.54746212e-002 -4.78141829e-002
      -5.77757731e-002 -9.19751823e-003 5.43942414e-002 5.46187535e-002
      5.45108318e-003 6.31592527e-004 -1.88481907e-004 -1.21817319e-002
      -5.66145852e-002 -6.17133267e-002 -2.94076707e-002 6.13829121e-002
      6.26062006e-002 8.65739398e-003 -2.14515277e-003 -2.13441905e-003
      -5.75180817e-003 -4.47684787e-002 -6.18916973e-002
      -4.65448722e-002 4.32863422e-002 6.75247163e-002 2.36658454e-002
      6.00821059e-003 1.83780340e-003 -1.85084285e-003 -3.61800082e-002
      -5.81334531e-002 -1.55817280e-002 6.23438284e-002 5.90325743e-002
      3.05085648e-002 5.08182868e-003 2.72558932e-003 1.92307285e-003
      -1.79360453e-002 -5.54085858e-002 -2.53888611e-002 1.08777378e-002
      3.32116112e-002 8.33016541e-003 1.59260456e-003 -8.42359150e-004
      -8.48111697e-004 -1.91919897e-002 -4.34082747e-002
      -3.87432352e-002 -6.32153684e-003 -6.07353263e-003 3.88514739e-003
      1.86644755e-002 2.22236570e-002 6.11070823e-003 -5.05663280e-004
      -5.68633294e-003 -1.28213391e-002 -1.20231193e-002
      -4.64212528e-004 1.73782166e-002 5.37237059e-003 2.41912925e-003
      4.21505142e-003 -2.19902978e-003 -2.72947066e-002 -2.91568059e-002
      -4.84697614e-003 -6.32153684e-003 3.10025550e-002 4.63137068e-002
      4.68976088e-002 1.25759123e-002 3.76026449e-003 1.43917860e-003
      3.47560039e-004 -6.91878237e-003 2.21904367e-002 7.83606619e-003
      -1.21683907e-002 7.19736610e-003 7.20442832e-003 1.54792937e-003
      9.68616689e-004 2.92185548e-004 7.11611472e-003 4.24464345e-002
      -3.82520817e-003 -2.10631862e-002 -3.99487233e-003 4.67740670e-002
      4.78304597e-003 1.58231682e-003 2.17948644e-003 2.16940623e-002
      -6.39032666e-003 7.44802086e-003 -9.62524209e-003 1.60832331e-002
      1.10283969e-002 5.39549394e-003 3.93536128e-003 8.59082094e-004
      -2.86725983e-002 3.57491635e-002 -1.99167132e-002 -3.33362669e-002
      -2.46365778e-002 1.85343381e-002 1.21785067e-002 1.03268428e-002
      8.16332921e-003 2.69254018e-002</_>
    <_>
      1.64606068e-002 2.72125509e-002 1.88115742e-002 1.05569279e-002
      -3.40366475e-002 -2.01237518e-002 -2.98008113e-003
      -3.91784852e-004 -1.01917302e-002 2.69499794e-002 2.73475442e-002
      2.72658207e-002 1.56388525e-002 -3.79820056e-002 -2.38758810e-002
      -4.63738013e-003 -3.96483438e-003 2.08134879e-003 2.52308939e-002
      2.81121563e-002 2.53662206e-002 1.85082182e-002 -1.80918481e-002
      -2.27279477e-002 -2.71633500e-003 4.96093533e-004 3.91100813e-003
      2.22967938e-002 2.61992905e-002 2.74620112e-002 8.14811606e-003
      -3.97667736e-002 -2.63361428e-002 -3.32542160e-003
      -1.20810953e-004 5.24287019e-003 3.03003881e-002 1.63230170e-002
      1.63833927e-002 -1.10685416e-002 -2.94835940e-002 -2.29920205e-002
      -1.16312578e-002 -9.12596099e-003 1.12826945e-002 2.92353984e-002
      -1.25177845e-003 -5.53300930e-003 -1.58684757e-002
      -2.90712584e-002 -2.36367751e-002 -1.30431261e-002
      -4.53317678e-003 2.65978053e-002 2.20387727e-002 1.68068949e-002
      1.93745121e-002 -1.24203917e-002 -2.99178902e-002 -2.90994383e-002
      -1.15705794e-002 -9.31466557e-003 3.53507372e-003 2.41036471e-002
      6.31659478e-003 -7.07820989e-003 -2.11986192e-002 -2.89789271e-002
      -2.25575361e-002 -1.18338196e-002 4.95710410e-004 2.26381049e-002
      2.58430075e-002 -9.16449528e-004 -6.32276759e-003 -1.42743466e-002
      -2.44011506e-002 -2.15427205e-002 -1.48783298e-002
      -5.26287779e-003 2.20904648e-002 2.37648413e-002 3.12520959e-003
      -9.08165518e-003 -9.17853788e-003 -1.33390734e-002
      -1.98374279e-002 -2.05311310e-002 -8.16322397e-003 2.15747450e-002
      2.21600812e-002 -2.88216933e-003 -9.60049126e-003 -1.94650833e-002
      -2.48533934e-002 -1.95038617e-002 -1.17662288e-002
      -1.05671363e-003 1.88464466e-002 1.44717414e-002 -4.58804332e-003
      -1.05683543e-002 -1.39630465e-002 -1.52644720e-002
