<?xml version="1.0"?>
<opencv_storage>
<my_svm type_id="opencv-ml-svm">
  <svm_type>C_SVC</svm_type>
  <kernel><type>LINEAR</type></kernel>
  <C>1.</C>
  <term_criteria><epsilon>2.2204460492503131e-016</epsilon>
    <iterations>100</iterations></term_criteria>
  <var_all>100</var_all>
  <var_count>100</var_count>
  <class_count>14</class_count>
  <class_labels type_id="opencv-matrix">
    <rows>1</rows>
    <cols>14</cols>
    <dt>i</dt>
    <data>
      0 1 2 3 4 5 6 7 8 9 10 11 12 13</data></class_labels>
  <sv_total>91</sv_total>
  <support_vectors>
    <_>
      1.04808584e-001 7.59299099e-002 6.90410063e-002 4.86936718e-002
      4.18047681e-002 1.03561161e-002 -4.30822559e-002 -5.99319115e-002
      -4.29757982e-002 3.33799534e-002 9.21713039e-002 5.05489670e-002
      4.61236387e-002 7.75722936e-002 1.48681536e-001 1.27300069e-001
      -1.51312817e-002 -1.08336672e-001 -1.12442635e-001
      -1.24700740e-003 -1.96175417e-003 -6.55737966e-002
      -5.90042621e-002 7.17174932e-002 2.20110103e-001 2.33568549e-001
      7.32534230e-002 -1.24365143e-001 -1.92083135e-001 -6.81438223e-002
      -9.36312228e-002 -1.93725526e-001 -1.67629838e-001 1.39602534e-002
      1.86304346e-001 2.45810464e-001 1.27011165e-001 -1.13978557e-001
      -2.35347897e-001 -1.26722261e-001 -1.07196115e-001
      -1.96295545e-001 -1.72769904e-001 1.99215077e-002 1.84661955e-001
      2.48380452e-001 1.41397238e-001 -1.02162510e-001 -2.44806826e-001
      -1.43891335e-001 -9.96989310e-002 -2.02363268e-001
      -1.60132661e-001 4.09835763e-002 2.09829986e-001 2.58234739e-001
      1.54642761e-001 -8.28492790e-002 -2.27029473e-001 -1.36287704e-001
      -8.97381827e-002 -1.99899688e-001 -1.45853043e-001 4.90890481e-002
      2.15365410e-001 2.58736581e-001 1.44256189e-001 -8.45981166e-002
      -2.10894540e-001 -1.12336174e-001 -2.96238083e-002
      -1.60132661e-001 -1.60239115e-001 -1.12382397e-002 1.64284155e-001
      2.05191746e-001 8.40353668e-002 -7.86368623e-002 -1.31862327e-001
      -3.07339188e-002 8.23929980e-002 -1.45993417e-003 -1.84160471e-002
      1.52832652e-002 9.49237645e-002 1.17947593e-001 6.37944862e-002
      4.09835763e-002 6.81133568e-002 1.07378565e-001 1.13628730e-001
      9.51366946e-002 1.07059188e-001 7.12916702e-002 4.83742990e-002
      4.25195023e-002 7.22193122e-002 1.27406523e-001 1.69850037e-001
      1.39541954e-001</_>
    <_>
      2.00648084e-001 1.98900685e-001 1.77118570e-001 9.14041027e-002
      2.97501832e-002 2.18862165e-002 3.11757959e-002 6.05198741e-002
      6.53359219e-002 1.13820396e-001 1.91504255e-001 7.69756436e-002
      -4.32777777e-003 -7.55941123e-002 6.54245215e-003 3.26731279e-002
      -9.15357203e-004 1.18688028e-002 7.84220845e-002 1.40522704e-001
      1.53830545e-002 -1.99267611e-001 -2.40313902e-001 -1.42813906e-001
      3.99122499e-002 6.38895258e-002 4.33038399e-002 2.68337340e-003
      2.54641175e-002 9.68542770e-002 -1.46309689e-001 -3.67160350e-001
      -3.01604539e-001 -7.98385665e-002 7.98049271e-002 1.45338818e-001
      1.70574903e-001 3.10913175e-002 -9.12595615e-002 -3.55765037e-002
      -1.58116058e-001 -3.59400541e-001 -2.92460769e-001
      -1.99735519e-002 1.84722230e-001 2.99188316e-001 2.32676640e-001
      -3.80215719e-002 -2.34218061e-001 -1.14342310e-001
      -1.61568925e-001 -3.66691709e-001 -2.34343037e-001 1.25034243e-001
      3.65108639e-001 4.00954723e-001 1.89289436e-001 -1.69703692e-001
      -3.33445698e-001 -1.51489019e-001 -1.39660671e-001
      -3.00220549e-001 -9.88840088e-002 2.75712103e-001 4.19669241e-001
      2.96485215e-001 3.06654889e-002 -2.90203124e-001 -3.55248630e-001
      -1.58885509e-001 8.31351876e-002 -6.28921166e-002 4.36933339e-003
      1.68194652e-001 2.17335239e-001 7.96811059e-002 -1.51103705e-001
      -3.10237944e-001 -2.63823658e-001 -6.27277941e-002 2.76710749e-001
      1.90610901e-001 1.42979279e-001 7.11621344e-002 5.72231524e-002
      -2.17432994e-003 -8.12421441e-002 -6.23829663e-002 2.32690107e-002
      1.23410776e-001 2.77928054e-001 2.59661347e-001 2.55718887e-001
      1.34948671e-001 6.02085851e-002 4.19210456e-002 1.15787491e-001
      2.22535416e-001 2.28245929e-001 1.83786109e-001</_>
    <_>
      2.05665037e-001 1.88652724e-001 1.62468582e-001 6.10885881e-002
      1.81410694e-003 -7.45400228e-003 -1.11803571e-002 7.96027556e-002
      7.70662799e-002 1.32321596e-001 1.84709132e-001 6.91668242e-002
      -5.06118983e-002 -1.24011606e-001 -3.10425367e-002 2.78952741e-003
      -5.11273462e-003 5.29319867e-002 9.66947675e-002 1.70582503e-001
      -2.91708205e-002 -2.62812525e-001 -3.56171995e-001
      -2.49563709e-001 -4.08365168e-002 8.23166370e-002 9.37884971e-002
      2.54411232e-002 -2.67896671e-002 3.93910110e-002 -1.41962171e-001
      -3.32524359e-001 -2.46031165e-001 2.85838880e-002 2.10015461e-001
      3.12329650e-001 2.39767790e-001 -1.24500003e-002 -2.14602306e-001
      -1.49728343e-001 -1.14372298e-001 -2.25194976e-001
      -5.47465160e-002 2.60685176e-001 4.30449635e-001 4.89508271e-001
      3.44755888e-001 -3.43623012e-003 -2.52843976e-001 -1.71014100e-001
      -1.47307307e-001 -2.73680180e-001 -1.27055347e-001 1.62095994e-001
      3.36992532e-001 4.14411426e-001 3.50844175e-001 8.66073221e-002
      -1.15116082e-001 -9.22087356e-002 -1.75190002e-001
      -3.87957036e-001 -3.22751015e-001 -6.64933622e-002 1.12422347e-001
      1.99246809e-001 2.25000620e-001 8.68231803e-002 -2.71209795e-002
      -2.50911172e-002 5.02387956e-002 -2.06973612e-001 -2.88470775e-001
      -1.51990488e-001 4.26514000e-002 1.22939453e-001 9.90773216e-002
      3.32265384e-002 3.10213584e-002 5.25614470e-002 2.44627729e-001
      8.59453604e-002 -2.70824879e-002 -6.68453276e-002 1.33258766e-002
      5.68549596e-002 1.10038500e-002 1.37932664e-002 2.43873373e-002
      6.94375932e-002 2.25995302e-001 2.10561961e-001 1.81626871e-001
      8.79346877e-002 1.96271930e-002 9.32453945e-003 5.44145238e-003
      3.27615743e-003 -2.79603023e-002 1.05150789e-002</_>
    <_>
      6.69891434e-003 -7.12198392e-002 -1.62294939e-001 -2.15491682e-001
      -1.90284029e-001 -9.71023515e-002 -4.20616614e-003 5.74622713e-002
      3.23270112e-002 1.93073712e-002 -2.59860270e-002 -1.55706733e-001
      -2.54555613e-001 -2.12399781e-001 -5.42396940e-002 6.77876770e-002
      7.57566914e-002 2.86919978e-002 -1.03769293e-002 -6.67451462e-003
      -1.09432146e-001 -2.29766265e-001 -2.15128809e-001
      -1.93064939e-002 1.90444469e-001 2.80476838e-001 1.92326009e-001
      7.13435141e-003 -8.89974535e-002 -6.98279217e-002 -1.60532326e-001
      -2.42291272e-001 -1.04020588e-001 1.25256911e-001 2.79979169e-001
      3.26540381e-001 2.37905726e-001 2.59075277e-002 -1.10698812e-001
      -9.68475491e-002 -1.00600623e-001 -1.48895442e-001
      -2.25331951e-002 1.45759851e-001 2.25361794e-001 2.43016794e-001
      1.78473651e-001 5.67917619e-003 -1.35906473e-001 -1.10432260e-001
      -2.67452355e-002 -6.16714768e-002 3.97003107e-002 1.76983684e-001
      2.29141608e-001 2.45606035e-001 1.95974931e-001 3.99175100e-002
      -8.57707486e-002 -6.22632988e-002 4.00362238e-002 2.32487302e-002
      1.09639116e-001 2.44335219e-001 3.07207078e-001 3.14984769e-001
      2.58703083e-001 1.05309233e-001 2.05168668e-002 6.34160414e-002
      7.42706433e-002 -6.65364088e-003 -3.14399451e-002 6.18834682e-002
      1.80625662e-001 2.30901182e-001 1.76855862e-001 7.75747448e-002
      5.25742806e-002 1.02689125e-001 3.35908681e-002 -7.89170787e-002
      -1.69439062e-001 -1.94499969e-001 -1.17199823e-001
      -3.42274569e-002 8.27036612e-003 2.84174010e-002 2.10530162e-002
      4.04467061e-002 2.77836970e-003 -6.27600923e-002 -1.28355980e-001
      -2.05218896e-001 -2.00165227e-001 -1.26019374e-001
      -1.23952152e-002 6.07513711e-002 4.45724241e-002 1.51716461e-002</_>
    <_>
      1.72713771e-001 2.13202074e-001 2.48304203e-001 9.41067785e-002
      3.56601514e-002 3.32961529e-002 1.14390329e-001 2.19336912e-001
      1.98837221e-001 1.53528556e-001 1.63512275e-001 1.74998432e-001
      1.40293732e-001 -1.11343591e-002 -2.44157016e-002 6.75034896e-003
      -6.62258267e-002 -4.96810041e-002 -1.02857705e-002 5.53801209e-002
      5.38936108e-002 2.80749537e-002 1.42407808e-002 -4.28459235e-002
      -5.76463677e-002 -4.09002006e-002 -2.09662110e-001
      -3.68000329e-001 -3.51527840e-001 -1.62464306e-001
      -8.41950439e-003 -3.34150344e-002 1.10924356e-001 2.00209200e-001
      1.85371548e-001 1.12231016e-001 -8.87407437e-002 -3.78443629e-001
      -4.40297186e-001 -2.60339528e-001 -3.57197523e-002
      -6.75121993e-002 1.46815106e-001 3.33497912e-001 3.98834765e-001
      3.43192041e-001 1.76611975e-001 -1.58712626e-001 -3.16975772e-001
      -1.97258964e-001 -1.47266790e-001 -2.62053311e-001
      -7.95311853e-002 1.70966908e-001 3.09262305e-001 3.42130959e-001
      3.02811116e-001 8.26907977e-002 -1.21998757e-001 -9.49515626e-002
      -2.23358706e-001 -4.36276764e-001 -3.40780765e-001
      -6.39541373e-002 8.47303197e-002 1.33885846e-001 1.85678422e-001
      1.12903871e-001 -2.24189386e-002 -4.09925953e-002 1.34050893e-003
      -2.30265737e-001 -2.75355548e-001 -1.46496311e-001 2.68119648e-002
      7.70860612e-002 8.60985965e-002 7.08546340e-002 3.11013795e-002
      2.39593741e-002 1.57205135e-001 3.47410142e-002 -2.01509148e-002
      -5.79849370e-002 1.43669741e-002 6.23148903e-002 4.91231307e-002
      6.00272156e-002 3.73318642e-002 3.48249562e-002 1.39545381e-001
      1.36979759e-001 1.58927336e-001 1.14643060e-001 5.03331609e-002
      3.95777375e-002 3.23043317e-002 4.02410515e-002 -8.78671743e-003
      -2.11507548e-002</_>
    <_>
      1.16729364e-001 -3.34306397e-002 -7.74856955e-002 -1.31692335e-001
      -7.90988207e-002 -4.91169132e-002 2.33069267e-002 1.18787341e-001
      1.21318266e-001 1.80141851e-001 7.35920519e-002 -1.10248886e-001
      -1.59838632e-001 -1.56612411e-001 -3.64344046e-002
      -6.31900653e-002 -1.86594293e-001 -1.84313715e-001
      -6.48310557e-002 1.25462383e-001 6.23001251e-003 -1.56389892e-001
      -1.14170454e-001 2.49200501e-002 1.04269221e-001 2.07760576e-002
      -2.39187807e-001 -4.97788846e-001 -4.68502253e-001
      -1.43957749e-001 6.23001251e-003 -1.67236835e-001 -2.76734624e-002
      2.35294104e-001 3.70713443e-001 3.86177301e-001 9.06689093e-002
      -4.39438134e-001 -6.73119128e-001 -3.62619907e-001 7.45097995e-002
      -8.48838910e-002 8.12126473e-002 4.20998454e-001 6.46613896e-001
      6.98289573e-001 4.48226959e-001 -1.20873302e-001 -4.51453239e-001
      -2.57905722e-001 7.05882311e-002 -6.22722879e-002 1.41649306e-001
      4.28146273e-001 5.68404973e-001 5.70268452e-001 4.32095706e-001
      6.20776415e-002 -1.58253402e-001 -4.50007282e-002 9.57307667e-002
      -8.58016983e-002 1.86900385e-002 1.88457832e-001 2.46363550e-001
      1.98637277e-001 1.32220909e-001 -5.30106127e-002 -7.31191859e-002
      8.21025819e-002 2.19607890e-001 -2.92865857e-002 -1.02183260e-001
      1.42956330e-002 1.25712737e-001 7.49826953e-002 -6.13265857e-002
      -9.91516262e-002 6.50535375e-002 2.20970601e-001 2.50980437e-001
      4.98401001e-002 -6.15769364e-002 -7.31191561e-002 -3.29856724e-002
      -4.03559729e-002 -6.31900653e-002 2.23891232e-002 1.49464563e-001
      2.30204374e-001 2.39215732e-001 9.15867761e-002 3.73800769e-002
      -3.71297225e-002 -3.94381694e-002 -1.12918690e-002 7.84313679e-002
      1.44625187e-001 1.29161403e-001 1.05187088e-001</_>
    <_>
      2.83541650e-001 2.62616754e-001 1.83749989e-001 9.52872708e-002
      5.12494110e-002 4.86502089e-002 9.67735425e-002 1.72649160e-001
      1.79868564e-001 1.89969480e-001 2.01916710e-001 1.08339168e-001
      1.62077677e-002 -1.13077750e-002 3.60978805e-002 6.52180612e-002
      6.01972081e-002 9.09948647e-002 1.22520551e-001 1.60790116e-001
      1.83711573e-002 -1.32078826e-001 -1.79532900e-001 -6.43824190e-002
      6.37959540e-002 1.35513276e-001 9.43221003e-002 -1.19608883e-002
      -3.66193764e-002 2.06586998e-002 -6.56646341e-002 -2.11593732e-001
      -1.79492742e-001 5.61188580e-003 1.62418753e-001 2.37412840e-001
      1.72350749e-001 -5.09294793e-002 -1.68243751e-001 -8.79710093e-002
      -8.33909512e-002 -2.22917646e-001 -1.67004988e-001 6.94806725e-002
      2.46702045e-001 2.84178972e-001 1.55223727e-001 -1.15921967e-001
      -2.30190873e-001 -9.15055946e-002 -1.01894133e-001
      -2.42361590e-001 -1.43411011e-001 1.24853216e-001 2.90156752e-001
      2.67345011e-001 9.22820494e-002 -1.65222794e-001 -2.35394657e-001
      -9.89079401e-002 -9.36640054e-002 -2.13746771e-001
      -7.42337182e-002 1.80736512e-001 2.88291365e-001 2.20995590e-001
      3.05580217e-002 -1.80968255e-001 -2.27992311e-001 -8.36086571e-002
      2.05912627e-002 -1.13137744e-001 -4.47182842e-002 1.18155301e-001
      1.97234824e-001 1.00859031e-001 -9.41639841e-002 -2.03680649e-001
      -1.80414483e-001 -2.07853429e-002 1.48546547e-001 6.64460659e-002
      3.55387218e-002 1.08214552e-002 -2.42148060e-002 -1.19891956e-001
      -2.01799124e-001 -1.71748951e-001 -8.03054273e-002 4.39058430e-002
      1.81805998e-001 1.72258899e-001 1.22119911e-001 5.32255392e-004
      -1.21367462e-001 -1.87147573e-001 -1.34726450e-001
      -4.25652489e-002 2.57250816e-002 6.70590475e-002</_>
    <_>
      4.48686443e-002 5.06156050e-002 7.40690157e-002 1.03606284e-002
      -2.55567227e-002 -4.43350971e-002 2.57772673e-002 1.19545601e-001
      8.60333368e-002 5.91087639e-002 4.28990684e-002 1.13418116e-003
      -3.93340830e-003 -4.44851778e-002 -2.89789643e-002
      -3.94608080e-002 -3.25403214e-002 5.76392300e-002 8.41037855e-002
      1.05294563e-001 -8.05571452e-002 -1.52548179e-001 -2.30482034e-002
      1.17233977e-001 1.29388303e-001 6.11123554e-002 -3.25929071e-003
      -1.00360930e-001 -1.35416761e-001 -5.47184683e-002
      -2.64788866e-001 -3.64485323e-001 -3.30072604e-002 3.70952189e-001
      4.55715150e-001 3.83820653e-001 2.19585642e-001 -1.45861313e-001
      -3.53678256e-001 -2.64419079e-001 -3.25625241e-001
      -4.42678094e-001 -7.78245479e-002 4.34860796e-001 6.42016888e-001
      6.16678178e-001 3.94798130e-001 -1.18014097e-001 -4.15274650e-001
      -3.23629916e-001 -2.21271574e-001 -3.55905920e-001
      -9.46036428e-002 2.93679446e-001 4.72610950e-001 5.11503756e-001
      3.64997953e-001 -1.79181155e-002 -2.80060053e-001 -1.71530724e-001
      -2.41687372e-002 -1.78989589e-001 -7.84603432e-002 1.22171178e-001
      1.73738450e-001 1.85200110e-001 8.62510949e-002 -7.28128105e-002
      -1.14728346e-001 3.44882086e-002 2.19907343e-001 2.96519175e-002
      -5.58165796e-002 -2.72829793e-002 3.49562205e-002 -1.73106622e-002
      -1.36827499e-001 -1.46869540e-001 8.04792717e-002 2.41104260e-001
      2.18594730e-001 1.07377723e-001 3.23477872e-002 -2.68765483e-002
      -6.41577784e-003 -5.82692511e-002 -7.86966458e-002 2.15391051e-002
      1.77845344e-001 1.96290612e-001 5.44403680e-002 3.84745821e-002
      6.65788203e-002 1.59279164e-002 -3.12313531e-002 -5.12889549e-002
      2.58136187e-002 9.44729522e-002 8.15880001e-002 4.32614097e-003</_>
    <_>
      3.73994410e-002 2.20419653e-002 1.11238688e-001 8.74220952e-002
      5.19571863e-002 -1.16975075e-002 -2.47006901e-002 -1.55710233e-002
      2.63390178e-003 4.65580560e-002 1.01054095e-001 1.04353204e-001
      1.18417710e-001 1.98521614e-002 1.57598276e-002 1.66567136e-002
      -1.50030162e-002 -6.66020485e-003 8.74524377e-003 3.70311774e-002
      9.72969234e-002 9.07339603e-002 5.90198226e-002 -1.28752198e-002
      7.68391788e-003 3.27326767e-002 1.13866376e-002 -4.92205285e-003
      2.80469772e-003 2.41987444e-002 -9.61776450e-003 -2.10536215e-002
      7.09009171e-002 1.04346849e-001 8.82634073e-002 9.03368294e-002
      1.20709948e-001 9.93575975e-002 9.98369139e-003 1.35017214e-002
      -1.65397763e-001 -1.74979076e-001 1.28396228e-001 4.18261051e-001
      4.86343384e-001 4.62245971e-001 4.00774658e-001 2.30821371e-001
      1.30564498e-003 1.09286597e-002 -3.22587013e-001 -4.64131743e-001
      -9.52472240e-002 4.35631067e-001 6.80785000e-001 6.21722341e-001
      4.53507125e-001 1.85775131e-001 6.79456955e-003 1.24960160e-002
      -3.36383432e-001 -6.27261579e-001 -3.85515630e-001 1.26980633e-001
      3.96115541e-001 3.78745526e-001 2.96269804e-001 5.55435196e-002
      -9.67665613e-002 -1.03726700e-001 -1.32189691e-001
      -3.90005201e-001 -4.22951460e-001 -1.81779921e-001
      -1.16266339e-004 7.67124072e-002 8.65808278e-002 -3.20441537e-002
      -1.49218172e-001 -1.43175155e-001 1.45150386e-002 -1.16825990e-001
      -1.43161237e-001 -8.38177577e-002 -8.11753143e-003 2.25061388e-003
      -5.58607467e-002 -1.25572369e-001 -1.73205554e-001
      -8.80340710e-002 5.71045652e-002 -6.94734138e-003 7.45353028e-002
      9.51627716e-002 5.72272614e-002 -1.13686295e-002 -8.29828456e-002
      -1.23840578e-001 -1.16613500e-001 -4.53964509e-002</_>
    <_>
      1.02074333e-001 1.14486553e-002 -6.02460317e-002 -1.50422215e-001
      -2.13680312e-001 -2.60768175e-001 -2.16900066e-001
      -1.11230507e-001 1.99341159e-002 9.26956534e-002 7.12595955e-002
      -5.93721531e-002 -1.56216264e-001 -1.75799161e-001
      -7.85595700e-002 -8.68368298e-002 -2.04118401e-001
      -2.23760903e-001 -9.33912843e-002 4.42290455e-002 -6.46535587e-003
      -1.46930739e-001 -1.77824333e-001 -3.00985817e-002 1.85948461e-001
      1.95095614e-001 -3.44792232e-002 -2.16856763e-001 -2.00177521e-001
      -5.59585243e-002 -6.71654046e-002 -2.11764589e-001
      -1.38065085e-001 6.96990713e-002 2.45843887e-001 2.30369866e-001
      2.45712567e-002 -1.77103132e-001 -2.23361328e-001 -1.05985604e-001
      -2.21958961e-002 -1.49320826e-001 -5.51146492e-002 1.42638177e-001
      2.81454057e-001 2.43744910e-001 6.76346943e-002 -1.23104602e-001
      -1.46510318e-001 -2.91691925e-002 3.43260802e-002 -7.04792514e-002
      3.14270370e-002 2.45078370e-001 3.93218994e-001 3.60083401e-001
      1.87717125e-001 -2.23928466e-002 -5.97563945e-002 5.31292558e-002
      1.76967159e-002 -1.06479280e-001 -2.36616339e-004 2.63303429e-001
      4.20388520e-001 3.84432763e-001 1.84166089e-001 -3.94273549e-002
      -8.87927860e-002 3.81046273e-002 5.18742129e-002 -1.58166602e-001
      -1.69585705e-001 4.10973653e-002 2.55628258e-001 2.09186822e-001
      -5.92235066e-002 -2.30621696e-001 -2.09359229e-001
      -3.11307684e-002 1.56027555e-001 -3.95963453e-002 -1.59910321e-001
      -1.21287070e-001 3.29335779e-002 1.61209647e-002 -1.52719170e-001
      -1.84812918e-001 -8.03724974e-002 2.95845605e-002 1.69096231e-001
      5.71440160e-002 -5.72232865e-002 -1.13349780e-001 -7.72998631e-002
      -5.83592914e-002 -5.49370237e-002 -1.34396730e-002 4.84712087e-002
      5.90358190e-002</_>
    <_>
      1.84232593e-001 1.38467371e-001 3.51723507e-002 -1.09925680e-001
      -1.85769722e-001 -1.85790017e-001 -1.24358885e-001 2.20733956e-002
      1.16191037e-001 1.54113099e-001 1.45037189e-001 9.79580358e-002
      2.48584803e-003 -1.11219339e-001 -1.36083007e-001 -1.13908134e-001
      -9.03787240e-002 2.44525936e-003 7.17601255e-002 1.13624051e-001
      2.54673115e-003 -5.75907491e-002 -2.49651298e-002 3.38989832e-002
      9.01148990e-002 1.04466960e-001 5.73878065e-002 -2.49854252e-002
      -7.46315643e-002 -2.36105882e-002 -9.29051563e-002
      -1.77886009e-001 -5.37503585e-002 1.46290213e-001 2.52233475e-001
      2.52274096e-001 1.37214303e-001 -6.54541776e-002 -1.97514147e-001
      -1.17748521e-001 -1.08591430e-001 -2.10572511e-001
      -1.03437088e-001 1.39761031e-001 2.94077069e-001 2.92803705e-001
      1.16292506e-001 -1.19062476e-001 -2.19770178e-001 -1.04730748e-001
      -1.23004399e-001 -2.13220701e-001 -9.16926786e-002 1.48877531e-001
      3.24074805e-001 3.20173502e-001 1.51505440e-001 -9.29660425e-002
      -1.93633154e-001 -9.03584287e-002 -1.09986626e-001
      -1.89711586e-001 -2.37526484e-002 2.01070443e-001 3.20051759e-001
      3.10935259e-001 1.88052639e-001 -2.50057187e-002 -1.45260379e-001
      -8.37683603e-002 3.90127786e-002 -4.85554226e-002 -2.24386938e-002
      7.29320198e-002 1.33069545e-001 1.31816462e-001 7.30131939e-002
      -1.19270599e-002 -5.37097678e-002 -6.59006555e-003 1.65837213e-001
      9.91908088e-002 -6.69153733e-003 -7.99482688e-002 -1.10027149e-001
      -1.07378952e-001 -8.64368603e-002 -1.42060453e-004 8.61324444e-002
      1.18879832e-001 1.98483124e-001 1.39700189e-001 2.46810094e-002
      -9.30066332e-002 -1.60987243e-001 -1.53123811e-001
      -9.69079062e-002 3.25241461e-002 1.25348121e-001 1.39781371e-001</_>
    <_>
      1.59255698e-001 4.55691554e-002 -8.41352269e-002 -2.20834062e-001
      -2.64468968e-001 -2.56118655e-001 -2.01629713e-001
      -9.04991403e-002 1.56335197e-002 1.17730834e-001 8.93697962e-002
      -8.74456167e-002 -2.34647468e-001 -2.96234846e-001
      -2.25718141e-001 -1.97532311e-001 -2.63217092e-001
      -2.38962680e-001 -1.12662852e-001 5.57402559e-002 -2.55167242e-002
      -2.29545549e-001 -2.67945021e-001 -1.39482677e-001 1.46096246e-002
      3.42175253e-002 -1.23734720e-001 -2.76916653e-001 -2.41921738e-001
      -6.17018342e-002 -7.54013956e-002 -2.75622487e-001
      -2.07433984e-001 -1.87347829e-003 1.14255063e-001 1.09195501e-001
      -2.18228213e-002 -2.41073057e-001 -2.80952066e-001
      -1.18229628e-001 8.50026682e-002 -8.17650035e-002 -9.63115483e-004
      2.03231692e-001 3.07481706e-001 2.98386693e-001 1.81575164e-001
      -3.59678827e-002 -8.95366222e-002 6.79182261e-002 6.98432475e-002
      -1.03401870e-001 -7.43072201e-003 2.10970834e-001 3.39485109e-001
      3.41068625e-001 2.29027331e-001 5.56617416e-003 -7.37463534e-002
      7.85967484e-002 7.96829313e-002 -9.80007723e-002 -2.65063858e-003
      2.42860451e-001 3.71260822e-001 3.56195569e-001 2.31023878e-001
      -4.83283587e-003 -7.67054111e-002 6.46078289e-002 2.22807124e-001
      5.23451064e-003 -3.82245705e-002 1.28604785e-001 2.76954561e-001
      2.58081555e-001 1.02447681e-001 -5.87529130e-002 -3.01832724e-002
      1.31524801e-001 2.18254700e-001 6.42468920e-003 -1.37268603e-001
      -1.50948495e-001 -9.96364504e-002 -1.28277600e-001
      -1.94934741e-001 -1.72667027e-001 -2.60763522e-002 1.30623981e-001
      1.72922447e-001 3.32547128e-002 -7.14083090e-002 -1.66231588e-001
      -2.30602533e-001 -2.62306750e-001 -2.05717251e-001
      -9.64077115e-002 1.00664403e-002 7.15922117e-002</_>
    <_>
      2.41892338e-001 2.17090786e-001 1.71082154e-001 9.77008641e-002
      6.15553930e-002 6.24544695e-002 9.83454511e-002 1.60486132e-001
      1.87937111e-001 2.17551693e-001 2.35497370e-001 1.19996369e-001
      1.54087441e-002 -3.88180241e-002 3.15733925e-002 8.57218429e-002
      6.71240091e-002 8.69938955e-002 1.61758184e-001 2.49742970e-001
      4.94614020e-002 -1.14173636e-001 -1.71669826e-001 -7.08526671e-002
      9.51296762e-002 1.86912000e-001 1.29551783e-001 2.59340070e-002
      2.55665667e-002 1.35473862e-001 -7.46231303e-002 -2.36651286e-001
      -1.76561236e-001 3.37043591e-002 2.14282647e-001 2.95937777e-001
      2.18793496e-001 -7.30192615e-003 -1.14984825e-001 -2.59574261e-002
      -8.20205063e-002 -1.96065709e-001 -8.01495612e-002 1.65402606e-001
      3.13119948e-001 3.21781814e-001 1.62942350e-001 -1.07030749e-001
      -2.30510861e-001 -1.12806156e-001 -7.84719139e-002
      -1.72017753e-001 -1.48408348e-002 2.59920299e-001 3.70305985e-001
      3.05561513e-001 9.83259305e-002 -1.74422726e-001 -2.67109632e-001
      -1.13783531e-001 -8.32046643e-002 -1.84784919e-001
      -4.88151684e-002 2.09153876e-001 3.02548587e-001 2.40413457e-001
      4.90001515e-002 -2.06503078e-001 -2.73648113e-001 -1.14428125e-001
      1.30308708e-002 -1.45234406e-001 -1.53037369e-001 4.56024427e-003
      1.21373467e-001 8.32059532e-002 -9.31255072e-002 -2.47207150e-001
      -2.17902347e-001 -5.49119078e-002 1.05415583e-001 -3.25014293e-002
      -9.75938216e-002 -7.15182871e-002 -3.69319730e-002
      -9.95128676e-002 -2.13368803e-001 -2.31855720e-001
      -1.30696177e-001 1.89226810e-002 1.21857382e-001 7.73677379e-002
      7.01138899e-002 4.40153033e-002 -7.14124879e-003 -8.70077461e-002
      -1.19750194e-001 -9.42083299e-002 -3.43497284e-002 2.85238307e-002</_>
    <_>
      -2.12996881e-002 2.88347788e-002 4.30291966e-002 1.10107232e-002
      -3.88777889e-002 5.91614209e-002 1.67427510e-001 2.21437573e-001
      1.80884123e-001 7.73855150e-002 -4.72128429e-002 -8.66285190e-002
      -1.40638590e-001 -2.68312544e-001 -3.32149565e-001
      -2.06659317e-001 7.61395544e-002 2.91825831e-001 3.52587134e-001
      1.75870612e-001 9.37855570e-004 -8.70744586e-002 -1.77716479e-001
      -3.79254282e-001 -4.95809466e-001 -4.43737209e-001
      -7.94313103e-002 3.17538977e-001 4.69388276e-001 2.65420765e-001
      6.27910197e-002 3.57859842e-002 -3.30644362e-002 -2.21299723e-001
      -4.02783692e-001 -3.87297422e-001 -3.19265462e-002 3.35409015e-001
      4.21883553e-001 2.36877888e-001 7.62935951e-002 5.99613264e-002
      -9.53502487e-003 -1.67489603e-001 -2.78585374e-001
      -2.10580885e-001 1.33944610e-002 2.24067271e-001 2.56285816e-001
      1.49511576e-001 6.29911125e-002 7.23720267e-002 5.64857461e-002
      -1.82240419e-002 -1.15371361e-001 -1.23860434e-001
      -8.33528787e-002 2.16375757e-002 1.10295825e-001 9.63474214e-002
      6.86504915e-002 1.52341262e-001 2.04659417e-001 1.43252164e-001
      -6.85125291e-002 -2.63745040e-001 -2.65728801e-001
      -1.05836377e-001 7.95692131e-002 8.06610882e-002 1.45144001e-001
      2.97685176e-001 3.46727788e-001 1.52187183e-001 -1.95986480e-001
      -4.01445866e-001 -3.37408900e-001 -1.23906396e-001 4.36291620e-002
      5.14722988e-002 5.51938787e-002 1.78546280e-001 1.86835364e-001
      1.82079263e-002 -1.85513645e-001 -2.70696282e-001 -2.12964624e-001
      -1.19938865e-001 -9.44716558e-002 -7.53097534e-002
      -4.56750207e-002 -2.29181279e-003 2.66969968e-002 -1.81780662e-002
      -5.17343692e-002 -5.84856309e-002 -3.99696641e-002
      -3.49562205e-002 -1.18646994e-001 -1.09511994e-001</_>
    <_>
      6.25078231e-002 1.01248972e-001 7.63519481e-002 2.12127231e-002
      -2.03196481e-002 3.69549952e-002 1.08729571e-001 1.91375777e-001
      1.57686576e-001 8.98335651e-002 2.21057981e-002 4.99591185e-003
      -1.01360969e-001 -2.01298326e-001 -2.42593482e-001
      -1.43311888e-001 8.86471942e-002 2.82758206e-001 3.04682732e-001
      1.75214961e-001 -1.40813924e-002 -8.31207410e-002 -1.93217933e-001
      -3.24109286e-001 -3.99330914e-001 -2.74203241e-001 2.21617986e-002
      2.86442488e-001 3.35817993e-001 1.64580598e-001 8.03295150e-002
      1.05226539e-001 1.11171529e-001 1.31161232e-003 -1.30235568e-001
      -1.12651139e-001 5.26412688e-002 2.26669893e-001 2.31959134e-001
      9.04893428e-002 1.51155055e-001 2.23404124e-001 2.99281538e-001
      2.01423600e-001 7.14813024e-002 4.31372523e-002 1.20968811e-001
      2.14905187e-001 2.02191472e-001 9.57785845e-002 1.02254078e-001
      1.72661036e-001 2.03084484e-001 7.86686391e-002 -5.38276136e-002
      -4.06392962e-002 1.16809979e-001 2.90601343e-001 3.12288582e-001
      1.67553157e-001 3.60619538e-002 4.20629419e-002 -1.12901675e-002
      -1.46577641e-001 -2.78836638e-001 -2.34750301e-001 2.60833669e-002
      3.08367014e-001 3.94222975e-001 2.15798259e-001 1.13362946e-001
      1.15205094e-001 2.07941849e-002 -1.26258001e-001 -2.56437570e-001
      -2.16510072e-001 1.40813924e-002 2.44910121e-001 3.16921979e-001
      1.54895321e-001 8.65117759e-002 9.45921764e-002 1.96078420e-002
      -6.64853975e-002 -1.26732528e-001 -1.08492300e-001
      -4.80078943e-002 -9.21074953e-003 -5.67441061e-002
      -9.69088674e-002 1.17087048e-002 2.57900972e-002 6.89406181e-003
      -8.31767451e-003 -2.44784858e-002 -4.38490584e-002
      -1.05463810e-001 -2.09322736e-001 -3.01179677e-001
      -2.25483552e-001</_>
    <_>
      -7.30044916e-002 -1.07352324e-001 -1.79745540e-001
      -1.98882848e-001 -1.64554134e-001 -4.25452553e-002 8.35814327e-002
      1.25992969e-001 8.03041160e-002 -1.88125707e-002 -8.82723182e-002
      -1.56872466e-001 -2.29399398e-001 -2.18115672e-001
      -1.45722479e-001 -1.21433260e-002 1.25572726e-001 1.49018869e-001
      1.14671044e-001 -1.11691086e-002 -5.77557720e-002 -8.83296281e-002
      -6.18544891e-002 -3.51501256e-002 -1.59937106e-002 4.51730937e-002
      1.21836953e-001 1.48961559e-001 1.26184002e-001 3.05636990e-004
      6.99398387e-003 6.76641315e-002 1.78102747e-001 1.55611709e-001
      8.33904073e-002 4.91762981e-002 9.50943828e-002 1.60207078e-001
      1.45435974e-001 3.10514085e-002 7.56514296e-002 1.55382484e-001
      2.43196338e-001 1.40783235e-001 1.50576979e-002 -2.71437168e-002
      4.52112965e-002 1.40974253e-001 1.37792513e-001 4.25262116e-002
      1.32929653e-001 2.31855318e-001 2.62696594e-001 1.37200281e-001
      -3.94589640e-003 -1.96148679e-002 6.04027137e-002 1.59996957e-001
      1.79497212e-001 8.81195590e-002 1.86338380e-001 3.08118016e-001
      3.08557361e-001 2.02026457e-001 7.61098862e-002 4.53641154e-002
      1.29155695e-001 2.28539795e-001 2.74553388e-001 1.75723240e-001
      1.33311689e-001 2.13233769e-001 1.82927340e-001 1.10457718e-001
      3.40039842e-002 3.39084752e-002 1.14040695e-001 1.86720431e-001
      2.05953240e-001 1.10935271e-001 -3.44242379e-002 -4.96156514e-002
      -1.21894255e-001 -1.71509907e-001 -1.68022469e-001
      -1.07256807e-001 -1.94238443e-002 -7.52884895e-003
      -6.06701449e-002 -9.49988663e-002 -9.16642472e-002
      -1.44920155e-001 -2.24880427e-001 -2.47753516e-001
      -1.98462605e-001 -1.14785656e-001 -5.73928282e-002
      -7.98838660e-002 -1.52200669e-001 -1.48445800e-001</_>
    <_>
      1.49084162e-002 7.62884170e-002 9.89251360e-002 1.83592774e-002
      -2.03369781e-002 2.71811131e-002 1.56889871e-001 2.59733588e-001
      2.18596131e-001 7.55270869e-002 9.11376346e-003 7.79797435e-002
      5.20756207e-002 -9.98461768e-002 -2.23307416e-001 -1.60427555e-001
      -9.14042350e-003 1.31716162e-001 1.61184698e-001 4.96034548e-002
      6.96171746e-002 1.55602738e-001 1.12561241e-001 -1.24240741e-001
      -3.61562163e-001 -3.59167963e-001 -2.49326751e-001
      -9.23602134e-002 1.75767411e-002 -1.93129480e-002 1.63301393e-001
      3.00919801e-001 3.40606213e-001 1.25691026e-001 -1.25998586e-001
      -2.42509335e-001 -2.11589694e-001 -1.01018086e-001 1.40123907e-002
      -1.07864784e-002 1.64619476e-001 2.87820935e-001 3.75901997e-001
      2.25231752e-001 4.48980741e-002 -6.23201318e-002 -2.23854613e-002
      5.93993217e-002 1.13617949e-001 4.36936133e-002 4.83684428e-002
      1.19040988e-001 1.73665419e-001 6.04220778e-002 -7.84656778e-002
      -1.00756668e-001 4.23966795e-002 2.24796638e-001 2.43019894e-001
      1.10917002e-001 -4.77375835e-002 -3.72422189e-002 -6.49902150e-002
      -1.70976311e-001 -3.05307806e-001 -3.07616025e-001
      -6.61264583e-002 2.46912241e-001 3.13124299e-001 1.51437551e-001
      2.56668776e-002 4.77159545e-002 -6.31110463e-003 -1.60057262e-001
      -2.95283169e-001 -2.85094529e-001 -5.84943146e-002 1.99835628e-001
      2.53013641e-001 1.06591180e-001 -2.66201347e-002 1.11817345e-002
      3.24115437e-003 -8.48106816e-002 -1.56426340e-001 -1.37451470e-001
      -4.97567877e-002 3.47007706e-004 -5.67868836e-002 -1.05785310e-001
      -9.55365300e-002 -6.34627938e-002 -4.00113389e-002
      -1.70013569e-002 -3.12560201e-002 -3.62520404e-002
      -8.46467167e-002 -1.67296648e-001 -2.64086008e-001
      -2.22429097e-001</_>
    <_>
      -8.74801427e-002 -1.17267855e-001 -1.36875704e-001
      -1.04297511e-001 -6.16139993e-002 8.06675944e-003 9.84119177e-002
      1.21413045e-001 9.10970718e-002 5.80458296e-003 -1.10630356e-001
      -1.26919448e-001 -1.22923337e-001 -1.42531186e-001
      -1.98638812e-001 -1.62592754e-001 7.51900778e-004 9.61497203e-002
      1.34837121e-001 1.92286465e-002 -1.17647052e-002 4.60768044e-002
      6.79468438e-002 -6.56846464e-002 -2.67188430e-001 -3.08591783e-001
      -1.57011822e-001 9.12331510e-003 1.08970985e-001 2.64689643e-002
      1.33177757e-001 2.54969984e-001 2.61004686e-001 7.85059109e-002
      -1.19604588e-001 -1.68322787e-001 -1.00301400e-001 2.08880212e-002
      7.36023858e-002 4.04958613e-002 1.87625989e-001 3.01046789e-001
      3.21108371e-001 1.50374323e-001 7.24031776e-003 -3.80845889e-002
      2.94085182e-002 1.30387276e-001 1.54973313e-001 7.91833252e-002
      1.75861284e-001 3.09492767e-001 3.32419336e-001 1.22395061e-001
      -7.74493515e-002 -1.22245982e-001 4.74801008e-003 2.06780076e-001
      2.62813121e-001 1.35365471e-001 1.62437201e-001 2.98859179e-001
      2.68468618e-001 -3.31874960e-003 -2.49768242e-001 -3.09722871e-001
      -1.16515957e-001 1.74276426e-001 3.03308994e-001 1.66887030e-001
      1.10176623e-001 2.39283726e-001 2.13417575e-001 9.57705267e-003
      -2.30688691e-001 -2.88983941e-001 -1.10935010e-001 1.45091534e-001
      2.52254069e-001 1.25409156e-001 -6.22913577e-002 3.39329056e-003
      9.57705267e-003 -3.86874042e-002 -1.52636513e-001 -1.72244355e-001
      -8.68773237e-002 -1.55371921e-002 -4.35909890e-002
      -7.33787045e-002 -1.09499261e-001 -1.33631483e-001
      -1.52636513e-001 -1.06031425e-001 -6.84005767e-002
      -4.93210144e-002 -6.33479133e-002 -1.34085223e-001
      -2.19905987e-001 -1.67191684e-001</_>
    <_>
      1.49596244e-001 1.73413977e-001 1.19442947e-001 4.95632738e-002
      8.41978472e-003 8.25093538e-002 2.27829754e-001 3.59391689e-001
      3.28085124e-001 2.07933620e-001 2.65860073e-002 -8.06550588e-003
      -8.06474984e-002 -1.57727703e-001 -2.21403778e-001
      -1.12728603e-001 1.37699634e-001 3.55115861e-001 3.75432223e-001
      2.18413085e-001 -1.19870743e-002 -8.12241435e-002 -1.59589559e-001
      -2.54926443e-001 -3.58749092e-001 -2.58559704e-001 4.20989236e-003
      2.36315489e-001 2.98417985e-001 1.41398832e-001 7.80770928e-002
      6.43845797e-002 1.25392163e-002 -9.35655013e-002 -1.93820834e-001
      -1.57019153e-001 2.08270922e-002 1.57661751e-001 1.94949687e-001
      1.01252221e-001 8.55659842e-002 6.56697825e-002 3.96359153e-002
      -2.59679109e-002 -7.10989237e-002 -8.78480300e-002
      -2.19558813e-002 4.40681800e-002 1.20860122e-001 1.12374380e-001
      6.26791716e-002 6.30334541e-002 6.40962571e-002 2.85138134e-002
      -3.55824381e-002 -1.14013806e-001 -1.32624775e-001
      -5.87575696e-002 8.52776244e-002 9.66881067e-002 5.87576069e-002
      9.34091210e-002 1.37543216e-001 1.04531184e-001 -3.52941155e-002
      -1.68561488e-001 -2.02150166e-001 -6.59581050e-002 8.26412588e-002
      9.17695984e-002 6.33876994e-002 1.18932255e-001 1.97940275e-001
      1.46605611e-001 -5.78266457e-002 -2.39372090e-001 -2.64475018e-001
      -1.00897945e-001 2.31751315e-002 4.86323498e-002 -2.46827062e-002
      3.24353836e-002 5.91118485e-002 -7.90909119e-003 -1.98582873e-001
      -3.69294524e-001 -3.79708081e-001 -2.95139015e-001
      -2.26898819e-001 -1.42329752e-001 -5.76287806e-002
      -2.46827062e-002 -5.64754866e-002 -1.20217457e-001
      -2.41654173e-001 -3.36925119e-001 -3.32649261e-001
      -3.11756223e-001 -2.92502642e-001 -1.87040538e-001</_>
    <_>
      -1.26068205e-001 -1.14104636e-001 -8.54790434e-002
      -4.92091812e-002 -3.62698622e-002 3.44986580e-002 1.57422185e-001
      2.19172955e-001 1.56626761e-001 1.66434851e-002 -1.77228883e-001
      -1.32718161e-001 -8.76294076e-002 -1.16453864e-001
      -2.37227067e-001 -1.71355814e-001 9.42979306e-002 2.77598739e-001
      2.60340124e-001 6.70272410e-002 -9.99907032e-002 1.56862736e-002
      1.12930022e-001 7.84313679e-003 -2.74870366e-001 -3.10941368e-001
      -4.66610901e-002 2.04083264e-001 2.37208456e-001 6.60514906e-002
      9.59576853e-003 1.23899274e-001 2.85460472e-001 2.28408143e-001
      -1.66620221e-002 -1.28218561e-001 4.49958723e-003 1.48006707e-001
      1.38591275e-001 4.58656326e-002 8.42113513e-003 7.56658390e-002
      2.51738697e-001 2.46841371e-001 1.02936529e-001 1.17647052e-002
      7.80150667e-002 1.41139314e-001 1.11339167e-001 2.92036105e-002
      4.19441015e-002 1.53301790e-001 2.56437123e-001 1.36260569e-001
      -6.82204291e-002 -1.01165317e-001 4.33175415e-002 2.02113196e-001
      2.09956333e-001 9.74240974e-002 1.37615517e-001 3.16615611e-001
      3.01327020e-001 2.03847252e-002 -3.08194399e-001 -3.60349417e-001
      -1.34887099e-001 1.96240127e-001 3.50138485e-001 1.96619287e-001
      1.80752724e-001 3.58379334e-001 3.42891932e-001 3.35229076e-002
      -3.01724762e-001 -4.01516587e-001 -1.89192459e-001 1.48603290e-001
      3.42096478e-001 2.14455917e-001 -5.17572723e-002 5.49019575e-002
      8.70513916e-002 -7.64427194e-003 -1.60566866e-001 -2.30359644e-001
      -1.20375432e-001 -4.31929762e-003 -6.68709911e-003
      -7.80522153e-002 -2.00559497e-001 -1.92318559e-001
      -1.62916094e-001 -8.27320889e-002 -5.31307496e-002
      -6.46965876e-002 -7.39132017e-002 -1.66259646e-001
      -2.66648084e-001 -2.52136469e-001</_>
    <_>
      -7.67184719e-002 -5.92010021e-002 -2.74679381e-002
      -4.66262968e-003 -1.19930319e-002 1.00656971e-002 5.72231039e-002
      7.91551620e-002 6.73510358e-002 -2.74693500e-003 -4.88222800e-002
      -8.49950220e-003 -3.54999793e-004 -7.77439401e-002
      -1.63432389e-001 -1.21424988e-001 4.42385189e-002 1.54560685e-001
      1.56980723e-001 3.04567926e-002 7.39067569e-002 1.52149230e-001
      1.13677368e-001 -8.30514953e-002 -2.61603773e-001 -2.58223236e-001
      -5.97420372e-002 1.75864458e-001 2.55577624e-001 1.06152557e-001
      1.56236902e-001 2.73773938e-001 2.63750434e-001 3.08147650e-002
      -1.95311815e-001 -2.50089854e-001 -7.26308003e-002 2.16147810e-001
      3.24455768e-001 1.80608720e-001 1.09310605e-001 2.22771063e-001
      2.98968434e-001 1.60000950e-001 -1.40578579e-002 -8.95677954e-002
      2.96171475e-002 2.58600384e-001 3.23943019e-001 1.93100333e-001
      2.36024652e-002 9.68190357e-002 1.86854497e-001 1.47965729e-001
      4.11285050e-002 -2.92399842e-002 4.12860252e-002 2.27701157e-001
      3.07549566e-001 1.86854556e-001 -1.66231580e-003 1.79088507e-002
      3.95986773e-002 -6.48524053e-003 -1.03822820e-001 -1.52887538e-001
      -2.29830705e-002 1.68302983e-001 2.51937687e-001 1.20010391e-001
      7.65148504e-003 5.06956689e-002 2.46759392e-002 -7.18586743e-002
      -2.20711857e-001 -2.25551933e-001 -4.69885394e-002 1.25715137e-001
      1.37615100e-001 1.68044977e-002 -8.62883925e-002 -4.61008735e-002
      -3.61843258e-002 -5.18903136e-002 -1.21853031e-001
      -1.43920347e-001 -9.09229368e-002 -8.26628879e-002
      -1.36367440e-001 -1.40173465e-001 -1.10691056e-001
      -1.22455761e-001 -9.21736583e-002 -3.24938409e-002
      -2.18898654e-002 -4.69996706e-002 -1.13021098e-001
      -2.01983094e-001 -2.46323258e-001 -1.76264733e-001</_>
    <_>
      -7.75213987e-002 -1.45387396e-001 -1.99864984e-001
      -2.51329571e-001 -3.21755230e-001 -3.21041554e-001
      -2.18047574e-001 -8.35184604e-002 3.26366760e-002 1.19611975e-002
      -1.08377464e-001 -1.86936975e-001 -2.67794371e-001
      -3.13554645e-001 -3.34458888e-001 -3.05904180e-001
      -2.27119505e-001 -1.20139256e-001 1.57827288e-002 1.69834327e-002
      -3.80488485e-002 -7.71005675e-002 -1.41627043e-001
      -1.81847781e-001 -1.77569330e-001 -1.60615429e-001
      -1.55818328e-001 -7.32098967e-002 1.84388328e-002 3.07773496e-003
      4.43365835e-002 3.62660997e-002 1.44833969e-002 -4.71926890e-002
      -8.90314132e-002 -1.28435656e-001 -1.34557262e-001
      -2.31050346e-002 5.03286980e-002 2.08366942e-002 1.05362356e-001
      1.06302604e-001 9.91680622e-002 1.70416739e-002 -5.23775481e-002
      -1.25422686e-001 -1.18774533e-001 -1.94316439e-003 1.14367403e-001
      7.90732875e-002 1.46490306e-001 1.78639188e-001 1.62398174e-001
      8.18602517e-002 -1.88412215e-003 -6.26472682e-002 -6.15091510e-002
      4.37201001e-002 1.71893165e-001 1.53744310e-001 1.00567430e-001
      1.30187556e-001 1.08017050e-001 6.02444857e-002 -1.41013516e-002
      -7.03278184e-002 -7.57047832e-002 3.22805680e-002 1.44347906e-001
      1.52937055e-001 2.85538547e-002 1.12143531e-002 -2.54416820e-002
      -7.13667348e-002 -1.12688169e-001 -1.68266460e-001
      -2.11982206e-001 -1.29501119e-001 -2.95862518e-002 3.08574345e-002
      -5.26661128e-002 -1.12914145e-001 -1.94842711e-001
      -2.29261294e-001 -2.03302324e-001 -2.15226069e-001
      -2.69670576e-001 -2.48182178e-001 -1.92536950e-001
      -1.27785310e-001 -1.12688966e-001 -1.80067196e-001
      -2.73823053e-001 -2.89994925e-001 -2.30492890e-001
      -1.87420398e-001 -2.09197387e-001 -2.30942667e-001
      -2.26697296e-001 -1.65154278e-001</_>
    <_>
      1.15590125e-001 7.17118680e-002 -9.07391906e-002 -2.87134856e-001
      -3.95825654e-001 -3.03680331e-001 -1.18185796e-001 1.58104569e-001
      3.03887635e-001 2.38848612e-001 3.06651257e-002 1.84001941e-002
      -1.23112194e-001 -3.50498378e-001 -5.32798111e-001
      -4.20544654e-001 -1.09479077e-001 2.15819359e-001 3.56557786e-001
      2.28551552e-001 5.54980943e-003 3.54359746e-002 3.65403295e-002
      -1.11106709e-001 -2.86426842e-001 -2.36914143e-001
      -8.04157741e-003 2.10533991e-001 2.43959695e-001 1.08473688e-001
      6.53408170e-002 1.02947541e-001 1.68241650e-001 1.40790671e-001
      3.19959596e-002 -4.50203614e-003 7.12160170e-002 1.55740321e-001
      1.21777073e-001 5.60112968e-002 7.05932751e-002 6.57041669e-002
      8.97107497e-002 1.08710088e-001 9.43733230e-002 5.16224764e-002
      6.78111752e-003 4.36281674e-002 7.47369304e-002 6.86209500e-002
      4.95033748e-002 6.86583146e-002 1.07850887e-001 1.03443392e-001
      7.83423707e-002 4.97914143e-002 8.50827433e-003 3.38500701e-002
      7.03810379e-002 7.78278857e-002 4.83990237e-002 1.21314213e-001
      2.07216546e-001 1.58326671e-001 4.05987725e-002 1.64691568e-003
      5.80165796e-002 1.40605912e-001 1.39393285e-001 7.84836262e-002
      1.25717282e-001 2.25097239e-001 2.29863703e-001 5.41615635e-002
      -1.75315127e-001 -2.01761276e-001 -2.22414695e-002 1.65603027e-001
      2.08962381e-001 1.17199078e-001 5.64928502e-002 1.07728310e-001
      -3.79400630e-003 -2.17707008e-001 -4.27698433e-001
      -4.45060223e-001 -2.68027246e-001 -5.07968031e-002 5.49256168e-002
      3.44871692e-002 1.31148202e-002 -3.93146016e-002 -1.87820837e-001
      -3.11575115e-001 -3.84353369e-001 -3.73541862e-001
      -3.20749074e-001 -1.93814248e-001 -8.86959508e-002
      -1.68708693e-002</_>
    <_>
      -1.81919448e-002 -5.98415807e-002 -1.40295073e-001
      -2.03186199e-001 -2.23248631e-001 -1.82432353e-001
      -9.41329300e-002 -5.83350891e-003 4.03286293e-002 2.10995562e-002
      -4.51250114e-002 -1.04824647e-001 -2.00828061e-001
      -2.73923278e-001 -3.17239642e-001 -2.82948256e-001
      -1.63203284e-001 -4.06125076e-002 4.40077707e-002 2.64454167e-002
      -9.16694198e-003 -6.26873672e-002 -1.03157930e-001
      -1.66882426e-001 -2.41644338e-001 -2.51848400e-001
      -1.71740636e-001 -4.54707183e-002 5.38661294e-002 3.17912735e-002
      5.90700507e-002 4.60201949e-002 4.88659814e-002 -2.10377276e-002
      -1.32591069e-001 -1.96315557e-001 -1.48486704e-001
      -2.62416471e-002 7.39286169e-002 5.55328466e-002 1.58894554e-001
      1.66944250e-001 1.79994106e-001 9.98863280e-002 -5.97544899e-003
      -7.50458017e-002 -3.45752314e-002 8.85031894e-002 1.99710876e-001
      1.67573899e-001 1.29115701e-001 1.48202837e-001 1.51048616e-001
      6.72616959e-002 -3.29085141e-002 -7.58791566e-002 -3.33961658e-002
      9.08613279e-002 1.95544034e-001 1.68752968e-001 1.11553341e-001
      1.44523680e-001 1.29807115e-001 5.90700507e-002 -3.82543728e-002
      -8.40708017e-002 -3.05503793e-002 8.83612484e-002 1.82006538e-001
      1.48690477e-001 1.28282338e-001 1.63265109e-001 1.30986184e-001
      5.17117642e-002 -5.13042286e-002 -9.54539403e-002 -4.36002351e-002
      4.95573990e-002 1.36190102e-001 1.15923904e-001 1.25622042e-002
      -4.30873223e-003 -6.76875114e-002 -1.27732858e-001
      -1.91457361e-001 -2.27415428e-001 -1.96803212e-001
      -1.53486863e-001 -9.82997194e-002 -4.54707183e-002
      -5.85205704e-002 -1.08016141e-001 -1.75907418e-001
      -1.98815644e-001 -2.15544641e-001 -2.27761135e-001
      -2.26927772e-001 -2.14711279e-001 -1.96315557e-001
      -1.18220210e-001</_>
    <_>
      7.77802467e-002 9.24471095e-002 8.30048025e-002 5.95509410e-002
      3.41057517e-002 1.15975730e-001 2.48095244e-001 3.33624452e-001
      3.09652776e-001 1.90026194e-001 6.22025728e-002 6.78540953e-003
      -5.52288331e-002 -1.54074445e-001 -2.15620205e-001
      -8.46787691e-002 1.67197198e-001 3.71697694e-001 4.36592847e-001
      3.08972031e-001 6.24436513e-002 -9.42631997e-003 -9.20059010e-002
      -2.37427369e-001 -3.22758019e-001 -2.00369358e-001 6.42432272e-002
      3.24052304e-001 4.14428324e-001 2.90599227e-001 9.98946279e-002
      8.37873146e-002 4.50545885e-002 -6.06546029e-002 -1.26975775e-001
      -8.28597769e-002 9.01637673e-002 2.55261809e-001 2.98647821e-001
      1.92607507e-001 9.63728875e-002 1.07572235e-001 1.41440347e-001
      8.23214352e-002 1.35947000e-002 -2.86461711e-002 1.82182528e-002
      1.05807550e-001 1.75445154e-001 1.27234429e-001 7.57243857e-002
      1.22037925e-001 2.03792453e-001 1.92138985e-001 7.12401122e-002
      -4.08862159e-002 -7.51966015e-002 -7.78048020e-003 1.14104763e-001
      1.10237554e-001 6.96170777e-002 1.20417506e-001 1.65361926e-001
      1.18663028e-001 -3.80265601e-002 -1.51758865e-001 -1.50188550e-001
      -4.79468442e-002 9.52277780e-002 8.92248824e-002 5.69916368e-002
      8.80543739e-002 6.61453903e-002 -2.12308913e-002 -1.83393732e-001
      -2.68814355e-001 -2.23610222e-001 -1.01174086e-001 3.85899879e-002
      4.80391085e-002 -7.48248845e-002 -1.11145228e-001 -1.46093845e-001
      -1.50469497e-001 -2.23394573e-001 -3.02578032e-001
      -3.31180900e-001 -3.09181929e-001 -2.26656660e-001
      -1.32442221e-001 -1.19939044e-001 -1.80339679e-001
      -1.81373522e-001 -1.09972075e-001 -9.30040628e-002
      -1.52269885e-001 -2.50117332e-001 -3.27115059e-001
      -3.09271932e-001 -1.91927865e-001</_>
    <_>
      5.47199510e-002 3.19470763e-002 -6.40149083e-005 -2.69610994e-002
      -2.56989691e-002 -2.59961672e-002 -4.27636988e-002 3.78265418e-002
      4.37952615e-002 5.69227710e-002 2.04321183e-002 1.53071675e-002
      -3.94173935e-002 -4.37159725e-002 -2.10050195e-002 3.60961980e-003
      2.38250084e-002 7.49750808e-002 4.63025384e-002 6.47315234e-002
      -4.74400707e-002 -7.02199116e-002 -1.15941532e-001
      -1.01827741e-001 -7.20293969e-002 6.28860891e-002 8.87658745e-002
      4.17379737e-002 -6.11634143e-002 -6.14596680e-002 1.97383091e-002
      7.24347010e-002 1.31838933e-001 1.91719487e-001 2.07549974e-001
      2.33254954e-001 9.47485268e-002 -6.46022037e-002 -1.63235545e-001
      -1.40090778e-001 7.49801770e-002 2.15817481e-001 3.71841520e-001
      4.26486552e-001 3.53730768e-001 2.58949131e-001 1.57152981e-001
      5.20100109e-002 -1.44736916e-002 -5.77404350e-002 4.78024818e-002
      1.47191644e-001 1.86260939e-001 9.10114050e-002 -1.89266596e-002
      2.85628065e-002 2.45377839e-001 3.92237842e-001 3.20101470e-001
      1.04265764e-001 -1.09582581e-002 -1.01941206e-001 -2.66027212e-001
      -4.22392935e-001 -3.96098316e-001 -1.11398444e-001 2.98000455e-001
      5.60874343e-001 4.78033155e-001 2.00501710e-001 7.44542805e-004
      -1.74210116e-001 -3.70372921e-001 -3.99007797e-001
      -2.08373040e-001 7.48929158e-002 3.64315540e-001 4.96153057e-001
      4.18088168e-001 1.68741718e-001 -2.65943212e-003 -1.26011655e-001
      -2.17746690e-001 -1.63090527e-001 -2.86774393e-002 9.57050547e-002
      1.36664629e-001 1.09948047e-001 2.27259658e-002 -5.80633171e-002
      -2.27041021e-002 -4.84336130e-002 -7.72238299e-002
      -3.20581421e-002 -1.72443297e-002 -2.82895211e-002
      -1.34937808e-001 -2.89277762e-001 -3.21118325e-001
      -2.21577063e-001</_>
    <_>
      -1.37518495e-001 -2.05848977e-001 -2.75026351e-001
      -2.70135105e-001 -1.99816287e-001 -1.00941442e-001
      -3.74269881e-003 3.12197842e-002 2.51991791e-004 -5.17106429e-002
      -1.67516604e-001 -2.14729473e-001 -2.47802243e-001
      -1.76126704e-001 -6.22158982e-002 5.27625196e-002 9.83846858e-002
      4.82743606e-002 -4.37083133e-002 -1.02599509e-001 -1.52959213e-001
      -1.39733702e-001 -8.21921080e-002 4.09488380e-002 1.38485640e-001
      2.18752578e-001 1.66414499e-001 2.70339586e-002 -8.58581662e-002
      -1.32438436e-001 -1.05200112e-001 -6.09694198e-002 4.98667248e-002
      1.47961333e-001 2.02433705e-001 2.02783361e-001 1.16618089e-001
      1.02800522e-002 -2.87835523e-002 -6.24576695e-002 -3.34391855e-002
      2.36612670e-002 1.35724202e-001 1.40602216e-001 9.40396637e-002
      3.00915930e-002 1.90510079e-002 2.38926001e-002 2.68863495e-002
      -2.21920703e-002 5.55178225e-002 1.32397845e-001 1.78584933e-001
      1.00311778e-001 1.40485605e-002 -2.98118615e-003 7.88203701e-002
      1.42093301e-001 1.20612778e-001 3.75959836e-002 1.30954757e-001
      1.90092489e-001 1.88097045e-001 1.05921015e-001 7.92492703e-002
      1.42363682e-001 2.40888879e-001 2.80693620e-001 2.35812604e-001
      1.52052999e-001 4.82138023e-002 4.85331677e-002 4.54710127e-004
      -2.06116308e-003 8.03604275e-002 1.85777754e-001 2.69002736e-001
      2.62631983e-001 1.97302356e-001 1.13788299e-001 -1.09638587e-001
      -1.73329517e-001 -2.21107304e-001 -1.97368741e-001
      -1.20660476e-001 -2.32580397e-002 6.29188120e-002 7.51124173e-002
      1.49685843e-002 -4.70159762e-002 -1.34923369e-001 -1.97595611e-001
      -2.54235178e-001 -2.49945283e-001 -2.01019928e-001
      -1.32596940e-001 -6.14560470e-002 -5.18459864e-002
      -7.77507722e-002 -9.87456143e-002</_>
    <_>
      1.65496077e-002 4.84052300e-002 7.83504620e-002 2.55684182e-002
      2.41240207e-002 1.83341801e-002 7.12420419e-002 1.23247787e-001
      9.78623554e-002 1.70204360e-002 1.38037130e-002 1.16365977e-001
      1.46424785e-001 7.76162893e-002 -4.04888624e-003 -5.33813331e-003
      -3.60772870e-002 -4.68214676e-002 -7.69639686e-002
      -8.50880817e-002 4.74316627e-002 2.03808740e-001 2.19071135e-001
      9.72118825e-002 -6.75751269e-002 -7.95963109e-002 -1.96954966e-001
      -3.02829891e-001 -3.06482762e-001 -2.19875485e-001 1.12658784e-001
      2.72605002e-001 3.37265313e-001 2.34476462e-001 1.07334912e-001
      4.02085297e-003 -1.79937854e-001 -3.23446035e-001 -2.81013608e-001
      -1.90144673e-001 1.07376516e-001 2.44557381e-001 3.63569975e-001
      3.05648535e-001 2.09598586e-001 8.25999528e-002 -5.94703108e-003
      -8.57561827e-002 -7.83369169e-002 -8.62515196e-002 4.47405735e-003
      6.77492023e-002 1.21421099e-001 4.91149090e-002 -1.29424194e-002
      -8.00032727e-003 1.25384793e-001 2.21774906e-001 1.53037876e-001
      1.86621062e-002 -8.74992311e-002 -1.36145353e-001 -2.07830399e-001
      -2.85431027e-001 -2.76214957e-001 -1.37052253e-001 1.23743117e-001
      3.33355993e-001 2.57653415e-001 8.40027779e-002 -7.17414469e-002
      -1.44387811e-001 -2.37889141e-001 -2.78960854e-001
      -1.84581891e-001 -2.77217422e-002 1.78578451e-001 3.04472864e-001
      2.30483413e-001 6.95044249e-002 -8.04200843e-002 -1.12275712e-001
      -1.13182664e-001 -9.38557908e-002 -3.33143100e-002 5.38005270e-002
      1.10957891e-001 1.02207795e-001 1.07475175e-002 -6.39521405e-002
      -9.38557908e-002 -8.16794634e-002 -5.09280600e-002 8.09757225e-003
      1.66210588e-002 1.39588639e-002 -4.86481600e-002 -1.37463868e-001
      -1.87554389e-001 -1.63613349e-001</_>
    <_>
      -9.34233963e-002 -1.73188612e-001 -1.86086640e-001
      -1.19379751e-001 -2.70358380e-002 -5.42713935e-003 1.23265181e-002
      1.95561741e-002 1.38735594e-002 2.54669343e-004 -1.03253774e-001
      -8.56597796e-002 -3.27849798e-002 3.89505066e-002 2.22370382e-002
      -1.31372213e-002 -5.06457016e-002 -8.19381028e-002
      -9.75046307e-002 -6.36642873e-002 3.65496799e-002 1.66175261e-001
      2.24011511e-001 1.91584840e-001 4.71132845e-002 -1.77261140e-002
      -1.36040300e-001 -2.50192821e-001 -2.63945073e-001
      -1.69107065e-001 1.96960986e-001 3.26479793e-001 3.35229754e-001
      2.39831194e-001 1.56290725e-001 1.08978480e-001 -8.19916353e-002
      -2.44296998e-001 -2.62851328e-001 -1.53487623e-001 2.51009345e-001
      3.72778475e-001 3.88291150e-001 2.90985137e-001 2.17115417e-001
      1.34362385e-001 5.95589317e-002 9.55220405e-003 8.80504679e-003
      -1.17368512e-002 2.52996534e-001 3.87544304e-001 3.57758850e-001
      1.45340011e-001 -1.80324502e-002 -4.16819230e-002 1.03896663e-001
      2.66308784e-001 2.75419235e-001 1.39871225e-001 2.38217086e-001
      2.98881799e-001 1.46100163e-001 -1.52819991e-001 -2.69747108e-001
      -1.67332709e-001 8.14473554e-002 3.11566621e-001 3.46127510e-001
      2.21504226e-001 8.27545896e-002 9.02511626e-002 -3.09577174e-002
      -1.42028943e-001 -1.38854533e-001 -2.17005927e-002 1.50288463e-001
      2.97734529e-001 3.31361681e-001 2.03790486e-001 -9.63440686e-002
      -1.20246656e-001 -1.30304158e-001 -6.73987791e-002
      -3.87340151e-002 2.22373493e-002 8.90776068e-002 1.09739251e-001
      8.35286677e-002 2.85997875e-002 -1.00359090e-001 -1.77256539e-001
      -1.90128267e-001 -9.77976620e-002 -2.70225313e-002
      -4.65071091e-004 -2.89432444e-002 -1.10509418e-001
      -1.39721438e-001 -1.09229416e-001</_>
    <_>
      3.53716373e-001 3.30240428e-001 2.04563186e-001 9.57332402e-002
      8.89168829e-002 9.57439318e-002 2.23753542e-001 4.24919844e-001
      4.37076211e-001 3.56285036e-001 9.87259001e-002 1.03086345e-001
      4.31809351e-002 1.04247198e-001 8.41621608e-002 1.31951511e-001
      1.77798167e-001 2.76797593e-001 2.34682634e-001 2.00854018e-001
      -5.90948686e-002 -4.67422567e-002 -6.51083142e-002 6.64606541e-002
      6.83990642e-002 2.20349163e-001 1.70449167e-001 -1.05407750e-002
      -1.41867101e-001 -1.28601030e-001 6.85205758e-002 7.92459771e-002
      6.68613017e-002 1.26063839e-001 2.41132811e-001 3.37785006e-001
      1.52769193e-001 -1.90103576e-001 -2.83362389e-001 -1.80656597e-001
      6.62368983e-002 7.60952532e-002 9.39437971e-002 2.07504898e-001
      2.96407670e-001 1.84090748e-001 -2.38540489e-002 -2.40992174e-001
      -1.53991580e-001 2.46370770e-003 5.13748601e-002 4.53979634e-002
      5.14520779e-002 1.00459993e-001 1.14604130e-001 -2.31083911e-002
      -1.11838810e-001 -1.42976955e-001 -4.07870742e-004 6.76326975e-002
      3.95869426e-002 -3.31480205e-002 -3.86114232e-002 -2.66130222e-003
      6.53214976e-002 1.18584938e-001 5.09982482e-002 4.67634872e-002
      5.15245125e-002 7.50093311e-002 -8.60196352e-002 -2.27659672e-001
      -1.70702323e-001 5.21998778e-002 2.07393989e-001 1.84829667e-001
      2.55498234e-002 1.31972143e-002 1.83542967e-002 5.83283491e-002
      -1.63364038e-001 -2.39570946e-001 -1.95814207e-001
      -4.79455441e-002 -1.18248209e-001 -3.32389086e-001
      -4.59587067e-001 -4.30389494e-001 -3.00784737e-001
      -1.37331992e-001 -9.11209658e-002 -9.70702693e-002
      -1.75297007e-001 -2.29446739e-001 -4.40986931e-001
      -6.40841186e-001 -6.65079892e-001 -6.16319060e-001
      -4.22983378e-001 -1.88846827e-001</_>
    <_>
      -1.40241101e-001 -1.84291467e-001 -1.70172200e-001
      -9.49124619e-002 -2.86010765e-002 -3.39264981e-002 1.15671400e-002
      4.94595952e-002 2.64399908e-002 -3.84503044e-002 -1.85856670e-001
      -9.60417390e-002 1.56653970e-002 1.16520941e-001 3.39432843e-002
      -7.08818343e-003 2.53809728e-002 4.59807403e-002 -2.89631486e-002
      -7.40516558e-002 -1.19377218e-001 1.14962474e-001 3.29720199e-001
      4.03900594e-001 1.69318929e-001 6.95205927e-002 9.59863886e-003
      -8.64154175e-002 -1.93636343e-001 -1.82571754e-001
      -3.75236012e-002 1.38685867e-001 3.99669915e-001 5.19834697e-001
      4.00269002e-001 2.41575137e-001 3.53385173e-002 -1.72866628e-001
      -2.62803465e-001 -1.92165390e-001 -5.92286624e-002 6.06183931e-002
      3.34117115e-001 4.86589640e-001 4.14525568e-001 2.28542045e-001
      9.12237763e-002 -4.90635484e-002 -1.14115171e-001 -1.24853522e-001
      1.24801667e-002 1.48538724e-001 2.69146144e-001 1.78232804e-001
      9.64666996e-003 -1.13169970e-002 1.49127379e-001 2.57898062e-001
      1.74803793e-001 3.87933142e-002 1.40542820e-001 2.60197788e-001
      1.54583365e-001 -1.57348394e-001 -3.53304893e-001 -1.90157488e-001
      1.08363748e-001 3.80192578e-001 3.85162741e-001 2.05651104e-001
      9.76715982e-002 1.40122354e-001 3.94953266e-002 -1.56589821e-001
      -2.04261318e-001 -9.62664559e-002 1.15448304e-001 3.28671604e-001
      4.23602581e-001 2.70783365e-001 -1.35183528e-001 -1.48055285e-001
      -1.23597331e-001 -6.26680255e-002 -3.18601094e-002
      -2.65999641e-002 5.66882417e-002 1.17560893e-001 1.21216439e-001
      1.18417032e-002 -2.35729992e-001 -2.80135572e-001 -2.64409900e-001
      -1.15108922e-001 -4.10024300e-002 -4.99027707e-002
      -7.69984722e-002 -1.90957293e-001 -2.08651468e-001
      -2.06229880e-001</_>
    <_>
      -1.27138421e-001 -1.41064033e-001 -8.32549557e-002
      -6.93031726e-003 2.79487539e-002 -1.07917413e-002 -3.77862640e-002
      -6.99375942e-002 -5.78554682e-002 -7.05005080e-002
      -8.12044442e-002 2.83677317e-002 1.10355869e-001 1.12433963e-001
      3.79527956e-002 1.74833592e-002 2.44234949e-002 3.24902321e-005
      -6.39379397e-002 -1.08420812e-001 6.83661252e-002 2.75676787e-001
      2.93796062e-001 1.56224787e-001 -5.46538224e-003 -1.30551709e-002
      -8.94432794e-003 9.91231017e-003 -9.94888041e-003 -7.08366707e-002
      1.45068362e-001 3.56807292e-001 3.62613738e-001 1.64321303e-001
      -9.35567077e-004 -5.96200638e-002 -5.79609498e-002 5.61410375e-002
      1.15493931e-001 5.27814031e-002 6.00991324e-002 2.56760031e-001
      3.98101062e-001 3.20559889e-001 1.66731596e-001 4.03443798e-002
      6.64171651e-002 2.10891098e-001 2.38111377e-001 1.26087472e-001
      -4.11232375e-002 5.94307408e-002 1.91002309e-001 1.96310908e-001
      1.32041797e-001 5.99108152e-002 1.56059176e-001 3.23730260e-001
      3.33084643e-001 1.57339737e-001 -6.68825358e-002 -1.11867197e-001
      -1.29400879e-001 -1.53916106e-001 -1.19290374e-001
      -1.61190741e-002 1.90707564e-001 3.42499167e-001 2.88994133e-001
      8.94250721e-002 -1.31566688e-001 -1.77767843e-001 -2.63783038e-001
      -2.61179507e-001 -1.97610289e-001 -2.15292219e-002 2.12646842e-001
      2.92012721e-001 1.57653227e-001 -3.02112866e-002 -2.14015201e-001
      -2.38571838e-001 -2.09439084e-001 -9.40791890e-002
      -3.30031030e-002 1.86170414e-002 5.47126085e-002 -1.34554049e-002
      -1.24009468e-001 -1.61846966e-001 -1.76744550e-001
      -2.20452577e-001 -1.63422287e-001 -2.79478561e-002 1.98522694e-002
      -1.86348781e-002 -1.34916514e-001 -2.73745656e-001
      -2.72759855e-001 -1.90960988e-001</_>
    <_>
      -5.29155768e-002 -1.65999725e-001 -2.37995371e-001
      -2.77386963e-001 -3.10104579e-001 -3.64830643e-001
      -3.25087190e-001 -2.06736431e-001 -5.05149774e-002 5.09068416e-003
      -7.52758756e-002 -1.42822161e-001 -2.06622824e-001
      -1.60557181e-001 -1.23855665e-001 -1.66992918e-001
      -2.84174562e-001 -3.10280561e-001 -1.97548196e-001
      -6.48562089e-002 -1.16511472e-002 1.13558090e-004 -2.56405268e-002
      8.01282600e-002 1.84024230e-001 1.70034856e-001 -9.65806097e-002
      -2.87454784e-001 -2.79083878e-001 -1.49785668e-001 4.84039225e-002
      6.22173734e-002 7.58549049e-002 1.41880229e-001 2.28041112e-001
      1.66113287e-001 -1.10745914e-001 -2.46366277e-001 -2.11537570e-001
      -1.07641608e-001 1.08107083e-001 1.31636485e-001 1.61312148e-001
      1.79574877e-001 1.82327330e-001 5.11563160e-002 -1.16188452e-001
      -1.22510619e-001 -7.03705184e-004 3.95675376e-002 1.64064541e-001
      2.15924621e-001 2.07905486e-001 1.68162033e-001 1.39014155e-001
      7.36925378e-002 3.97434644e-002 9.72219482e-002 1.92571074e-001
      1.72435448e-001 1.01143517e-001 1.03368185e-001 3.75187881e-002
      3.10206953e-002 9.90947708e-002 1.72963232e-001 1.61022604e-001
      1.73139155e-001 1.74836054e-001 1.76181093e-001 -5.29155768e-002
      -1.74018785e-001 -2.55730391e-001 -1.52538121e-001 6.10481985e-002
      1.46329507e-001 2.67472733e-002 -3.29558849e-002 -2.90343147e-002
      3.38867046e-002 -8.72165039e-002 -2.40220040e-001 -3.49206686e-001
      -2.53505707e-001 -6.00550100e-002 -1.48690101e-002
      -1.40773416e-001 -1.88711867e-001 -1.32754356e-001
      -6.31593168e-002 -8.31190124e-002 -1.88360021e-001
      -3.21052015e-001 -2.94770151e-001 -1.92922920e-001
      -1.44167215e-001 -2.00652510e-001 -2.34777510e-001
      -1.58508435e-001 -8.89133960e-002</_>
    <_>
      1.56618416e-001 7.81554058e-002 -1.00169614e-001 -2.80285805e-001
      -3.52325946e-001 -3.49114507e-001 -2.48542368e-001
      -8.15074053e-003 1.71255305e-001 1.84811175e-001 1.02765843e-001
      1.35219410e-001 3.60675380e-002 -9.94594842e-002 -2.41409361e-001
      -2.45330930e-001 -1.59024790e-001 -2.80890078e-003 8.63694325e-002
      9.20821652e-002 2.53838561e-002 1.39511868e-001 2.24026859e-001
      2.44715720e-001 1.59119710e-001 1.54488012e-001 8.45782682e-002
      -2.88396087e-002 -1.26200318e-001 -1.08722888e-001 1.68306325e-002
      8.74505043e-002 2.31530800e-001 3.78822535e-001 4.23040748e-001
      3.65976751e-001 1.30587712e-001 -1.02300026e-001 -2.16428041e-001
      -1.37254894e-001 9.69763193e-003 1.86217930e-002 1.25245914e-001
      2.94646740e-001 3.85584593e-001 2.77879447e-001 2.10913997e-002
      -1.29040867e-001 -1.25119299e-001 -4.27347198e-002
      -8.49004649e-003 6.48619933e-003 8.24478641e-002 1.58409581e-001
      2.30078831e-001 2.00836688e-001 1.03475980e-001 2.85952892e-002
      -9.57101211e-003 1.04077188e-002 -1.74142085e-002 -4.56841895e-003
      6.24691322e-002 8.31580013e-002 1.49485409e-001 2.66824871e-001
      3.12834293e-001 2.49347433e-001 8.59985426e-002 2.03812625e-002
      1.18279904e-002 -4.93930839e-003 -2.95497440e-002 -3.56017202e-002
      2.21724231e-002 1.67333737e-001 2.90725172e-001 2.95356870e-001
      1.90153018e-001 8.24478641e-002 4.17802669e-002 4.02531878e-004
      -1.24780051e-001 -2.03953207e-001 -2.53884196e-001
      -1.99321494e-001 -6.45046160e-002 8.13668370e-002 1.60910875e-001
      1.18823007e-001 9.17112753e-002 6.82539679e-003 -1.82554200e-001
      -2.76703477e-001 -3.25924337e-001 -3.07026654e-001
      -2.68860340e-001 -1.37254894e-001 3.57282907e-002 1.01345569e-001</_>
    <_>
      -1.46640725e-002 -1.26073822e-001 -2.32164368e-001
      -2.92865068e-001 -2.86419541e-001 -2.73903996e-001
      -2.33186573e-001 -1.38964832e-001 -3.79221477e-002 2.63246782e-002
      -6.96701258e-002 -1.46057099e-001 -2.27116495e-001
      -2.17875719e-001 -2.26094291e-001 -2.26094291e-001
      -2.65685409e-001 -2.47475207e-001 -1.75009802e-001
      -5.08131534e-002 -1.97119415e-002 -3.18520814e-002
      -4.93114218e-002 -3.27480095e-003 -1.18688047e-002
      -1.43927382e-002 -1.55401960e-001 -2.72130907e-001
      -2.53920704e-001 -1.31121695e-001 7.13391602e-002 7.09637254e-002
      6.74175918e-002 7.38630891e-002 5.17312549e-002 -3.27480095e-003
      -1.56799600e-001 -2.52147645e-001 -1.93220019e-001
      -7.82641321e-002 2.30934024e-001 2.51292735e-001 2.52419025e-001
      2.18147054e-001 1.43908590e-001 4.24904861e-002 -1.99832749e-002
      5.31920278e-003 1.14580452e-001 1.63787767e-001 2.10575253e-001
      2.27012455e-001 1.93115920e-001 9.59948078e-002 6.07006904e-003
      -2.17563435e-002 5.10844886e-002 1.53524801e-001 2.21693188e-001
      2.10199818e-001 1.84897348e-001 1.64914072e-001 6.81683943e-002
      -2.11095754e-002 -2.25072093e-002 7.67624006e-002 1.88172147e-001
      2.43178204e-001 2.34584197e-001 2.10575253e-001 1.26345158e-001
      4.67874855e-002 -6.03252575e-002 -4.32413518e-002 5.60282581e-002
      1.72757208e-001 2.24217132e-001 2.12452427e-001 2.10303918e-001
      2.04505190e-001 -4.32413518e-002 -1.67813435e-001 -2.70253748e-001
      -2.24592566e-001 -1.62494242e-001 -1.28597751e-001
      -1.20003752e-001 -1.11785181e-001 -4.14682850e-002 3.63163166e-002
      -9.21773389e-002 -2.03211650e-001 -3.01730394e-001
      -2.91738749e-001 -2.91738749e-001 -2.98559695e-001
      -3.06778252e-001 -2.90341109e-001 -1.87525377e-001
      -7.86395669e-002</_>
    <_>
      1.29466563e-001 1.00953490e-001 7.88052231e-002 8.79631490e-002
      1.25501618e-001 1.38054043e-001 1.99320793e-001 2.67797261e-001
      2.80618340e-001 2.14360908e-001 1.16965525e-001 9.19235721e-002
      6.78728595e-002 9.26861838e-002 9.21190903e-002 1.80571571e-001
      2.01264456e-001 2.48218104e-001 2.53258944e-001 2.67757237e-001
      7.13678822e-002 7.39792138e-002 6.33704290e-002 9.33663994e-002
      1.13088533e-001 2.93658972e-001 2.49163523e-001 1.30184636e-001
      4.32813466e-002 1.04879647e-001 8.69078189e-002 8.48532766e-002
      9.35504586e-002 1.67397141e-001 3.03857356e-001 3.87791485e-001
      1.93358377e-001 -5.12410812e-002 -1.21369645e-001 -3.41828167e-002
      7.63287321e-002 1.25777036e-001 2.51874328e-001 3.76569837e-001
      4.01982307e-001 2.35864550e-001 -8.61600041e-003 -1.75847441e-001
      -1.23029798e-001 -4.23679017e-002 7.79304281e-002 1.31374657e-001
      2.77120918e-001 3.55873585e-001 2.69069850e-001 7.66249672e-002
      -5.44754751e-002 -8.41640159e-002 1.41941160e-002 2.37979218e-002
      5.28026558e-002 1.52447699e-002 -1.91400282e-003 -7.22347526e-003
      1.06819998e-002 8.91762152e-002 9.56862047e-002 5.70706874e-002
      4.87450697e-002 3.77944075e-002 -9.02327523e-002 -2.48902991e-001
      -3.64522845e-001 -2.51224965e-001 -4.55713756e-002 9.10111815e-002
      7.60017112e-002 -9.68512520e-003 7.72413425e-003 3.00233364e-002
      -2.36592919e-001 -4.56269264e-001 -5.12162387e-001
      -2.80672163e-001 -1.22041911e-001 -1.56283021e-001
      -2.98337519e-001 -3.95271152e-001 -2.76095569e-001
      -1.24702483e-001 -1.78626850e-001 -3.35026473e-001
      -3.51580501e-001 -1.53893501e-001 -8.43971595e-002
      -2.01969862e-001 -4.12639201e-001 -5.62655747e-001
      -3.95288318e-001 -1.95968688e-001</_>
    <_>
      -1.63887694e-001 -2.37699196e-001 -3.25777709e-001
      -3.22091699e-001 -2.42097437e-001 -1.17723696e-001 7.43616279e-003
      6.29571034e-003 -2.26191040e-002 -8.00444558e-002 -1.95639431e-001
      -2.55267471e-001 -2.87235230e-001 -1.76621199e-001
      -4.81432602e-002 8.67083520e-002 1.01273671e-001 -3.71673424e-003
      -9.06521156e-002 -1.48855329e-001 -1.37893394e-001
      -9.49331820e-002 5.37999067e-003 1.68988898e-001 2.67447859e-001
      2.90409833e-001 1.69379070e-001 -1.13577312e-002 -9.56583396e-002
      -1.31129488e-001 -9.98152494e-002 -4.86800112e-002 7.18362406e-002
      1.38028935e-001 1.82618812e-001 1.49220616e-001 9.25090313e-002
      2.92688981e-002 2.16444917e-002 -1.26891211e-002 -3.63312922e-002
      -1.65880714e-002 2.39227023e-002 -2.21590251e-002 -6.11196794e-002
      -9.51019004e-002 -6.40038848e-002 -4.13760496e-003 2.12458111e-002
      -2.78693065e-003 8.29972252e-002 1.34068370e-001 1.55181736e-001
      9.71833616e-002 2.74565797e-002 -1.86444316e-002 -3.24681886e-002
      -2.31251307e-002 -1.97821893e-002 2.08124495e-003 1.84181705e-001
      3.23671579e-001 3.93661678e-001 3.78224820e-001 3.21164757e-001
      2.64129788e-001 1.67331249e-001 7.07179829e-002 5.11184372e-002
      1.02447309e-001 5.38300723e-002 1.50437713e-001 1.86805278e-001
      2.16118768e-001 2.22470284e-001 2.20652357e-001 1.64724261e-001
      7.55554587e-002 3.84322219e-002 7.79963881e-002 -1.43217579e-001
      -1.64289266e-001 -1.96588919e-001 -1.88563138e-001
      -1.45290539e-001 -7.66511038e-002 7.27861840e-003 2.40661353e-002
      3.72772338e-003 -1.75404940e-002 -1.63904503e-001 -2.41302952e-001
      -3.04714531e-001 -3.28243941e-001 -2.65585124e-001
      -1.71454713e-001 -2.76614148e-002 6.86031282e-002 7.47802928e-002
      1.85131247e-003</_>
    <_>
      -3.18628214e-002 2.75219269e-002 1.29348412e-001 6.78075925e-002
      5.39407246e-002 7.49894530e-002 1.98430926e-001 2.87573755e-001
      2.58091539e-001 1.01508752e-001 2.10656822e-002 2.16510177e-001
      3.80857348e-001 2.40202308e-001 4.63859253e-002 -4.78601642e-003
      -1.17254034e-001 -1.86014220e-001 -1.76879942e-001
      -1.39233381e-001 2.47221678e-001 5.84153771e-001 7.01225698e-001
      4.12979782e-001 1.61590520e-002 -2.08676681e-001 -5.33582807e-001
      -6.97276413e-001 -5.59534848e-001 -2.93555617e-001 3.11697990e-001
      5.66344261e-001 5.99993348e-001 3.10548276e-001 1.54530152e-003
      -2.70739913e-001 -4.99055326e-001 -5.94695687e-001
      -3.56754750e-001 -1.39116913e-001 1.83888733e-001 3.06863546e-001
      3.17891032e-001 1.55312940e-001 1.28009934e-002 -1.48236394e-001
      -2.10405812e-001 -2.04047918e-001 -5.80008365e-002
      -7.93640502e-003 4.93945181e-002 7.02225640e-002 7.77611807e-002
      4.50648516e-002 -9.61212721e-003 -6.81022108e-002 -3.71081755e-002
      2.73600537e-002 3.13864984e-002 6.65460620e-003 -2.10721325e-002
      -2.63712332e-002 -2.07678135e-002 -1.26793673e-002
      -6.85094073e-002 -1.30846590e-001 -8.48954469e-002 4.50856835e-002
      3.32555957e-002 -9.51356022e-004 -4.18496951e-002 -2.08349098e-002
      3.38382833e-002 -3.06841787e-002 -7.98950940e-002 -1.21147066e-001
      -5.58173694e-002 5.15507683e-002 3.63278911e-002 1.57919545e-002
      -1.38481960e-001 -9.79345664e-002 4.10396755e-002 1.19653838e-002
      -2.91571300e-002 -2.02779919e-002 4.92692105e-002 8.83855671e-002
      6.06277548e-002 1.20621696e-002 -1.66390270e-001 -1.35313630e-001
      -2.61557642e-002 4.56896648e-002 4.58394103e-002 6.79033399e-002
      8.70533362e-002 9.55922157e-002 6.73628896e-002 1.33897755e-002</_>
    <_>
      -2.50532180e-001 -3.61296475e-001 -3.51036370e-001
      -2.14917928e-001 -8.30411986e-002 -4.16806601e-002 8.70748889e-003
      -3.71668562e-002 -3.47498879e-002 -6.46178350e-002
      -2.41184428e-001 -2.23993555e-001 -6.10163882e-002 5.12525029e-002
      9.61985253e-003 -7.87995011e-002 -1.59967959e-001 -2.69227654e-001
      -2.33613417e-001 -1.76886722e-001 6.99479803e-002 2.83905536e-001
      4.59559768e-001 3.95582199e-001 1.33333325e-001 -1.32837117e-001
      -3.62160802e-001 -4.78943527e-001 -3.71508569e-001
      -1.94077596e-001 2.34109625e-001 3.59055579e-001 3.06842715e-001
      1.11900754e-001 -3.35654095e-002 -1.50940344e-001 -2.84001559e-001
      -3.45242053e-001 -2.31788680e-001 -6.76270351e-002 2.24441767e-001
      2.57046789e-001 1.00728288e-001 -7.67026618e-002 -1.32837117e-001
      -1.58783481e-001 -1.41272485e-001 -8.18087086e-002 1.44537846e-002
      4.52340916e-002 2.82400936e-001 3.77478957e-001 2.99319685e-001
      1.01960778e-001 -5.37654907e-002 -1.57278880e-001 -1.70548186e-001
      -7.24609718e-002 4.67386954e-002 8.26250464e-002 3.73557389e-001
      5.58559358e-001 5.24177611e-001 2.42913142e-001 5.69828413e-003
      -1.65122017e-001 -2.52629012e-001 -1.79895937e-001
      -2.74989903e-002 8.62264931e-002 1.19151652e-001 3.05658221e-001
      3.72372895e-001 2.19975963e-001 -8.48338660e-003 -1.69043586e-001
      -2.38447338e-001 -1.45194054e-001 -6.40250219e-004 1.02232888e-001
      -1.90796286e-001 -1.17470965e-001 -1.18127167e-002 1.98799558e-002
      -9.72228721e-002 -1.62705049e-001 -1.05978370e-001
      -1.81512516e-002 7.32773095e-002 9.37975198e-002 -1.90796286e-001
      -2.89475739e-001 -2.75886297e-001 -1.93485364e-001
      -9.33013037e-002 -3.47498879e-002 4.73309346e-002 1.03465378e-001
      1.33925557e-001 8.23529363e-002</_>
    <_>
      1.15272425e-001 1.18678346e-001 8.79298896e-002 6.04789108e-002
      5.60416952e-002 6.23378940e-002 1.42940298e-001 1.89076260e-001
      1.80921078e-001 1.21473461e-001 1.95413921e-003 8.25033803e-003
      4.68552187e-002 8.45239684e-002 5.07767871e-002 5.41827120e-002
      6.67751059e-002 9.09286365e-002 7.20400140e-002 3.11689470e-002
      -1.78573038e-002 6.70339912e-003 4.86057587e-002 1.08772621e-001
      6.53233230e-002 2.97171641e-002 -1.25923967e-002 -5.93391731e-002
      -5.33550195e-002 -4.78865132e-002 -1.68260112e-002
      -4.98539433e-002 -1.05895638e-001 -1.05583593e-001
      -6.50245696e-002 -4.32456993e-002 -3.08569018e-002
      -9.10237655e-002 -6.01668656e-002 -7.84313679e-003
      -6.99774325e-002 -1.89076260e-001 -3.03737879e-001
      -2.73600221e-001 -1.52642414e-001 -1.38191029e-001
      -1.67188942e-001 -2.20856011e-001 -1.22192711e-001 3.92156839e-003
      -4.76829112e-002 -1.45314917e-001 -1.79374143e-001
      -6.81184456e-002 4.73708659e-002 -6.06825091e-002 -2.92583972e-001
      -4.32118356e-001 -2.98880190e-001 -9.37104374e-002
      -5.15646127e-004 2.40450557e-002 1.46753415e-001 2.97021210e-001
      3.14362854e-001 1.18583187e-001 -2.56258577e-001 -4.52553898e-001
      -3.91559333e-001 -1.53673708e-001 -9.42260846e-002
      -3.64338532e-002 1.76375419e-001 3.25096279e-001 2.54711628e-001
      -5.15646127e-004 -3.23549330e-001 -4.23759580e-001
      -3.67202222e-001 -1.36644095e-001 -1.42221048e-001
      -8.12264904e-002 4.58239280e-002 9.14442539e-002 -5.64488955e-002
      -2.91552693e-001 -3.91043693e-001 -3.51000309e-001
      -2.20136762e-001 -7.06966743e-002 -8.54601040e-002
      -5.87283708e-002 -6.09945543e-002 -1.14553176e-001
      -2.40463853e-001 -3.55125487e-001 -2.87631124e-001
      -1.37159735e-001 -3.12045682e-004 3.52941155e-002</_>
    <_>
      -2.93050885e-001 -3.21273357e-001 -2.64223993e-001
      -1.29077524e-001 -4.70588207e-002 -6.19735941e-002 2.52395235e-002
      -3.60656157e-002 -7.17969984e-002 -1.66519105e-001
      -2.83163399e-001 -1.25258997e-001 6.44552037e-002 1.93198502e-001
      2.33622957e-002 -4.40758653e-002 -2.18192972e-002 -8.01414773e-002
      -1.58843011e-001 -2.35667303e-001 -5.48378862e-002 3.31559122e-001
      6.64159894e-001 7.04314232e-001 2.93616295e-001 -5.29745221e-003
      -1.31893367e-001 -2.19106480e-001 -2.38045871e-001
      -2.14182228e-001 -3.33527550e-002 1.57968462e-001 4.29264098e-001
      4.56213742e-001 2.31809810e-001 -1.94407273e-002 -1.32060483e-001
      -1.89778283e-001 -1.50999874e-001 -1.05985388e-001
      -1.36689499e-001 -1.55358702e-001 -4.37270181e-004 8.38959366e-002
      6.63324371e-002 -7.35711828e-002 -1.49791092e-001 -1.89611167e-001
      -1.51938483e-001 -1.11012816e-001 4.09899279e-002 1.00250669e-001
      1.65143147e-001 1.08196847e-001 3.90485711e-002 -6.35165945e-002
      -1.50729716e-001 -2.31642693e-001 -2.22693831e-001
      -9.70365256e-002 3.37525100e-001 6.05670691e-001 6.13012493e-001
      3.33873630e-001 6.76053390e-002 -8.65446627e-002 -2.61909515e-001
      -2.90466219e-001 -1.50729716e-001 2.53035966e-002 2.32915536e-001
      5.01999736e-001 5.36625385e-001 2.92947829e-001 -4.52595297e-003
      -2.19376639e-001 -3.56631547e-001 -2.71192610e-001 8.61463603e-003
      1.71777517e-001 -1.54587209e-001 -2.00451128e-002 9.62650254e-002
      1.00353710e-001 -3.90485711e-002 -1.90549776e-001 -1.42886579e-001
      -2.85567064e-002 1.37254894e-001 9.25746411e-002 -3.14703166e-001
      -3.34310889e-001 -2.85104692e-001 -1.64204523e-001
      -1.05715230e-001 -8.83188471e-002 4.67245914e-002 1.13558367e-001
      1.37589127e-001 -1.51849901e-002</_>
    <_>
      -2.95610219e-001 -3.15505564e-001 -1.69620663e-001 1.27646597e-002
      7.49403089e-002 2.81070583e-002 1.93898362e-004 -1.20523311e-001
      -9.71630812e-002 -1.40243933e-001 -1.68594554e-001 1.27591398e-002
      2.64706582e-001 2.76758790e-001 1.14217907e-001 3.58938016e-002
      1.98636521e-002 -8.64863917e-002 -1.36840940e-001 -2.22833484e-001
      2.52453536e-001 6.31873310e-001 7.56974280e-001 4.66324210e-001
      1.08832769e-001 -9.90269184e-002 -1.31487474e-001 -2.41360478e-002
      8.43034014e-002 -4.88333113e-004 3.08849305e-001 6.01070225e-001
      5.12982786e-001 7.31328651e-002 -2.61686087e-001 -4.10829514e-001
      -2.18167767e-001 2.17134714e-001 4.67675000e-001 3.36162776e-001
      3.27410959e-002 2.12144330e-001 2.34929621e-001 5.83915859e-002
      -1.54334664e-001 -2.68353134e-001 -7.10256919e-002 3.68542314e-001
      5.42421401e-001 3.75727862e-001 -9.69636589e-002 -3.53574604e-002
      1.30648315e-001 2.85464376e-001 2.62160510e-001 4.80023809e-002
      -3.87343019e-002 1.24325179e-001 2.85238802e-001 2.08459362e-001
      -4.05926183e-002 -1.18225301e-002 1.66179046e-001 3.13665003e-001
      3.02469730e-001 1.03997879e-001 -4.07109223e-002 -7.41467252e-002
      -3.45816426e-002 -6.84493855e-002 -2.08949134e-001
      -6.88496530e-002 5.23297377e-002 6.83034956e-002 -8.61686692e-002
      -1.44597456e-001 -9.16968286e-002 -9.63061526e-002
      -2.01449871e-001 -2.27643654e-001 -4.19360399e-001
      -3.06429923e-001 -9.32415128e-002 3.93587090e-002 -4.59516011e-002
      -1.08414732e-001 -1.00859076e-001 -1.65868282e-001
      -2.23434597e-001 -1.75513342e-001 -3.52919310e-001
      -4.07539308e-001 -2.28962764e-001 -2.29916368e-002 4.72018458e-002
      -7.47454120e-003 -8.01576972e-002 -1.25902921e-001
      -6.65608272e-002 -2.05845088e-002</_>
    <_>
      -8.72825086e-002 -1.41491532e-001 -2.14578658e-001
      -2.34186500e-001 -2.24747449e-001 -2.32244119e-001
      -1.97296470e-001 -1.88098878e-001 -1.00816354e-001
      -5.51802143e-002 -1.22125134e-001 -1.60196394e-001
      -2.11974740e-001 -1.51277050e-001 -1.07515074e-001
      -1.24729045e-001 -2.31341138e-001 -2.86694586e-001
      -2.05832541e-001 -1.21500410e-001 -5.22298329e-002
      -2.14820094e-002 -1.71089526e-002 8.32559168e-002 1.54122397e-001
      7.43365660e-002 -1.62868515e-001 -2.94884175e-001 -2.16799289e-001
      -1.06438860e-001 -1.15914717e-002 -1.32924067e-002
      -3.14775705e-002 -1.40903620e-002 5.94482496e-002 -2.64797900e-002
      -1.96913183e-001 -2.44596735e-001 -1.29343539e-001
      -2.91519128e-002 1.79069079e-002 -3.66485827e-002 -1.02344058e-001
      -1.12234592e-001 -5.48337474e-002 -1.13935530e-001
      -2.14300394e-001 -1.82649598e-001 -4.23392951e-002 4.43866961e-002
      7.29138851e-002 6.58687055e-002 3.46693918e-002 5.01824319e-002
      9.78659764e-002 3.17190140e-002 -1.06717117e-001 -1.29448563e-001
      -3.29002477e-002 6.13224171e-002 5.31328134e-002 1.10533662e-001
      1.29968271e-001 1.89070046e-001 2.38627762e-001 1.83169290e-001
      -2.26632450e-002 -1.31149501e-001 -1.06717117e-001 1.52347842e-002
      -1.10880129e-001 -1.10082172e-001 -8.75239521e-002 6.87194802e-003
      1.06612094e-001 4.06383611e-002 -1.94519326e-001 -3.08349818e-001
      -2.66183764e-001 -1.15079954e-001 -1.39858812e-001
      -1.92366898e-001 -2.29535177e-001 -1.71509609e-001
      -6.20521605e-002 -1.05640903e-001 -2.43625537e-001
      -2.78919667e-001 -1.76229134e-001 -7.68354535e-002
      -1.20875686e-001 -1.86397925e-001 -2.49872774e-001
      -2.42654353e-001 -1.55476868e-001 -1.63839713e-001
      -1.89589754e-001 -1.46174237e-001 -2.49520894e-002
      -1.64842289e-002</_>
    <_>
      8.62180665e-002 1.80937089e-002 -1.51347235e-001 -3.16222429e-001
      -3.92133474e-001 -3.86867106e-001 -2.65129149e-001
      -7.46226758e-002 1.20393120e-001 1.24314688e-001 5.48455194e-002
      8.42290595e-002 2.60497238e-002 -1.06164545e-001 -2.70395547e-001
      -2.96558142e-001 -2.31767610e-001 -1.11318052e-001 2.28287820e-002
      2.41735987e-002 3.59383039e-002 1.70672879e-001 3.06164533e-001
      3.19861799e-001 2.02746063e-001 8.10081214e-002 -3.15418653e-002
      -1.13307051e-001 -1.19861811e-001 -7.98890591e-002
      -2.23539136e-002 1.03070103e-002 1.16946422e-001 2.18432337e-001
      2.47228131e-001 1.52353421e-001 1.10076386e-002 -1.02186538e-001
      -1.27060756e-001 -4.32501324e-002 -7.80693740e-002
      -1.76221460e-001 -1.96529940e-001 -6.03376590e-002 7.77307376e-002
      2.99712922e-002 -1.48657605e-001 -2.14092329e-001 -1.47312790e-001
      -2.03649085e-002 -6.16825260e-002 -1.37537092e-001
      -9.69765931e-002 5.61903343e-002 1.94258735e-001 1.22913435e-001
      -1.40814468e-001 -3.13589245e-001 -2.93224335e-001
      -9.49875861e-002 -1.70875788e-002 5.36135808e-002 2.36864671e-001
      3.71655703e-001 4.04373050e-001 3.03531349e-001 3.38928588e-002
      -2.20002905e-001 -3.20731759e-001 -1.63699687e-001
      -1.11769568e-002 9.61630866e-002 2.25099966e-001 2.30954111e-001
      1.38656154e-001 5.87670878e-002 -3.80966254e-002 -1.27704948e-001
      -1.64343879e-001 -7.07575455e-002 1.17549754e-003 4.30808142e-002
      -4.67863539e-003 -1.34259716e-001 -2.88070828e-001
      -3.39107662e-001 -2.27201849e-001 -5.24380840e-002 1.12493545e-001
      1.39356777e-001 6.00554645e-002 -1.64997801e-002 -1.77509844e-001
      -3.08379292e-001 -3.65326703e-001 -3.44961792e-001
      -2.19302282e-001 3.98598723e-002 2.61038274e-001 2.51906753e-001</_>
    <_>
      -4.33627106e-002 -1.26721442e-001 -2.33034849e-001
      -2.85370320e-001 -2.82660156e-001 -2.69396693e-001
      -2.19196633e-001 -1.93737388e-001 -9.87576395e-002
      -4.74898778e-002 -9.04215276e-002 -1.43619120e-001
      -2.03654036e-001 -1.98377386e-001 -2.27183446e-001
      -2.40446925e-001 -2.86581725e-001 -2.99701512e-001
      -2.15131372e-001 -1.21363021e-001 -2.39604674e-002
      -8.56156461e-003 1.66103020e-002 5.20481020e-002 1.01222489e-002
      -8.09359401e-002 -2.31248707e-001 -3.08899730e-001
      -2.28394851e-001 -1.14731282e-001 2.71636080e-002 4.41453932e-003
      -1.30578764e-002 -4.83519919e-002 -8.12233090e-002
      -1.66717470e-001 -2.33815193e-001 -2.38804474e-001
      -1.23929508e-001 -2.48844959e-002 1.36330873e-001 8.46320465e-002
      1.04715340e-002 -5.37723303e-002 -7.75891095e-002 -1.28856868e-001
      -1.32491067e-001 -6.75287768e-002 6.72414079e-002 1.26783356e-001
      1.27563700e-001 8.52067918e-002 3.75732295e-002 6.05699513e-003
      -4.78368253e-003 -5.49837276e-002 -1.15593396e-001
      -1.07606575e-001 -1.88274998e-002 8.29276815e-002 1.28282130e-001
      1.64931327e-001 1.75340950e-001 1.86961964e-001 1.73554808e-001
      1.13725483e-001 -1.69794448e-002 -1.05327465e-001 -7.73017406e-002
      4.04270813e-002 6.36072084e-002 1.10666029e-001 1.26639679e-001
      1.46247521e-001 1.28918782e-001 7.17996284e-002 -2.87441500e-002
      -1.07750259e-001 -6.28268644e-002 5.62570430e-002 -7.03826323e-002
      -1.00974835e-001 -1.37624040e-001 -1.41545609e-001
      -1.65362388e-001 -2.11640865e-001 -2.18272597e-001
      -1.95667222e-001 -8.33587348e-002 2.11066119e-002 -1.08674288e-001
      -1.94455817e-001 -2.53854096e-001 -2.78738588e-001
      -2.84015238e-001 -3.04690808e-001 -2.55702138e-001
      -1.43681034e-001 -2.11066119e-002 1.71850435e-002</_>
    <_>
      3.18363085e-002 2.51186136e-002 5.26368245e-002 1.09725319e-001
      1.38839677e-001 1.60559475e-001 2.40419045e-001 2.28793249e-001
      2.34524429e-001 1.60948172e-001 7.26937354e-002 4.53674309e-002
      1.19937114e-001 1.41194046e-001 1.13867745e-001 1.52834073e-001
      1.58978075e-001 1.51273862e-001 1.95102140e-001 1.91658139e-001
      1.29561365e-001 1.53311640e-001 2.16939718e-001 2.09324792e-001
      1.84905037e-001 1.75466254e-001 1.18548065e-001 8.37311149e-002
      1.25329658e-001 1.84285209e-001 5.29612117e-002 -4.68677655e-003
      -6.75883815e-002 -5.97525947e-002 4.36967462e-002 8.83368105e-002
      8.78734961e-002 5.64047694e-002 1.01020351e-001 1.51235089e-001
      -4.23348546e-002 -1.56409204e-001 -2.16301188e-001
      -1.37809932e-001 -2.93420758e-002 -6.73218891e-002
      -1.47152990e-001 -1.75604731e-001 -5.72347715e-002 6.53880462e-002
      3.39084538e-004 -6.54975772e-002 1.99538264e-002 2.22179085e-001
      2.66480982e-001 4.74435389e-002 -2.91406333e-001 -4.72912997e-001
      -3.00588846e-001 -6.35176525e-002 8.48712102e-002 1.37860477e-001
      3.01678896e-001 4.70206141e-001 4.48333174e-001 1.98055223e-001
      -2.40903050e-001 -5.45018315e-001 -4.48617935e-001
      -1.68644577e-001 -6.54160976e-002 -2.60757338e-002 9.84450802e-002
      2.16786534e-001 1.89784631e-001 -6.86307717e-003 -3.28790784e-001
      -5.34931183e-001 -4.27222073e-001 -1.39081642e-001
      -2.13120788e-001 -2.87537724e-001 -2.15867266e-001
      -7.52396062e-002 -8.19784552e-002 -2.35731363e-001
      -3.95165354e-001 -4.39061344e-001 -2.37747580e-001
      -1.76877994e-002 -1.51184097e-001 -2.79811919e-001
      -2.46320531e-001 -1.09607540e-001 -5.30780964e-002
      -1.22629717e-001 -1.83094978e-001 -1.44680798e-001 3.87385674e-002
      1.10968538e-001</_>
    <_>
      9.60123315e-002 1.72525316e-001 2.51889139e-001 2.13005468e-001
      1.56105399e-001 7.18385354e-002 4.88047898e-002 8.21010768e-002
      9.07671303e-002 8.05045888e-002 1.20642580e-001 2.31364042e-001
      2.72756368e-001 1.57359734e-001 7.75460713e-003 -8.24417695e-002
      -1.02966852e-001 -2.77082045e-002 2.66832002e-002 6.34003505e-002
      1.26229942e-001 2.12093294e-001 1.60780579e-001 -1.74456630e-002
      -1.95671901e-001 -2.59413660e-001 -2.55992830e-001
      -1.75146818e-001 -7.50300512e-002 1.04911383e-002 1.20642580e-001
      1.63289249e-001 1.03880510e-001 -1.36826560e-002 -1.22237608e-001
      -1.80392012e-001 -2.10267469e-001 -1.93847552e-001
      -9.46429670e-002 -1.25426520e-002 5.78129888e-002 6.71633556e-002
      6.62511885e-002 6.28303364e-002 5.38221188e-002 7.18458788e-003
      -4.48124446e-002 -7.16092065e-002 -1.90421566e-002 1.57363396e-002
      -7.52579123e-002 -1.15053751e-001 -9.48708206e-002
      -5.16541377e-002 -1.74456630e-002 -2.86203828e-002
      -1.49369920e-002 1.89293269e-002 2.70253569e-002 1.94993466e-002
      -1.91566765e-001 -2.89517015e-001 -2.96700865e-001
      -2.66255379e-001 -2.46072441e-001 -2.28626043e-001
      -1.48350075e-001 -2.86203735e-002 -1.61913261e-002
      -3.61463949e-002 -8.42661262e-002 -1.38999686e-001
      -1.37745351e-001 -1.72295988e-001 -1.98750585e-001
      -2.02171445e-001 -1.31245837e-001 -2.51995251e-002
      -2.85009434e-003 -1.68756433e-002 4.57260907e-002 8.46097469e-002
      1.44018501e-001 1.29080772e-001 7.30928704e-002 2.64553390e-002
      2.50941468e-003 2.39466783e-002 2.88497116e-002 2.85075530e-002
      5.56464754e-002 1.26572102e-001 2.00576410e-001 2.38547906e-001
      1.83814332e-001 1.06389180e-001 1.71049722e-002 -1.86999980e-002
      -2.46295165e-002 2.39510741e-003</_>
    <_>
      5.61623499e-002 9.10086334e-002 1.83243424e-001 2.55062312e-001
      2.39464924e-001 1.02803834e-001 5.95691940e-003 -4.05073315e-002
      -8.38509109e-003 4.63695861e-002 6.40359893e-002 1.65012211e-001
      2.88651377e-001 2.33957693e-001 3.68542895e-002 -1.70817584e-001
      -1.95547685e-001 -1.19420961e-001 -2.81685404e-003 5.89728765e-002
      1.31393954e-001 2.48177141e-001 2.43986830e-001 3.42496447e-002
      -2.63890982e-001 -4.46745723e-001 -3.93130720e-001
      -2.25097641e-001 -4.85308655e-002 5.37635796e-002 2.15187922e-001
      2.66860127e-001 1.08225331e-001 -9.29521397e-002 -2.31470793e-001
      -2.61587411e-001 -2.63533890e-001 -2.17671826e-001
      -1.04483619e-001 4.03808579e-002 1.70761600e-001 1.69834659e-001
      7.40956292e-002 2.07157154e-002 4.11024466e-002 4.04150635e-002
      -1.26027456e-002 -4.47268374e-002 3.49846226e-003 7.64843971e-002
      2.81123258e-002 2.57477742e-002 2.38888972e-002 -2.29037944e-002
      -3.84706743e-002 -8.07992965e-002 -7.55303055e-002 1.23624345e-002
      6.93901554e-002 7.91792125e-002 -8.67257118e-002 -1.14805683e-001
      -1.46332070e-001 -3.00058633e-001 -4.03938770e-001
      -4.33784783e-001 -3.38076293e-001 -1.39446899e-001
      -4.48475406e-002 -4.98782881e-002 -4.64929007e-002
      -8.17288458e-003 1.87387541e-002 -1.13042787e-001 -2.96913356e-001
      -3.86424124e-001 -3.11672181e-001 -1.10887282e-001
      -1.31439371e-002 -1.67980697e-002 5.65791279e-002 1.66566819e-001
      2.88199812e-001 3.08736444e-001 1.55431658e-001 7.30564957e-003
      -4.41264957e-002 2.28998717e-002 7.36414716e-002 9.62739065e-002
      9.71435457e-002 1.59261718e-001 2.60388613e-001 3.46517146e-001
      3.17179918e-001 1.93421915e-001 6.45429641e-002 4.12930781e-003
      2.78982669e-002 9.78914201e-002</_>
    <_>
      2.29773864e-001 2.75487125e-001 2.73059577e-001 2.50598729e-001
      1.86460778e-001 9.49538946e-002 4.62643430e-002 4.64404710e-002
      8.58517736e-002 1.13336571e-001 2.03497291e-001 2.33642504e-001
      2.28182092e-001 1.67503476e-001 5.23063950e-002 -4.79567870e-002
      -6.34377822e-002 -2.73609976e-003 7.82602057e-002 1.23885326e-001
      1.27751753e-001 1.13007098e-001 4.82662320e-002 -3.93090323e-002
      -1.27941489e-001 -1.58821315e-001 -1.27346292e-001
      -5.39734364e-002 3.00356280e-002 7.81472847e-002 1.00354381e-001
      5.86776510e-002 -5.16528822e-002 -1.16017006e-001 -1.25797004e-001
      -1.12353727e-001 -9.98959541e-002 -8.84823501e-002
      -5.29940277e-002 1.10296784e-002 2.33245287e-002 -4.19499725e-002
      -1.21425517e-001 -8.07008445e-002 -1.49931880e-002
      -5.28450450e-003 -5.91202229e-002 -1.16613001e-001
      -7.93422833e-002 1.24332234e-002 -6.94248006e-002 -1.47328928e-001
      -1.66030064e-001 -7.60879070e-002 -6.98724343e-003
      -4.22709100e-002 -1.34019300e-001 -1.88805133e-001
      -1.27196670e-001 -4.03315797e-002 -1.30849123e-001
      -2.03524917e-001 -1.81354240e-001 -1.20444469e-001
      -1.05063312e-001 -1.63374647e-001 -2.48659685e-001
      -2.66195744e-001 -2.20851362e-001 -1.37500554e-001
      -7.09362924e-002 -9.35488641e-002 -2.75789499e-002
      -1.32271741e-002 -6.62090257e-002 -1.77797735e-001
      -2.65270203e-001 -2.54003972e-001 -2.06372008e-001
      -1.15245387e-001 8.21727440e-002 1.21653400e-001 1.62832737e-001
      1.39142245e-001 3.86523530e-002 -9.56678540e-002 -1.88159600e-001
      -1.74899623e-001 -9.17601734e-002 -2.30855556e-004 1.36871070e-001
      1.92225575e-001 1.98019698e-001 1.50957525e-001 5.06274030e-002
      -5.48081212e-002 -1.11813791e-001 -1.01402447e-001
      -2.63570081e-002 4.02966328e-002</_>
    <_>
      5.75655885e-002 1.43606663e-001 2.71121323e-001 3.33721399e-001
      2.73969948e-001 1.11032635e-001 1.77473351e-002 -1.51042209e-003
      1.79488417e-002 3.46998051e-002 6.55372515e-002 2.17883021e-001
      3.73105705e-001 3.22784454e-001 8.18661526e-002 -1.44093350e-001
      -1.41513646e-001 -4.71279211e-003 7.50002265e-002 9.72880870e-002
      7.57550150e-002 2.20711619e-001 2.96771944e-001 1.66537136e-001
      -1.52816072e-001 -3.73660803e-001 -2.81098396e-001
      -7.49673471e-002 4.36359160e-002 8.81833434e-002 5.95664531e-002
      8.40156004e-002 9.35259536e-002 7.34806135e-002 -6.89928830e-002
      -1.81440294e-001 -1.57320216e-001 -1.12410888e-001
      -7.17603788e-002 2.27073790e-003 -6.04588538e-002 -1.21765397e-001
      -7.26054832e-002 7.87804350e-002 1.37250230e-001 9.09307227e-002
      1.96397696e-002 -6.99326843e-002 -7.92297423e-002 -1.98803749e-002
      -1.55387685e-001 -2.11965039e-001 -1.55279204e-001
      -5.57414480e-002 -1.76670719e-002 -2.96368599e-002
      -5.94825111e-002 -6.32509068e-002 -6.57376498e-002
      -1.56333447e-002 -1.68413982e-001 -1.95262417e-001
      -2.05069959e-001 -2.75741935e-001 -3.91371608e-001
      -4.06475395e-001 -3.67650002e-001 -2.14548454e-001
      -1.16183877e-001 -8.67556706e-002 -3.38073187e-002 1.31265493e-002
      6.24314658e-002 -9.62104946e-002 -2.97535747e-001 -4.27521676e-001
      -4.01911259e-001 -2.15139195e-001 -2.90297847e-002 8.37008469e-003
      7.55261555e-002 1.84477612e-001 3.24612945e-001 3.19735169e-001
      1.80033758e-001 -1.33681539e-002 -8.01751539e-002 -1.24356365e-002
      9.28642079e-002 9.95341763e-002 4.72757630e-002 1.23621374e-001
      2.54406750e-001 3.59878778e-001 3.26850861e-001 1.80419341e-001
      5.63722812e-002 -1.11174649e-002 1.58394463e-002 3.91436368e-002</_>
    <_>
      3.11301574e-002 9.87078100e-002 2.12366655e-001 2.58401573e-001
      2.06739306e-001 7.05231801e-002 -3.79093029e-002 -7.92223662e-002
      -4.08438630e-002 -5.30460267e-004 9.33503807e-002 2.20714316e-001
      3.11488718e-001 2.17755511e-001 4.01651599e-002 -9.89949033e-002
      -1.05985992e-001 -3.63605209e-002 1.35904755e-002 3.00049074e-002
      1.73478141e-001 2.91792214e-001 2.32745036e-001 2.20250455e-003
      -2.11868346e-001 -3.05222601e-001 -2.09029630e-001
      -1.00221252e-002 1.05482951e-001 1.01140045e-001 1.69421613e-001
      2.30617926e-001 1.11976691e-001 -1.04206406e-001 -2.61996686e-001
      -2.97972679e-001 -1.89613998e-001 2.53975689e-002 1.50050581e-001
      1.36210531e-001 3.86978872e-002 6.71430379e-002 5.88471480e-002
      3.15145738e-002 -2.24562455e-003 -3.88814434e-002 -1.64646171e-002
      9.67045799e-002 1.62184849e-001 1.41057953e-001 -1.26711905e-001
      -1.65142179e-001 -1.02116197e-001 7.86506943e-003 6.96694404e-002
      1.45752719e-002 -2.28773765e-002 3.94149721e-002 9.76452902e-002
      8.15007836e-002 -2.23259583e-001 -3.40100884e-001 -3.18402827e-001
      -2.33381346e-001 -1.79279670e-001 -1.97508901e-001
      -1.74306691e-001 -1.05705105e-001 -7.44212344e-002
      -9.93661508e-002 -1.51246458e-001 -1.96032241e-001
      -1.83430359e-001 -1.87492371e-001 -2.44329229e-001
      -2.56228894e-001 -1.84173405e-001 -1.06579192e-001
      -1.19306654e-001 -1.39685035e-001 -2.71646082e-002 3.04113720e-002
      1.18153155e-001 1.62757695e-001 9.53056142e-002 3.71145143e-004
      -6.03724122e-002 -8.57700855e-002 -8.59474391e-002
      -4.49890681e-002 2.50021834e-002 7.37204924e-002 1.84019551e-001
      2.68573403e-001 2.29727283e-001 1.10524274e-001 -3.35664004e-002
      -1.12753451e-001 -8.08763802e-002 -8.23315326e-003</_>
    <_>
      8.41019601e-002 8.96843001e-002 9.69091058e-002 8.07613954e-002
      -4.12789127e-003 -1.37745157e-001 -2.32062981e-001
      -2.33094007e-001 -9.94021297e-002 1.17114494e-002 8.09456408e-002
      8.47286209e-002 7.30278641e-002 3.20494100e-002 -4.17948104e-002
      -2.04209253e-001 -3.57422888e-001 -3.39952469e-001
      -1.53232649e-001 4.80948109e-003 1.15658753e-001 9.14546698e-002
      1.25428410e-002 -4.05681245e-002 -5.80247678e-002 -1.80753767e-001
      -3.44209939e-001 -3.31298411e-001 -1.68881610e-001
      -5.01726614e-003 1.46626249e-001 9.27926004e-002 -5.03309220e-002
      -1.23518728e-001 -9.54943448e-002 -1.57407880e-001
      -2.86198944e-001 -2.84886926e-001 -1.72672182e-001
      -2.63018105e-002 1.11747883e-001 3.01404055e-002 -9.60220918e-002
      -9.42569599e-002 -6.74674404e-004 -1.74970590e-002
      -1.49159655e-001 -1.88695088e-001 -8.27449709e-002 3.89896408e-002
      3.92316170e-002 -2.30344702e-002 -1.08264171e-001 -4.53424305e-002
      7.26997405e-002 6.28059506e-002 -7.73637518e-002 -1.28248110e-001
      -3.01145036e-002 6.44279793e-002 -8.12929273e-002 -1.52305990e-001
      -2.32875526e-001 -1.62563741e-001 -5.21248318e-002
      -5.23197725e-002 -1.78463995e-001 -2.18434215e-001
      -1.74880460e-001 -9.50457528e-002 -1.48492575e-001
      -2.30734274e-001 -2.54428893e-001 -1.82651311e-001
      -7.64941350e-002 -1.55230045e-001 -3.65257680e-001
      -4.09389377e-001 -3.33116800e-001 -2.14860663e-001 1.25116603e-002
      -2.56325901e-002 -3.22839990e-002 1.83818806e-002 1.03112824e-001
      -1.02722486e-002 -2.51395255e-001 -3.15603822e-001
      -1.92992017e-001 -6.00844473e-002 4.61716764e-002 4.36443426e-002
      4.62943316e-002 7.64858425e-002 1.18495278e-001 2.60833334e-002
      -1.52867258e-001 -2.05487028e-001 -7.71543011e-002 1.60122439e-002</_>
    <_>
      2.78015733e-001 3.17832142e-001 2.66570330e-001 1.21415794e-001
      -2.83492077e-002 -1.66855887e-001 -2.07708091e-001
      -6.68830127e-002 1.20362677e-001 1.88539416e-001 2.77883470e-001
      3.80814552e-001 3.53506535e-001 1.31473094e-001 -1.46443367e-001
      -3.16339463e-001 -2.79497772e-001 -7.31950849e-002 1.28789648e-001
      1.86804414e-001 1.83291152e-001 2.60516971e-001 2.52877772e-001
      9.54900384e-002 -1.10840641e-001 -2.29067430e-001 -1.87384158e-001
      -6.19260408e-002 2.66735014e-002 8.63350928e-002 1.05613761e-001
      8.75039771e-002 4.82107811e-002 4.74942885e-002 2.27527265e-002
      -2.00821161e-002 -7.32828677e-002 -9.88562852e-002
      -1.07575767e-001 -1.13914134e-002 1.13407504e-002 -9.27304626e-002
      -1.47054791e-001 -6.17229263e-004 1.55982703e-001 1.50034413e-001
      -3.47054005e-002 -1.53604597e-001 -1.30962223e-001 4.17380448e-004
      -1.13071717e-001 -2.41327792e-001 -2.27172986e-001
      -4.61071059e-002 1.44581392e-001 1.37509525e-001 -6.03666008e-002
      -2.05857724e-001 -2.06408560e-001 -6.00863658e-002
      -2.09619477e-001 -3.10699791e-001 -2.39317983e-001
      -1.08406834e-001 -1.85951442e-002 -2.44993418e-002
      -1.31440222e-001 -2.31981188e-001 -3.00372541e-001
      -2.23334178e-001 -6.44925013e-002 -8.67825747e-002
      -2.62347385e-002 -4.56114486e-002 -1.21702604e-001
      -1.72264814e-001 -1.85224801e-001 -1.68150395e-001
      -1.58820286e-001 -1.26103729e-001 1.80404559e-001 2.33709976e-001
      2.26389691e-001 1.15350924e-001 -5.12070321e-002 -1.68105915e-001
      -1.70265287e-001 -5.38896546e-002 9.66734141e-002 1.35807127e-001
      2.53885180e-001 2.75580704e-001 2.20237464e-001 1.36870116e-001
      2.42561977e-002 -7.90548027e-002 -1.37813255e-001 -3.55211571e-002
      1.38852745e-001 2.06214517e-001</_>
    <_>
      1.80231839e-001 1.75435260e-001 1.53424367e-001 1.00237928e-001
      5.67897502e-003 -1.21439032e-001 -2.32104510e-001 -2.43040159e-001
      -1.09600291e-001 1.53811360e-002 1.63504601e-001 1.67213336e-001
      1.45511717e-001 4.11631130e-002 -1.28970206e-001 -3.07833850e-001
      -4.15093035e-001 -3.60083431e-001 -1.64336130e-001 9.91285313e-003
      1.73682541e-001 1.42718032e-001 7.55822137e-002 -6.72689378e-002
      -2.28621364e-001 -3.69360000e-001 -4.34935063e-001
      -3.55537027e-001 -1.79613099e-001 -7.48608820e-003 2.06210122e-001
      1.45666331e-001 -4.59172996e-003 -1.56908110e-001 -2.58433908e-001
      -3.21478605e-001 -3.41800898e-001 -3.00572038e-001
      -2.01522157e-001 -5.02713248e-002 2.57093877e-001 1.92165658e-001
      4.87015732e-002 -1.93115473e-002 -7.87478220e-003 -2.73804949e-003
      -3.56731340e-002 -6.72507733e-002 3.92660825e-003 1.03532180e-001
      9.77520347e-002 -6.94745744e-004 -1.12826839e-001 -1.06751487e-001
      -3.39731947e-002 -4.14827559e-003 -5.50789386e-002
      -9.33650061e-002 -2.96933055e-002 6.37322143e-002 -2.11858451e-002
      -1.25922218e-001 -2.35960543e-001 -2.23492324e-001
      -1.66744068e-001 -1.47467777e-001 -1.74537137e-001
      -1.88113630e-001 -1.54262215e-001 -9.67251062e-002 2.35457495e-002
      -2.22253799e-002 -6.48690909e-002 -7.28968605e-002
      -8.27373490e-002 -1.38211712e-001 -1.93757027e-001
      -2.01261789e-001 -1.25173628e-001 -5.78159876e-002 9.97184888e-002
      8.41514543e-002 6.99409619e-002 6.01818450e-002 1.13158599e-002
      -1.02445237e-001 -2.19448462e-001 -2.47097701e-001
      -1.18997872e-001 2.50064563e-002 8.28066766e-002 6.51803017e-002
      7.18127787e-002 6.98754266e-002 1.44788036e-002 -1.03669561e-001
      -2.31822178e-001 -2.43550956e-001 -1.17372125e-001 1.73711292e-002</_>
    <_>
      2.03425527e-001 2.56387115e-001 3.08676630e-001 3.04271728e-001
      2.31282875e-001 1.23355567e-001 5.85751384e-002 5.94459027e-002
      1.10776991e-001 1.55260608e-001 2.29068786e-001 2.63965368e-001
      2.85532445e-001 1.91545159e-001 5.79892397e-002 -5.10172471e-002
      -6.67919889e-002 2.59983093e-002 1.50009394e-001 2.36718044e-001
      1.73632234e-001 1.54971331e-001 8.06335732e-002 -4.90424521e-002
      -1.47000372e-001 -1.86642855e-001 -1.34920016e-001
      -1.47464138e-003 1.22151405e-001 2.16744959e-001 1.21756732e-001
      5.87840453e-002 -6.61143437e-002 -1.39002711e-001 -1.34924456e-001
      -1.10922121e-001 -7.25039244e-002 -3.06764878e-002 3.15510556e-002
      1.05864577e-001 3.83765697e-002 -3.49725075e-002 -9.58239734e-002
      -5.27435578e-002 1.74638629e-002 2.03111712e-002 -4.23181951e-002
